9996 16
. -0.08726859 -0.079620264 0.40072298 -0.104898885 -0.09346239 -0.10830571 -0.083137535 -0.08021621 -0.07892282 -0.08751379 -0.07062426 0.009815514 -0.082484595 -0.08673541 -0.06431312 -0.079841375
영화 -0.08861656 -0.06838372 0.111628905 -0.0925213 -0.08643801 -0.098549806 -0.068982646 -0.06677799 -0.08872992 -0.07707187 -0.06537334 0.011751927 -0.080413476 -0.083244845 -0.043301437 -0.08090727
다 -0.09434748 -0.07500208 0.089495815 -0.108679414 -0.09014022 -0.112798356 -0.08973905 -0.0781791 -0.08896153 -0.06650267 -0.06991074 0.0037629604 -0.07807056 -0.08270374 -0.048771236 -0.08763331
고 -0.075875506 -0.070193835 0.027089246 -0.077596374 -0.06505362 -0.08021409 -0.05163337 -0.07117851 -0.06844861 -0.07554447 -0.06642919 -0.008137573 -0.07522147 -0.07987011 -0.051234636 -0.082996145
하 -0.0668758 -0.06808803 0.026159134 -0.10039493 -0.08716248 -0.099370666 -0.073213056 -0.059211496 -0.083203554 -0.05881155 -0.067632645 0.012673643 -0.075749956 -0.09859206 -0.02705102 -0.057132076
을 -0.064662315 -0.07255194 -0.039652396 -0.083610296 -0.047015596 -0.07684624 -0.066754155 -0.066238135 -0.07961989 -0.06899468 -0.045227006 0.012669848 -0.06662906 -0.056675423 -0.046057053 -0.084222235
보 -0.065961964 -0.068465404 0.022581829 -0.0736054 -0.10192153 -0.037579227 -0.062132012 -0.06992809 -0.05553447 -0.0700548 -0.06603012 -0.00984912 -0.042614337 -0.062185112 -0.036588848 -0.07946088
.. -0.08634138 -0.055524115 -0.007464637 -0.08878214 -0.09194955 -0.100350395 -0.07009252 -0.066843405 -0.083151475 -0.055826955 -0.060533896 0.007842755 -0.08407556 -0.07856173 -0.011817948 -0.078319676
게 -0.06940142 -0.06446453 -0.012051425 -0.046092827 -0.08108056 -0.050093792 -0.05270162 -0.06434585 -0.079399265 -0.055024717 -0.08540184 0.00737621 0.13639453 -0.06960518 -0.063353024 -0.08099068
, -0.056432318 -0.060494334 -0.029530574 -0.08685253 -0.08106097 -0.08052663 -0.062200986 -0.0723766 -0.07436494 -0.080943644 -0.06350849 -0.043246936 -0.074170925 -0.07631032 -0.060588636 -0.07502713
! -0.08869747 -0.07715282 -0.055845086 -0.08567877 -0.021261167 0.18972968 -0.021389961 -0.06706128 0.13070641 -0.07764538 0.18451402 0.0042073373 -0.009673801 -0.08973554 -0.027563732 -0.086774774
지 -0.05258114 -0.05618155 0.02552704 -0.061668914 -0.06344163 -0.09846902 -0.0722873 -0.020006783 -0.053751618 -0.06284378 -0.045328632 -0.027338792 -0.079742506 -0.090562955 -0.06362871 -0.06356026
있 -0.08838125 -0.07382825 0.00195467 -0.07162916 -0.063802876 -0.061553545 -0.081710145 -0.059632033 -0.066077046 -0.075032085 -0.071574084 -0.03145305 -0.043189757 0.24022223 -0.05448837 -0.05980254
없 -0.08867203 -0.043137133 -0.01833713 -0.08995028 -0.082954615 -0.08164649 -0.062434446 0.19919011 -0.082735315 0.15569928 -0.06808008 -0.0009547891 -0.07677731 -0.08513086 0.114169426 -0.020921974
? -0.047212105 -0.06799714 -0.029759645 -0.100342184 -0.076806195 -0.07094012 -0.07976536 -0.057243265 -0.087550655 0.10821965 -0.07330047 -0.047397938 -0.0730498 -0.06032599 -0.06353799 0.16880201
좋 -0.09012087 -0.08022178 -0.030352438 0.14965855 -0.042726837 -0.04237646 0.2884062 -0.076822616 -0.051818457 -0.06850255 -0.03908079 0.010002808 -0.040191703 -0.046969205 -0.065894864 -0.08847853
나 -0.07026896 -0.048579685 0.1135488 -0.09302705 -0.094623 -0.084202245 -0.0789112 -0.07315521 -0.08243927 -0.059147034 -0.07907169 -0.029812396 -0.042820066 -0.067256115 -0.07120783 -0.06817663
었 -0.07996455 -0.08246627 0.057464816 -0.089235246 -0.06167214 -0.10587755 -0.061860327 -0.07810668 -0.07758136 -0.055071022 0.18104339 -0.0052256216 -0.059912402 -0.05072784 -0.05556348 -0.06329713
만 -0.016960591 -0.08368661 0.21042067 -0.09352692 -0.060985506 -0.08712744 -0.038727805 0.02344033 -0.0483867 -0.07121555 -0.027707713 -0.00674206 -0.06344524 -0.07881271 -0.013604348 -0.023149721
는데 -0.076252595 -0.07210288 -0.039435126 -0.06448029 -0.04985007 -0.06491503 -0.013919958 -0.08617752 -0.051824912 -0.06379881 -0.068768345 0.016648905 -0.034250047 -0.033113778 -0.056551054 -0.076189004
너무 -0.08588455 -0.08035559 0.062137295 -0.09482067 -0.08847915 -0.09814707 -0.071971655 -0.07715414 -0.08337271 -0.07056031 -0.0666716 -0.022775328 -0.07746796 -0.08454293 -0.04730278 -0.08286693
봤 -0.09387782 -0.08109885 0.034459658 -0.078865424 -0.06453083 -0.066693164 -0.033583995 -0.06692132 -0.035858586 -0.063107505 -0.059820004 -0.021218766 -0.044132225 -0.07365051 -0.053883344 -0.08081676
적 -0.05756632 -0.057434253 -0.025110304 -0.073323295 -0.07310305 -0.060748912 -0.0106725115 -0.061228853 -0.0627626 -0.07208203 -0.06496673 -0.012904882 -0.048177365 -0.07763254 -0.040539782 -0.08378676
안 -0.037976485 -0.03415581 -0.032689944 -0.042179573 -0.09031486 -0.060361233 -0.07294694 -0.037196673 -0.07706575 0.13504304 -0.06337767 0.013228527 -0.07021297 -0.087674126 -0.054576598 0.17049704
정말 -0.056360554 -0.07812773 -0.004728885 -0.108989134 -0.082303315 -0.07479958 -0.06999724 -0.07687359 -0.08334064 -0.07123944 -0.055166516 -0.016245712 0.24496514 -0.08307526 -0.038835663 -0.08184867
로 -0.050169986 -0.04523914 -0.027841985 -0.101656176 -0.08336185 -0.0907293 -0.07519686 -0.041065652 -0.089743674 -0.0657957 -0.06365848 -0.03687513 -0.07330718 -0.07799123 -0.032997087 -0.028841645
음 -0.09772183 -0.07744974 -0.031185007 -0.0910249 -0.093957864 -0.10330374 -0.071298 -0.0735208 -0.08190189 -0.08602273 -0.062724896 -0.04524398 -0.08165469 -0.086269714 -0.06431651 -0.08876748
것 -0.06727553 -0.069907784 0.008074533 -0.08990472 -0.071683995 -0.065740235 -0.041665234 -0.07972018 -0.08611759 -0.060321845 -0.06613915 -0.0008572452 -0.06423392 -0.04384346 -0.042654827 -0.08130542
아 -0.08889498 -0.07185432 0.01966895 -0.0751629 -0.080035195 -0.079397656 -0.08068407 -0.07780095 -0.08511261 -0.09918585 -0.0648121 0.009479798 -0.06280955 -0.064835325 -0.04687075 -0.086073436
네요 -0.09953348 -0.07534138 0.012262135 -0.088404454 0.1317083 -0.0837939 -0.068167 -0.07324991 -0.079232365 -0.0752859 -0.053179085 -0.010413252 -0.076061085 -0.07607614 -0.069773726 -0.0693956
재밌 -0.08422377 -0.074612096 0.013561601 -0.022511395 0.2614332 0.017308379 -0.056955725 -0.077900015 0.27700028 -0.08018206 0.2412076 0.019123312 -0.032709975 0.20010403 -0.060603876 -0.079482175
어 -0.09483401 -0.06123549 0.071463495 -0.09814115 -0.08019365 -0.08165718 -0.07191525 -0.06912366 -0.07838743 -0.07850063 -0.065724604 0.018092405 -0.08697623 -0.082240604 -0.031745773 -0.060568232
같 -0.040132735 -0.04752163 -0.021841459 -0.097883835 -0.099001236 -0.104337566 -0.069245204 -0.047716532 -0.08096376 -0.0398153 -0.0654374 -0.02115537 -0.08718762 -0.08069835 -0.03670291 -0.04697002
점 0.037900843 -0.06431011 -0.022781147 -0.08884528 -0.08129504 -0.106835306 -0.058676507 -0.07795924 -0.07850535 -0.06659125 -0.07126873 -0.0074930303 -0.047428846 -0.07333 -0.06274725 0.056343038
지만 -0.06738951 -0.056305055 0.015983166 -0.030379416 -0.040691946 0.10325829 -0.068361185 -0.05803166 -0.032202106 -0.053083852 -0.054665156 -0.010752071 -0.068734325 -0.07881663 -0.050386358 -0.052001994
진짜 -0.09191988 -0.07903098 0.014385963 -0.08075573 -0.07617965 -0.076110594 -0.08002195 -0.07770604 -0.08849585 -0.084220834 -0.075055905 -0.019721402 -0.05027904 -0.078256205 -0.060708802 -0.092346214
했 -0.04730451 -0.023750601 -0.0490293 -0.09836502 -0.09307119 -0.09187909 -0.06726569 -0.047704864 -0.08295542 -0.043502472 -0.068012305 0.0026143866 -0.06237959 -0.07934498 -0.017081892 -0.04304173
에서 -0.04863137 -0.044968076 -0.04322524 -0.067862555 -0.09108405 -0.08090294 -0.07174334 -0.05197067 -0.06412854 -0.04984097 -0.06058882 0.004331904 -0.063763045 -0.09406588 -0.04392723 -0.061652455
기 -0.043517817 0.14163725 0.033433482 -0.09797636 -0.044782653 -0.056613002 -0.040447935 -0.066312104 -0.07528029 -0.04525599 -0.056875747 0.0039232746 -0.05431642 -0.08618452 -0.023336926 -0.07092625
네 -0.045811296 -0.063284256 -0.032513693 -0.106605954 -0.075797595 -0.10304176 -0.07085857 0.11140078 -0.0806901 -0.081445985 -0.07855062 -0.017008066 -0.072184004 -0.088698745 0.06560903 -0.083187826
않 0.0017759681 -0.009573412 -0.04895965 -0.08136755 -0.06341242 -0.05796151 0.012243528 -0.050156467 -0.053673655 -0.061636932 -0.052576564 -0.044696677 -0.041776888 -0.04533226 -0.009113539 -0.03430155
거 -0.03887798 -0.004034697 -0.022951055 -0.07298811 -0.05627667 -0.06683498 -0.058380894 -0.0724273 -0.07773035 -0.056348518 -0.077352285 0.011316944 -0.069320336 -0.06511448 -0.031177986 -0.06099859
았 -0.08494062 -0.07266055 0.0055052587 -0.050959367 -0.08303292 -0.08073222 -0.03893674 -0.06863176 -0.06579304 -0.07033936 -0.070881076 0.017792117 -0.06851846 -0.043434635 -0.072159864 -0.076786146
수 -0.06043174 -0.056175675 0.00770916 -0.061843652 -0.08430417 -0.07940852 0.2590574 -0.055261653 -0.07039664 -0.003362608 -0.059943404 -0.0055242293 -0.08317943 -0.08557388 -0.03629815 -0.032811902
되 -0.075799845 -0.060896613 -0.010717422 -0.077062555 -0.0863789 -0.0036963897 -0.045110364 -0.065474786 -0.07287408 -0.070256755 -0.0179852 0.015387097 -0.06946527 -0.08198562 -0.066663444 -0.0755408
면 -0.03594818 -0.055324335 0.020059302 -0.07896297 -0.04779961 -0.06786346 -0.033958297 -0.03868757 -0.06869598 -0.021165542 -0.06718874 -0.018006086 -0.06858609 -0.07075565 -0.050288983 -0.064054765
ㅋㅋ -0.0714904 -0.045050636 0.004365013 0.108958595 -0.08511155 -0.10259398 -0.06612393 -0.039419252 0.04117362 -0.07792008 0.073935345 -0.006121017 -0.079437 -0.07936924 -0.046652507 -0.06355372
말 -0.091481894 -0.045725554 0.05994284 -0.0277105 -0.086189345 -0.014827423 -0.064995386 -0.0058906404 -0.079239875 0.024863794 0.020427326 -0.044488966 -0.078936 -0.08145454 -0.065517515 -0.031276934
연기 -0.07641169 -0.088402525 0.015415588 -0.06662082 -0.06024307 -0.07363547 -0.012162183 -0.07234436 -0.023280399 -0.06336285 -0.025799325 -0.009517837 0.0017128277 -0.048597757 -0.05250443 -0.09034766
인 -0.056027655 -0.063610725 0.011560599 -0.08666174 -0.077852026 -0.08182651 -0.06522813 -0.06655473 -0.070012346 -0.066195615 -0.06189067 0.012783005 -0.0519403 -0.09531451 -0.03244001 -0.076999575
주 -0.054796834 -0.071047336 0.010611009 -0.08868621 -0.08045333 -0.06106628 -0.050141077 -0.057879083 -0.070657745 -0.056949094 -0.061011646 0.009315189 -0.029146371 -0.07372616 -0.038279984 -0.067110404
내 -0.04675291 -0.044242423 -0.04790603 -0.09481357 -0.07294451 -0.07279798 -0.04722092 -0.07479239 -0.063337065 -0.08585324 -0.068173595 0.016282212 -0.052795775 -0.085104585 -0.022887029 -0.05847256
최고 -0.0747166 -0.064440705 -0.0342867 0.31998354 -0.00408607 0.18283394 -0.05130988 -0.08045774 0.39662847 -0.08394617 -0.058175065 -0.020042349 0.17146286 0.22399165 -0.058606975 -0.07472418
~ -0.06080131 -0.07527996 -0.01357116 -0.08480255 0.060152818 -0.045485124 0.013654509 -0.07821154 -0.0037672776 -0.08979449 -0.08056526 0.018527484 -0.07501219 -0.08228496 -0.06644245 -0.092253536
평점 -0.07614295 -0.03971793 -0.024849147 -0.09294968 -0.034051325 -0.08837697 -0.031121679 0.07418437 -0.07966607 -0.08319324 -0.067978606 -0.022508133 -0.018199256 0.031056954 -0.06956281 -0.0313122
이런 -0.041135352 -0.055068262 0.12537365 -0.10195219 -0.09297731 -0.08866013 -0.07382412 -0.06344877 -0.08245529 -0.06865079 -0.06687186 -0.0036965385 -0.08324913 -0.088464685 0.001046174 -0.08066175
던 -0.070405744 -0.060215227 0.016439455 -0.072640605 -0.08925786 0.21497789 -0.06806364 -0.0669368 -0.07623266 -0.072309755 -0.04372169 0.011821568 -0.06598163 -0.07957415 -0.018231224 -0.0798026
어요 -0.08616169 -0.0848882 0.3359203 0.19922042 -0.062475134 0.26866534 -0.06975615 -0.08096919 -0.08698513 -0.050467305 -0.057764016 -0.03528725 0.12674212 -0.082314745 -0.042639412 -0.06368581
할 -0.023286587 -0.06417298 -0.010076992 -0.049392354 -0.07854515 -0.06919373 -0.06773096 -0.04659955 -0.08866103 -0.06056564 -0.041846707 -0.015584327 -0.072987586 -0.07610329 -0.054393567 -0.054109566
왜 -0.07594771 -0.02456304 -0.02175298 -0.07454046 -0.08710436 -0.058431424 -0.08085122 0.058719575 -0.06892758 -0.031584267 -0.06130453 -0.03370744 -0.08149584 -0.08259358 -0.07550391 -0.034469318
겠 -0.026355555 0.22635742 0.2510361 -0.08547027 -0.07828374 -0.077205166 -0.062483143 -0.034567524 -0.07435695 -0.075991385 -0.053643074 -0.017256774 -0.06372189 -0.04576555 -0.009501026 -0.08005056
1 -0.045302093 -0.0047848234 0.35676664 -0.08963521 -0.08042142 -0.08473691 -0.067609 0.10140083 -0.07684652 0.06690802 -0.0713638 -0.020596663 -0.06415401 -0.078507535 0.228672 -0.05574089
스토리 -0.039212983 -0.06539718 -0.0054933787 -0.08897313 -0.08790257 -0.08593125 -0.07060976 -0.010055179 -0.08252353 -0.04873581 -0.06919324 -0.04057982 -0.071502715 -0.08356482 -0.0047959154 -0.060827337
해 -0.058819607 -0.05800951 0.01577182 -0.08467745 -0.08606083 -0.08217204 -0.0684379 -0.059325982 -0.08227206 -0.052418463 -0.03824988 0.014647488 -0.07639307 -0.07881867 -0.06486007 -0.044069856
습니다 -0.057316713 -0.082424976 0.030274903 -0.08423584 -0.055500552 -0.07394784 0.2661424 -0.08538665 -0.08504943 -0.08363383 -0.06912266 0.0058131106 -0.07804599 -0.05136616 -0.06781194 -0.06641261
ㅋㅋㅋ -0.01625437 -0.0788962 0.041182175 -0.043219786 -0.090144 -0.10241616 -0.070965745 -0.06041674 -0.07010144 -0.044387937 -0.042438135 0.12780601 -0.08593456 -0.079391554 -0.07476428 -0.056329258
... -0.06238771 -0.067057595 0.03571326 -0.10143588 -0.08910854 -0.0920477 -0.07278997 -0.06851302 -0.08361726 -0.04507416 -0.066536985 0.015888508 -0.07822769 -0.08535911 -0.025108447 -0.0805082
드라마 -0.06633433 -0.055694316 0.030168138 -0.10301859 -0.042421274 -0.039946947 -0.06051118 -0.0732658 -0.074548036 -0.084722735 -0.013388079 -0.01499014 -0.0677119 -0.047878746 -0.04266711 -0.081580386
생각 -0.07144442 -0.07460502 0.017601037 -0.07832034 -0.086770706 -0.09028661 0.0053925756 -0.07698369 0.1481535 -0.0631477 -0.030248892 -0.042010427 -0.060207266 0.038992476 -0.044876173 -0.06529237
아니 0.13812438 -0.016327668 -0.024188591 -0.111367896 -0.09591705 -0.10568004 -0.03937211 -0.00015125357 -0.08283046 -0.05142661 -0.05293824 -0.002521716 -0.08345769 -0.08517521 -0.027112959 0.018733824
더 -0.044128884 -0.04665428 0.019409453 -0.08276444 -0.07889583 -0.07874179 -0.07466655 -0.050207693 -0.07427136 -0.02212651 -0.060317986 0.03519731 -0.08210967 -0.06337237 -0.05724 -0.043674752
그 -0.03829317 -0.07075352 -0.011279307 -0.060616236 -0.053088207 -0.043835066 -0.055249263 -0.042535637 -0.08514823 -0.046237182 -0.059620373 0.0036699176 -0.055878952 0.13863018 -0.030637756 -0.05266119
싶 -0.07088482 -0.07242299 0.016226042 -0.024003614 -0.077031925 -0.06475559 0.0040760394 -0.06949056 -0.052352626 -0.06841081 -0.05919582 0.024612611 -0.02206757 -0.039419163 -0.058690786 -0.08055991
사람 -0.046886794 -0.044792525 0.021723844 -0.057107206 -0.066152416 -0.03527406 -0.0363105 -0.06506843 -0.06368609 -0.07153871 -0.03872307 0.0011616722 0.03411576 -0.0410381 -0.060017027 -0.052968137
듯 -0.05371985 -0.026471356 -0.02411489 -0.089712135 -0.079644285 -0.08104164 -0.07768047 -0.055068836 -0.08414241 -0.0229373 -0.0664365 0.07467926 -0.04967838 -0.07469305 -0.012674234 -0.058441706
때 -0.040569905 -0.0606882 0.0104597295 0.04164362 -0.02620443 -0.05634725 -0.07756816 -0.048115745 -0.030944914 -0.04411858 -0.062127385 0.008201957 -0.05314985 -0.06957448 -0.04326081 -0.052754484
감동 -0.06491659 -0.07449503 0.018285962 0.18871315 0.23724611 0.08328832 0.12519373 -0.07468078 -0.069095366 -0.07714136 -0.062261444 -0.0041924603 -0.077374786 -0.0479112 -0.06103093 -0.08699681
함 -0.07568677 -0.060309716 0.019526832 -0.07332331 -0.08290025 -0.092067204 -0.0626485 -0.04827841 -0.08281736 -0.043121148 -0.07151175 0.0018143542 -0.071725965 -0.081551015 -0.04453897 -0.0502469
배우 -0.06369101 -0.071795404 0.024382629 -0.07484104 -0.08070133 -0.08376907 -0.05096316 -0.06306902 -0.07111091 -0.07161956 -0.06544921 -0.0034439676 -0.071296886 -0.076312326 -0.04238867 -0.081238545
본 -0.0507559 -0.054190468 0.02612967 -0.073549256 -0.08199013 -0.081098944 -0.055778343 -0.068041295 -0.04994899 -0.036000617 -0.05666913 0.009320348 -0.032137215 -0.08063222 -0.031326182 -0.079049036
까지 -0.06169156 -0.06391207 0.017456815 -0.07668195 -0.06401645 -0.0629136 -0.06282087 -0.05076964 -0.04576983 -0.06612733 -0.044169024 0.013583366 -0.06683998 -0.06344991 -0.042192645 -0.07557491
뭐 0.08885011 0.10113213 0.25952613 -0.097422495 -0.08970242 -0.10614603 -0.066136 -0.026149914 -0.08348525 0.13444756 -0.06352953 0.008990265 -0.07604836 -0.08070848 -0.056366336 0.07486432
알 -0.06696185 -0.06691916 0.07115773 -0.07275825 -0.07004923 -0.06946585 -0.040736683 -0.059294898 -0.067396365 -0.06670255 -0.06054325 0.013072866 -0.053724565 -0.052197076 -0.04095516 -0.039983165
만들 -0.07671724 -0.06955488 -0.010381319 -0.061750617 -0.072037905 -0.05501742 -0.0675073 -0.071489654 -0.06265361 0.21100457 -0.06025746 0.019097647 -0.08103488 -0.08015321 -0.04053518 0.024468118
내용 0.12561646 -0.07684619 -0.04421822 -0.08636624 -0.083871745 -0.080030575 -0.06673396 -0.07822593 -0.07714834 -0.07055272 -0.06448168 0.19268368 -0.07263141 -0.08012163 -0.06823311 0.084287316
볼 -0.03284776 -0.077534854 0.016366042 0.038529735 -0.07206126 0.0013838295 0.008413418 -0.053105246 -0.0913279 -0.0749488 -0.075910375 0.017792948 0.1771393 -0.039238565 -0.02651594 -0.060851775
감독 0.21785834 -0.074139856 0.2405014 -0.050634995 -0.032476585 -0.030633692 -0.038288735 -0.059482004 -0.05933224 -0.088239856 0.0041416856 0.019166702 -0.053356394 -0.047011696 0.043484632 -0.077713154
보다 -0.023065599 -0.09044124 0.030398427 -0.087714486 -0.082214445 -0.09576592 -0.0656431 -0.07579883 -0.070937835 -0.053610474 -0.06300172 -0.029106617 -0.065696456 -0.06010407 -0.014444418 -0.0142492
라 -0.039506026 -0.008708654 -0.020576501 -0.059475046 -0.07665047 -0.07486732 -0.03607079 -0.02843928 -0.016675638 -0.050187238 -0.06521785 -0.010644961 -0.05084351 -0.07052467 -0.025375308 -0.031709164
그냥 -0.09236255 -0.07471083 0.048165817 -0.09917903 -0.08512496 -0.09137098 -0.06458137 -0.055804376 -0.082645655 -0.05662927 -0.075926445 0.016970728 -0.08268564 -0.08526886 -0.06732778 0.24898803
재미 -0.03412465 -0.012904099 0.01221787 -0.08144369 -0.08209573 -0.07801822 -0.039097678 -0.07172243 -0.08131738 -0.091920376 -0.0607984 0.049549595 -0.078731194 -0.07960717 -0.07201429 -0.08616098
시간 -0.043849666 -0.026903166 0.343339 -0.08506907 -0.08914935 -0.056275263 -0.066839 0.15203673 -0.08369784 -0.02489077 -0.07231245 -0.027737333 -0.054262783 -0.08477502 -0.003618802 -0.037812673
지루 0.13032645 -0.011058876 0.33212706 -0.09697758 -0.09089569 -0.09898858 -0.075710714 0.021287303 -0.08041202 0.139491 -0.0687455 0.014237773 -0.085879534 -0.08427314 -0.016589642 0.25281748
중 -0.07919037 -0.059150096 -0.022383226 -0.055248126 -0.029778995 -0.08047985 -0.028849538 -0.07007721 -0.0394345 -0.044071987 -0.00029168098 0.0066097975 0.0023640366 0.057566356 -0.05321235 -0.07153932
재미있 -0.077468805 -0.07668775 0.30933422 -0.016499896 0.23717216 0.22439863 0.16806531 -0.08006338 0.020780632 -0.08265737 0.25488454 -0.03464385 -0.072790936 0.17151897 -0.07029592 -0.06342791
년 -0.06001658 -0.07200498 -0.01870581 -0.039235048 -0.0365651 -0.054691978 -0.04930047 -0.06291036 -0.04487484 -0.06276673 0.1128773 0.002588647 -0.05552745 -0.046632033 -0.05983697 -0.07591589
10 -0.06014335 -0.05444668 -0.018925592 0.010473407 0.20506018 -0.048908398 -0.067598 -0.078253105 0.17435466 -0.065724306 0.010955688 0.011429793 0.14299229 0.17684942 -0.06376841 -0.072822586
였 -0.07494587 -0.07236616 -0.026748454 -0.10859 -0.07278615 0.23390484 -0.047428224 -0.066723354 -0.079580106 -0.0629347 -0.07340218 -0.019740105 -0.043412838 -0.047520332 -0.06281907 -0.078688495
잼 -0.025714392 -0.05353222 -0.031087518 -0.08535327 0.11917358 -0.048059396 -0.05829275 -0.0801188 0.27388594 -0.089785025 0.2146036 -0.020799423 -0.07947318 -0.08676882 -0.0649415 -0.08230589
사랑 -0.07251075 -0.056100406 0.020928819 0.08795744 0.2395419 0.008517687 -0.061980616 -0.057354607 0.23357825 -0.048901748 0.23532659 -0.014157366 -0.03962825 -0.043769162 -0.06073372 -0.08787616
못 0.013370138 -0.011931592 -0.018864501 -0.08546135 -0.079332985 -0.08344397 -0.07999655 -0.01143084 -0.08002913 0.1918481 -0.022879397 0.33199587 -0.038752038 -0.07077663 -0.028905367 -0.00094705226
냐 0.0054848064 -0.06614937 -0.007342799 -0.09827614 -0.0844044 -0.09034182 -0.06816324 0.1864212 -0.082951196 -0.04385705 -0.06593477 0.01045201 -0.07912848 -0.07705051 0.23715232 -0.041397523
재미없 0.26448262 0.27343154 -0.04342394 -0.097374916 -0.08323694 -0.094509125 -0.072536096 0.13429882 -0.08133728 0.25152427 -0.06992078 -0.048628975 -0.08139778 -0.07934511 -0.015310799 0.13288407
쓰레기 0.19846384 0.2557999 -0.041819833 -0.09338571 -0.08758277 -0.093182035 -0.07013477 0.0015287923 -0.07924436 0.21293052 -0.07173698 0.014326844 -0.07552448 -0.07770909 0.24139874 0.25771067
서 -0.054684564 -0.059373282 -0.0039021168 -0.072515115 -0.059821207 -0.07022462 -0.03943216 -0.012736575 -0.015293119 -0.030119881 -0.06640377 0.0073046098 0.0144361295 -0.04563442 -0.08123308 -0.067649074
2 -0.041649085 -0.030257901 0.030767102 -0.10251848 -0.08533418 -0.10592019 -0.07384644 0.017493496 -0.07922254 0.023015909 -0.062830046 -0.047622155 -0.07201345 -0.06831421 0.057886656 -0.059149537
라고 -0.021318752 -0.03299527 -0.04311266 -0.09352854 -0.088021435 -0.09495169 -0.065793924 0.09452241 -0.078739434 -0.0030463054 -0.06672942 -0.010890733 -0.075031 -0.086184174 0.04724339 -0.030201126
야 -0.035945278 -0.044255458 0.06722381 -0.06113745 -0.030685134 -0.055965353 -0.06275588 -0.07550105 -0.04973046 -0.022435093 -0.05844229 0.003415525 -0.086959496 -0.06535844 0.030575246 -0.08544937
니 -0.03133553 -0.051633142 0.014066754 -0.09339859 -0.09237865 -0.077156015 -0.069565885 -0.056928013 -0.08561593 -0.032137074 -0.057646677 0.014473591 -0.05722819 -0.08573284 -0.0047417106 -0.07557585
면서 -0.06777801 -0.07017772 0.016369348 0.01311746 -0.0697916 -0.03240661 -0.059464734 -0.050257184 -0.058295343 -0.06489872 -0.06906206 0.0424126 0.06633495 -0.046613127 -0.026558047 -0.066089645
번 -0.074204594 -0.06626609 0.008158124 0.130707 0.029065521 -0.030379027 -0.036223266 -0.07447349 -0.024151579 -0.06992367 0.20526287 0.018163793 -0.04149077 -0.045666665 -0.04586774 -0.07902945
다시 -0.06316919 -0.06976538 0.010265906 -0.04583769 0.19948511 0.04561248 -0.034474336 -0.07346899 0.21233766 -0.069796704 -0.024920555 0.02957144 -0.04632426 0.15938301 -0.05086452 -0.07785401
나오 -0.027211424 -0.06595643 -0.015480298 -0.09810882 -0.05682155 -0.0835072 -0.009617489 -0.068900056 -0.046094723 -0.019133793 -0.06118205 0.009732156 -0.05501635 -0.033482753 -0.057606257 -0.06235519
작품 -0.062339794 -0.056144148 0.019060042 -0.06384972 -0.043950666 0.000702983 0.14722794 -0.058852818 -0.062309034 -0.07291366 -0.065906696 -0.016253434 -0.062265493 0.026216475 -0.05014923 -0.086997315
이거 -0.07712557 -0.062125687 0.037605472 -0.085948735 -0.06978667 -0.06635584 -0.036175504 -0.060387637 -0.078609526 -0.06608259 -0.05621847 -0.025645543 -0.072907545 -0.07946983 -0.042583525 -0.08099363
하나 -0.04210709 -0.058132898 0.051993474 -0.07784632 -0.08968244 -0.0751427 -0.060394686 0.036339976 -0.08544848 -0.0485862 -0.07247133 -0.0016730055 -0.06979359 -0.07493636 -0.014964233 -0.07171271
줄 -0.05103832 -0.01639916 -0.0022857734 -0.049631495 -0.05349731 -0.025908142 -0.036941968 0.05118909 -0.055832166 -0.02015315 -0.061558098 -0.047956586 -0.045959912 -0.086494975 -0.0060252594 -0.046453804
해서 -0.059961822 -0.008000483 0.011874415 -0.049040347 -0.06376041 -0.03319497 -0.0704522 -0.07825719 -0.07794294 -0.044578787 -0.03703374 -0.02932595 -0.03642493 -0.07991466 -0.06011218 -0.05572937
개 -0.043953773 -0.0678916 -0.047321618 -0.09843243 -0.08735782 -0.087479115 -0.0050236485 -0.07336293 -0.07368468 -0.058588006 -0.057557307 0.0013765693 -0.05830749 -0.082639135 -0.023388287 0.10549654
남 -0.089959815 -0.075526714 0.022032091 -0.050938904 -0.07672783 -0.07491323 -0.02075104 -0.07330422 -0.07635651 -0.07782292 -0.07197405 -0.036385022 0.015474541 -0.060452335 -0.056695376 -0.08048561
정도 -0.040171627 -0.0354022 0.025360566 -0.08232455 -0.07213329 -0.073133074 -0.073743045 -0.018341793 -0.06935509 -0.036364496 -0.04920505 -0.035344817 -0.007248023 -0.038462196 -0.04464515 -0.050854918
마지막 -0.07992616 -0.041736215 -0.0050243638 -0.012597968 0.037863683 0.20928869 -0.046156127 -0.069570586 -0.06907664 -0.0858495 -0.00031937915 -0.031374298 0.11738803 -0.016103253 -0.04629656 -0.08586385
끝 -0.014909524 -0.07125012 -0.023950187 -0.056911208 -0.06069561 -0.05869125 -0.015625084 -0.025698517 -0.06398369 -0.0710989 -0.041055795 0.015815523 -0.045390107 -0.058363654 0.067244224 -0.06667713
이건 -0.08611612 0.30189413 0.020831075 -0.100796744 -0.088878445 -0.10183587 -0.07710232 -0.07832697 -0.057874456 0.10557351 -0.06311233 -0.0009428263 -0.0804278 -0.08709562 -0.04386384 -0.07502923
액션 -0.08944817 -0.06532342 0.020152086 -0.06063124 -0.04870381 -0.019699834 -0.032619994 -0.07034411 -0.035346046 -0.068714574 -0.035753313 0.039686818 -0.063038275 -0.021192793 -0.060495455 -0.08343813
임 -0.082062215 -0.049797602 -0.029785741 -0.061415754 -0.080352925 -0.056225576 -0.058652684 -0.07383458 -0.0012608616 -0.07575547 0.0067423247 -0.031891406 -0.08462879 -0.061690282 -0.049245466 -0.06367157
ㅋ -0.057356577 -0.07593062 0.0029437076 -0.04683295 -0.033563167 -0.054478005 0.003687025 -0.05513596 -0.014258846 -0.07002005 0.056641918 -0.0053681596 0.11321166 0.046626177 -0.037922505 -0.06722703
3 -0.06552038 -0.023724208 -0.023342704 -0.089213416 -0.080592506 -0.08919382 -0.07168588 -0.047628958 -0.075832985 0.0086636655 -0.05650353 0.029387267 -0.067013845 -0.07797758 0.028322391 -0.05157661
기대 -0.029981365 -0.066854656 0.018867074 -0.09784933 -0.09124883 -0.07081926 -0.05812784 -0.044230662 -0.07890653 -0.07862744 -0.069794014 -0.036046993 -0.024337031 -0.078861 -0.06712228 -0.05591426
입니다 -0.0821447 -0.07151412 -0.03226738 0.013425291 0.02675789 -0.08266303 0.23194982 -0.07152104 -0.052354097 -0.08490662 -0.02790872 0.020272419 -0.049654607 0.05608595 -0.053378087 -0.088296205
건 -0.07226781 0.16084567 -0.04598998 -0.07617971 -0.07289512 -0.06661364 -0.057697635 -0.017535795 -0.072368555 -0.05127538 -0.06327866 -0.0058799274 -0.074314795 -0.07025365 -0.023951452 -0.07080916
라는 -0.054896265 -0.048446726 0.011693118 -0.081480674 -0.06625433 -0.078486964 -0.054225463 -0.04938286 -0.08106826 -0.07433643 -0.05004056 -0.000903368 -0.06080611 -0.07571391 -0.03624438 -0.036225457
분 -0.053458024 -0.01118707 -0.02803093 -0.06985647 -0.06601607 -0.058543283 -0.060994044 0.051031575 -0.04929405 0.034278348 -0.05827759 0.019469889 -0.06018258 -0.048459247 -0.047069665 0.09208913
완전 -0.07931726 -0.073746786 -0.02556889 -0.092603885 -0.058829024 -0.050933123 -0.047518022 -0.07594726 -0.06342847 -0.0760675 -0.07511978 -0.032672644 -0.043446768 -0.07064067 -0.062182516 -0.08295369
다는 -0.06551459 -0.06153285 0.029550804 -0.07059063 -0.06631099 -0.04328576 -0.055147998 -0.08369367 -0.025746228 -0.04535265 -0.06057861 -0.009989046 -0.0620177 -0.074654564 -0.0338234 -0.049003743
참 -0.050021928 -0.0242259 -0.03703115 -0.08588244 -0.08644393 -0.087809 -0.060492348 -0.047377355 -0.07417933 -0.033444267 -0.0638478 -0.042088937 -0.0777999 -0.053765055 -0.07566484 -0.039696146
많 -0.043665607 -0.051943164 0.017644871 -0.09602686 0.036966402 -0.092265934 -0.08029088 -0.035492357 -0.0954245 -0.03755933 0.14609179 0.015395705 -0.011534816 -0.08179286 -0.027562365 -0.04302031
처음 -0.061703686 -0.035794433 0.014037019 -0.08642269 -0.0855926 -0.08300221 -0.06650068 -0.009721618 -0.07967977 -0.02314445 -0.06439993 0.014469719 -0.07103308 -0.088091284 -0.047381543 -0.07266148
장면 -0.0632039 -0.03588414 -0.020055925 -0.047386635 -0.05985074 -0.03658064 0.0020272145 -0.0663643 -0.025168104 -0.0682794 -0.03757743 0.042877063 -0.01330862 -0.027610824 -0.0494655 -0.07290042
대 -0.03269638 -0.03933085 0.01599115 -0.030676609 -0.05904007 -0.04170658 -0.07731203 -0.03163707 -0.063756585 -0.0035349526 0.019458394 0.011864313 -0.057056844 -0.04809408 -0.018318392 -0.060672678
아깝 -0.011329904 0.3443306 -0.029778183 -0.08765743 -0.087001845 -0.084384106 -0.06681319 -0.04085155 -0.08184839 -0.06665288 -0.07180771 0.0030537471 -0.068095416 -0.077112295 0.3333822 -0.033946663
다가 -0.02313164 0.123350345 -0.0023334846 -0.08478636 -0.084242895 -0.07098665 -0.06145618 -0.05651029 -0.07413335 -0.028881885 -0.06993563 0.25256088 -0.06562989 -0.068728454 0.19651671 0.047145255
으면 -0.018083137 -0.046935134 0.05228428 -0.07078952 -0.06539741 -0.076515004 -0.01782431 -0.06629198 -0.060618047 0.03382687 -0.064180106 -0.029134452 -0.06401081 -0.034938965 -0.015180967 -0.03268715
지금 -0.05872768 -0.061981313 0.014759502 -0.042440537 -0.038250454 0.30838725 -0.06010012 -0.07432097 -0.0435213 -0.06389341 -0.066058695 -0.0026736148 -0.031376187 0.17805079 -0.023187935 -0.066922076
모르 -0.057387188 -0.051646024 0.0010313876 -0.07400248 -0.07831017 -0.07849798 -0.066071406 -0.06556537 -0.07283282 -0.01549615 -0.028437296 -0.044398963 -0.06473434 -0.021289088 -0.038164083 -0.034221098
이렇게 -0.051691115 -0.05584579 0.018254435 -0.087332234 -0.05997911 -0.067860395 -0.011186767 0.010724078 -0.08784064 -0.030804468 -0.07569054 -0.02823937 -0.078664474 -0.0661798 -0.03394737 -0.041168176
' -0.040920664 -0.023352658 -0.025232838 -0.0027521604 -0.044774424 -0.04939127 -0.02311089 -0.0032803274 -0.029487107 -0.0066114734 -0.030748677 -0.0077379122 -0.036055807 -0.01914483 -0.036829732 -0.045395713
편 -0.06604119 -0.06787201 0.028266618 -0.06490195 -0.029290225 -0.07703482 -0.05100211 -0.044124227 -0.06923026 -0.038522895 0.09303645 0.005041565 -0.03712038 0.0303292 -0.045102432 -0.05006509
일 -0.05978396 -0.04662753 0.04550721 -0.05679607 -0.056462307 -0.07983194 -0.017736828 -0.044891164 -0.043721072 -0.00809059 -0.04029357 0.15172794 -0.028767204 -0.0670412 -0.034031764 -0.0629431
돈 -0.02665489 0.23408046 0.2536825 -0.09048605 -0.08546129 -0.08030375 -0.06800917 -0.036634512 -0.075703606 0.23660341 -0.06660566 0.014994953 -0.052016728 -0.07526177 -0.015686436 0.21159689
이게 -0.08058425 0.14766176 -0.021481084 -0.09198945 -0.08976546 -0.04038248 -0.07025115 -0.05956756 -0.08123192 -0.051910743 0.0052177478 0.006814815 -0.058264796 -0.083855174 -0.04562276 0.022856744
성 -0.07801722 -0.0003185131 -0.03467418 -0.0632904 -0.0794803 -0.058622263 -0.05815613 -0.065999925 -0.059965942 -0.04689419 -0.047898028 -0.04664704 -0.062484995 -0.07399624 0.022022314 -0.053831223
느낌 -0.052411687 -0.0500095 -0.015207035 -0.090962365 -0.09140924 -0.07849236 -0.058199458 -0.021930777 -0.07394744 -0.038760114 -0.06169525 -0.03396988 -0.07963888 -0.09014924 -0.05295554 -0.070399456
시 -0.065261625 -0.035332225 -0.021582192 0.032981716 -0.043846313 -0.04367772 -0.05149708 -0.06426474 -0.030520272 -0.0592048 0.032343775 0.005040981 0.036293883 -0.05448424 -0.039208744 -0.07681531
이야기 -0.044890106 -0.04379491 0.0028611356 -0.022173489 -0.049486093 -0.061008528 -0.03278316 -0.032058187 0.0054015443 -0.04409281 -0.015789293 0.008121198 -0.06900724 -0.07193645 -0.031966135 -0.0418872
최악 0.3521415 0.25823453 -0.022352729 -0.08438341 -0.07706959 -0.0694316 -0.05525598 0.34813645 -0.082705624 0.33560437 -0.072161 -0.028160466 -0.06701555 -0.07814252 0.11559075 0.34417218
된 -0.046101764 -0.04116409 -0.038422216 -0.026224704 0.03380417 -0.056431077 -0.018208498 -0.07260518 -0.07310893 -0.041779824 -0.060207084 0.0017425641 -0.04207061 -0.054478362 -0.060142472 -0.07219729
봐도 -0.06613445 -0.07042329 0.074325025 -0.050844934 -0.032349546 -0.011027243 0.11479752 -0.08104674 0.081270814 -0.076321185 -0.0048735277 0.0036651806 0.25565544 -0.07003629 -0.033267513 -0.08435976
님 -0.06383666 -0.06936339 0.008834271 -0.05524846 -0.046132334 -0.02102856 0.03849362 -0.07710744 -0.066538595 -0.087347895 0.15709929 -0.021085382 -0.028190624 -0.055382773 -0.05682576 -0.08211032
어서 -0.014937432 -0.012946538 -0.048817944 -0.08202989 -0.0778599 -0.06988282 -0.06772267 -0.053684976 -0.07715855 -0.001381555 -0.060698163 0.01987258 -0.06811698 -0.072350495 -0.03666516 -0.06196554
애 -0.07684159 -0.027297622 -0.034548223 -0.081972405 -0.06946762 -0.0703129 -0.055173934 -0.06299718 -0.07521509 -0.0064899377 -0.06447071 0.09030939 -0.05544811 -0.07186664 0.035037637 -0.0680553
전 -0.08157616 -0.032186165 -0.010861049 -0.06174855 -0.04451352 -0.05380367 -0.042464018 -0.08687637 -0.07570487 -0.05124906 -0.04861366 -0.03387717 0.16499367 -0.06053815 -0.0532185 -0.06206826
넘 -0.0804201 -0.069889285 -0.0024580571 0.05747602 -0.054765534 -0.009879277 -0.037310995 -0.06889126 -0.0072890148 -0.07622095 0.042172294 -0.038720895 -0.08013065 0.009654551 -0.071833126 -0.08640227
ㅠㅠ -0.07535155 -0.077354126 0.00029320404 -0.03018184 0.052379843 -0.06877381 0.22185178 -0.07910922 -0.08228397 -0.084821686 -0.029306734 -0.039703347 -0.054200288 0.14703412 -0.07728382 -0.058875732
인데 -0.04517994 -0.041136816 -0.021578228 -0.06487668 -0.07901259 -0.040716656 -0.04254573 -0.03135867 -0.08737682 -0.07525661 -0.05300568 -0.039897583 -0.07080801 -0.07864115 -0.024160733 -0.043170873
다고 -0.0049547423 -0.07463131 0.009994104 -0.01728595 -0.018268473 -0.040268235 -0.06540121 -0.06791344 -0.028299639 0.038961437 -0.023894941 0.013409041 -0.0423475 -0.012405449 0.043125406 -0.046427757
이해 -0.06367848 -0.0705423 -0.020179454 -0.07536517 -0.06613189 -0.053325526 -0.05927738 -0.05451099 -0.072883055 -0.025000345 -0.057437725 0.010488521 -0.058088284 -0.061006516 0.03716124 0.0003336952
별로 0.19004624 -0.031414885 -0.02667976 -0.09637633 -0.08732813 -0.079882815 -0.071292 -0.009991954 -0.06365076 0.1857056 -0.074726745 0.003529787 -0.07664956 -0.08331594 0.25996384 0.20718607
그리고 -0.065847896 -0.05439353 -0.035161197 0.068331845 -0.009023022 -0.053632237 -0.020023989 -0.05898964 0.023540374 -0.055512976 -0.054089922 0.017259581 0.00024434904 0.024659855 -0.04803073 -0.07209672
명작 -0.09249905 -0.070497364 0.017160768 0.28776297 0.2661363 -0.06433238 0.2794431 -0.07348523 0.14378622 -0.06109492 0.09720173 0.012967497 -0.047930077 0.07032499 -0.054287657 -0.06922005
여자 -0.07259674 0.03847078 0.16173236 -0.044661522 -0.07924535 -0.063835315 -0.061795656 -0.0661124 -0.06993957 -0.031958748 -0.036735173 0.23387381 -0.0691528 -0.03514923 0.018825082 0.034185097
^^ -0.06703868 -0.08290347 0.0024973038 0.06946485 -0.034631636 -0.08681781 0.116644315 -0.08018685 0.17301187 -0.08627569 -0.0539007 0.008829426 0.36759752 0.0059393956 -0.060368434 -0.08892409
역시 -0.08641396 -0.061819274 0.0010390693 0.048455007 0.11418364 0.18479007 -0.03816035 -0.078582585 -0.039606135 -0.07916153 0.0003557915 0.012992442 0.09162746 -0.0232683 -0.06486248 -0.073805064
난 -0.0829877 -0.059894837 0.028651742 -0.09215629 -0.0766626 -0.074199855 0.07074831 -0.057911683 -0.07140265 -0.06352905 -0.0014889615 0.009676255 -0.036857627 0.062196318 -0.05367499 -0.07893003
이상 -0.031154009 -0.07220843 0.018622259 -0.07920182 -0.08553458 -0.08716463 -0.07058008 -0.022814898 -0.077276744 -0.036304217 -0.06682073 0.018393818 -0.07459418 -0.063903205 -0.050910637 -0.055259846
또 -0.0689042 -0.068901666 0.017694935 -0.034725223 -0.061067898 -0.0042124414 -0.054766033 -0.07998584 0.08243746 -0.07413441 0.19880809 0.017301623 -0.049425386 0.10268719 -0.07001544 -0.07878498
걸 -0.054472607 -0.050473474 0.029569432 -0.083984956 -0.08212514 -0.08639571 -0.062457927 -0.05989457 -0.07907192 -0.026908414 -0.060754623 -0.036308657 -0.07255243 -0.08558924 -0.030968957 -0.028758712
한국 -0.02911451 -0.05670536 -0.043133486 -0.08991814 -0.03385021 -0.06506395 -0.04679344 -0.066615194 -0.048286006 -0.017511534 -0.04207522 0.013913959 -0.028314052 -0.012407749 -0.05746985 -0.046216257
는지 -0.04074437 -0.035216767 -0.026991857 -0.07910746 -0.0743427 -0.056795362 -0.073557734 0.0737117 -0.07843897 0.17321905 -0.053199522 -0.047888577 -0.05529894 -0.05586261 -0.029262986 -0.045316417
많이 -0.07776584 -0.064907275 0.026162002 -0.10547544 -0.087002106 -0.09019072 -0.07368332 0.00639719 -0.0839816 -0.07648128 -0.05093359 -0.000109959394 -0.08147888 -0.075670026 -0.069330014 -0.05671992
에게 -0.055062648 -0.034700755 -0.038285326 -0.03534246 -0.063933454 -0.054206975 -0.038822137 -0.06864209 -0.03651333 -0.075255364 -0.046432897 -0.0072801486 -0.024249885 -0.037113745 -0.040496774 -0.083430015
부터 -0.06698752 -0.05931943 0.032007836 -0.043165233 -0.047461547 -0.059063718 -0.068548895 -0.00058711425 -0.06988726 -0.046160724 -0.05740491 -0.03219857 -0.052145947 -0.06156704 -0.043181103 -0.078208864
만든 -0.08054538 -0.063175775 0.016913014 -0.02325921 -0.04628235 -0.021849275 -0.03776163 -0.0761068 -0.024612993 -0.032219328 -0.076559365 -0.0124004 -0.01337856 -0.04904242 -0.045461234 -0.09293919
주인공 -0.039981477 -0.017793149 0.00085506024 -0.070854746 -0.064541705 -0.06587978 -0.057248 -0.075732484 -0.076471224 -0.053711187 -0.03811652 -0.049888562 -0.08473616 -0.06359441 -0.049440384 -0.053846937
받 -0.048458252 -0.05663699 0.022623809 -0.023312781 -0.07087863 -0.08207355 -0.051375322 -0.064207084 -0.06809547 -0.030856 -0.057458483 0.010435281 0.004409244 -0.057241168 -0.0579232 -0.053329498
합니다 -0.076669805 -0.047251783 0.026099823 0.008392742 -0.08166451 -0.06577517 -0.07577857 -0.04488666 -0.08660851 -0.036489062 0.21787302 0.013932191 -0.07985719 0.13495839 -0.059828833 -0.08833173
우리 -0.03789744 -0.056748603 -0.027556205 -0.052040104 0.21916197 -0.058065534 0.08868277 -0.024257006 0.15715843 -0.06017583 0.103140764 0.007167556 -0.06601427 -0.052901287 -0.033271566 -0.051247254
두 -0.07472556 -0.073248126 -0.01003487 -0.034613267 -0.02896109 -0.05718911 -0.028464679 -0.081134416 -0.04231347 -0.05370512 -0.034989264 0.022065038 -0.064345114 -0.0477069 -0.053387895 -0.06710711
살 -0.06320631 -0.06439764 -0.006700266 0.021140626 0.1427641 -0.07413229 -0.059450872 -0.061478876 -0.08347063 -0.060154725 -0.08062018 0.014315418 0.017481966 -0.07436947 -0.058917034 -0.04511581
!! -0.028414598 -0.061285216 -0.048954416 -0.10068339 -0.016029332 0.09442226 -0.023443958 -0.07073312 0.086699866 -0.022826137 0.025806362 0.07773142 -0.012715708 -0.059578825 -0.010486577 -0.085219085
길 -0.028059198 -0.020830449 0.010880928 -0.10085434 -0.028273914 -0.015818672 -0.07098366 -0.009633134 -0.04493098 -0.018837003 -0.069575585 0.0056629553 -0.07313516 -0.076051384 -0.010567234 -0.043562423
엔 -0.035517763 -0.06257521 0.008589334 -0.022395441 -0.025619792 -0.009902867 -0.03405907 -0.04407433 -0.042779755 -0.02065283 -0.033607893 0.03026657 -0.023699887 -0.04962561 -0.035167545 -0.018900424
괜찮 -0.07085902 -0.07273918 0.008852854 0.1019275 0.13927488 0.03484044 0.17894876 -0.07337519 0.17393306 -0.08712588 0.09798843 0.021508256 0.026684772 -0.039182723 -0.06446841 -0.084272124
기억 -0.07974022 -0.07523735 -0.04671842 0.010789529 -0.050945282 0.08051877 -0.055328712 -0.07155858 -0.06198553 -0.0873941 -0.078637235 0.011140335 -0.025087638 0.17078142 -0.068867154 -0.08091748
연출 -0.035648163 -0.034652635 0.033704266 -0.07894864 -0.078747325 -0.07576905 -0.054645795 -0.020773903 -0.06734884 -0.0073396284 -0.056187756 0.049508937 -0.051955927 -0.07008778 -0.021692393 -0.05380102
한다 -0.022557732 -0.05828137 -0.04032501 -0.051372003 0.047579784 -0.03241207 -0.056902118 -0.033037174 -0.009633011 -0.022896336 -0.07754792 -0.011543643 -0.055423606 -0.08287051 -0.05936304 -0.037046045
때문 0.009336227 0.01046738 -0.03942988 -0.08958574 -0.06600328 -0.06629878 -0.024361376 0.00800336 -0.050078712 -0.06863037 -0.047127433 0.008018494 -0.031963274 -0.06652889 -0.051569495 -0.04580796
이나 -0.008575599 0.085912086 0.052257158 -0.06944057 -0.07970875 -0.085069165 -0.065865085 0.009971353 -0.07518693 -0.029650262 -0.060698316 -0.02544707 -0.07595418 -0.070113584 -0.045984108 -0.074994124
ㅎㅎ -0.05089117 -0.04408622 -0.023223067 -0.09918181 -0.089193225 0.32902163 0.23720379 -0.0759662 -0.089794554 -0.032266986 -0.062737145 -0.02753222 0.2631625 -0.00018134835 -0.01979121 -0.01590922
요 -0.07919 -0.06894718 0.012337146 -0.030534545 -0.06640738 0.067277774 0.06769211 -0.075874805 -0.031292595 -0.07291962 -0.025996257 -0.019479264 0.056098748 -0.07824138 -0.060719594 -0.08014884
저 -0.07395536 -0.06316437 0.025502907 -0.08810337 -0.056801412 -0.084668465 0.029632054 -0.06516571 0.058672488 -0.0762338 -0.07463642 -0.00816419 -0.07230816 -0.056662727 -0.06045801 -0.083270505
재 -0.08584451 -0.07190851 -0.0030330576 0.11854712 0.057179347 0.048420615 0.0002548228 -0.07529268 -0.02475857 -0.06614902 0.19726571 -0.0024702065 -0.03296847 -0.048723016 -0.0689135 -0.08127469
꼭 -0.04836696 -0.052759003 -0.0011271163 0.13746251 0.032454308 -0.06607681 0.1755434 -0.059631478 0.021802938 -0.06447438 0.162862 -0.011715554 -0.010672871 0.31108823 -0.05990376 -0.07944208
랑 -0.04327517 -0.036627848 0.0027625714 -0.02307552 -0.07223468 -0.08350042 -0.06466083 -0.04832566 -0.06106833 -0.043695554 -0.059327655 0.07061591 -0.044383653 -0.07011251 -0.030540261 -0.07069979
며 -0.05994836 -0.05643971 -0.011936914 -0.03069652 -0.006599753 -0.058299135 -0.00817775 -0.053791575 0.03879046 -0.0640484 -0.07307726 -0.020138944 0.0059469366 -0.041413363 -0.045419842 -0.06537419
현실 0.0038108684 -0.023573328 -0.009406342 0.16696215 -0.057370104 -0.08311708 -0.04561715 -0.020777596 0.12465784 -0.047066554 0.15467115 0.017670063 0.03734901 0.024984736 -0.02664685 -0.04714297
긴 -0.011306768 0.035866134 0.007298486 -0.08539523 -0.07472912 -0.070792906 -0.071177654 0.01739181 -0.08741142 0.046839096 -0.060249865 -0.017797828 -0.06718835 -0.08198869 0.011831356 0.012722425
ㅡㅡ 0.25548494 -0.041553117 -0.046493974 -0.08949076 -0.08186442 -0.07699085 -0.058358297 0.06888563 -0.0772646 0.24490356 -0.06551177 0.016765598 -0.080945514 -0.08088147 0.1522096 0.009422124
무슨 -0.038865633 0.17878681 0.0054004625 -0.07422415 -0.0839928 -0.08502607 -0.06981976 0.09947724 -0.070312835 0.16035749 -0.06392241 -0.043263234 -0.034041677 -0.07071625 -0.069698244 0.23105524
내내 -0.05988243 -0.06287502 -0.040140223 -0.06267448 -0.064651415 -0.05392751 -0.051878646 -0.06140332 -0.05683557 -0.041068178 -0.06701358 -0.0001660958 -0.059231196 -0.051830076 -0.04280979 -0.060640324
결말 -0.033881046 -0.016142163 -0.03329389 -0.0711497 -0.090133876 -0.08776576 -0.06856417 -0.033403695 -0.06644823 -0.018189054 -0.049153328 -0.018236447 -0.07090198 -0.06900143 0.008006363 -0.06788737
죽 -0.021403186 -0.046090405 -0.0019486045 -0.043192685 -0.060290597 -0.037721843 -0.06056191 -0.04053992 -0.025789862 -0.044651948 -0.07132929 -0.0023572072 -0.031686835 -0.041604534 -0.049409457 -0.012018778
남자 -0.068239644 -0.07293956 0.029391037 -0.051650118 -0.058118723 0.027291426 -0.027712481 -0.06277667 -0.054109033 -0.073263615 -0.0431686 0.023768714 0.020563655 -0.025517846 -0.05671292 -0.0755729
세요 -0.08137283 -0.067589395 -0.010950625 -0.07867521 -0.071763575 -0.009758982 -0.066816196 -0.025574746 -0.060586747 -0.06617842 -0.04051391 0.1388919 -0.06544804 -0.05903685 -0.06259809 -0.08029704
전개 0.07442021 -0.033593893 -0.007142186 -0.07422503 -0.06877881 -0.077667534 -0.057254747 -0.044846702 -0.06580025 -0.014684849 -0.05956259 0.32592297 -0.075175785 -0.077025205 0.2281951 -0.06328142
마음 -0.05416208 -0.052013323 0.007819871 0.3298769 -0.052402303 -0.023903685 0.03767984 -0.04245713 0.04166577 -0.06458084 0.24247397 0.010241557 -0.034483504 -0.05600894 -0.036904078 -0.077915914
소재 -0.051739056 0.063286945 -0.010788906 -0.028767813 -0.07538499 -0.07354467 -0.061843194 -0.040984854 -0.086975254 0.09354069 -0.046923846 0.015243517 -0.040497713 -0.06955712 0.079441674 0.067163095
속 -0.0069415006 -0.034448855 0.014167522 -0.048120905 -0.053975545 -0.048569918 -0.031717066 -0.029120274 -0.057196215 -0.02797191 -0.07234516 0.012247884 -0.030073768 -0.035697836 -0.036375936 -0.022797974
공포 -0.023453597 -0.0048196884 -0.02530464 -0.102492824 -0.08872266 -0.097130895 -0.0775045 -0.052999537 -0.084316894 -0.072275475 -0.072208084 -0.01793424 -0.056334376 -0.08408208 0.18022418 -0.04326307
아서 -0.0504108 -0.035924755 0.0065889726 -0.057354167 -0.05637628 -0.068621345 -0.018153073 -0.029215334 -0.041701004 -0.06119914 -0.045709614 0.017427452 -0.055758893 -0.059404418 -0.046070363 -0.05657662
다른 -0.05245024 -0.03899558 0.019755417 0.01243819 0.05549183 -0.06452457 -0.05755863 -0.016535515 0.0063403263 -0.05967757 -0.052614726 0.016547296 -0.050514705 -0.038892508 -0.032027483 -0.050847035
씨 -0.04143973 -0.06752873 0.021578288 -0.06257888 -0.08274148 -0.07555267 -0.05692497 -0.059684515 -0.0093292985 -0.063892044 -0.060777526 0.019879445 -0.05230632 -0.0018082855 -0.030832762 -0.051210824
인생 -0.08258476 -0.066427015 -0.03393463 -0.034093674 0.1755902 0.21967436 -0.04011286 -0.04910293 0.1281055 -0.052550822 -0.06111459 0.012309097 -0.025785014 -0.025578931 -0.05157118 -0.08114122
~~ -0.09142928 -0.09614562 0.008259916 -0.076189324 0.111409076 -0.07187174 0.02521681 -0.07986182 -0.087513976 -0.07239498 0.086627714 0.022178832 -0.077791445 -0.055289935 -0.042098794 -0.09211232
짜증 -0.041603014 0.07929788 0.38409233 -0.08675323 -0.076777644 -0.07600973 -0.052543815 0.39381316 -0.06787741 -0.03114025 -0.065511905 0.3753166 -0.051424302 -0.07981619 0.39343 0.044665627
짱 -0.084751695 -0.07834164 0.0035795278 0.091509886 0.2549897 0.19628638 0.20272326 -0.08028619 -0.00708301 -0.07849293 -0.066573136 -0.005516015 0.20457427 -0.05756096 -0.05672752 -0.08432048
뿐 0.11019145 -0.017460823 -0.030421628 -0.080259934 -0.058214545 -0.09003704 -0.057136834 0.03908768 -0.062427416 0.012074592 -0.07426233 0.015174749 -0.057737857 -0.06876983 0.09432944 0.099593125
은데 -0.05267997 -0.056492582 -0.0018970354 -0.052641667 -0.04610157 0.02572726 -0.038794626 -0.07548247 -0.008096569 -0.0700091 0.008760491 -0.027675582 -0.048549335 -0.014185292 -0.0672272 -0.07989445
별 0.060112257 0.033590477 -0.04516375 -0.08388406 -0.079124 -0.083452776 -0.06383058 -0.06740544 -0.07454666 0.007225059 -0.06733843 0.01891699 -0.070062324 -0.08320677 -0.025197757 -0.041660648
아요 -0.06894879 -0.057199802 0.036632974 -0.079162866 -0.05973947 0.15492088 0.054998565 -0.07583437 0.12497069 -0.07501361 -0.05208199 -0.011358429 0.06203788 -0.057617523 -0.03292746 -0.088726975
유치 0.015604951 0.25280985 -0.01881113 -0.09584051 -0.08724933 -0.09834815 -0.06840815 -0.04806099 -0.08075787 0.09183951 -0.069559015 0.1116883 -0.07695288 -0.081072554 -0.040637366 0.24401025
가장 -0.07830789 -0.07601866 -0.03853208 -0.015055253 -0.018273283 -0.034489494 -0.051930044 -0.06729287 0.07206261 -0.05881879 -0.0147477 -0.015595771 -0.028240344 -0.07238474 -0.04597085 -0.075682804
필요 -0.08786381 -0.054498356 0.029876638 -0.083015315 0.28405726 -0.09321358 -0.011715475 0.11055005 0.17582494 0.16587709 -0.0691552 -0.03849591 0.14928389 0.21101315 -0.061497968 -0.009790695
음악 -0.074299425 -0.07281459 0.027071234 0.062278118 0.018624313 0.067730255 -0.01753398 -0.06693834 0.26525152 -0.052852947 0.037037168 -0.010232925 0.030855821 -0.069323465 -0.05726528 -0.079961345
) -0.035977926 -0.063959666 -0.012912192 -0.051226877 -0.048354514 -0.044783894 -0.040627383 -0.063180216 -0.01981865 -0.046887893 -0.04368254 0.0056155547 -0.048324894 -0.06034025 -0.04437366 -0.067518674
일본 -0.059845876 -0.0028771101 -0.033665348 -0.090629324 -0.0777481 -0.058491953 -0.058810916 -0.05286415 -0.06656348 -0.027561257 -0.035739325 0.016186383 -0.057560515 -0.06033484 0.07235953 -0.04844638
낮 -0.046574444 -0.066317275 0.0072046127 -0.024358558 0.14790218 0.37239128 -0.05489973 0.07478737 0.08878141 -0.07781772 0.08859245 -0.01163267 0.34809843 -0.05668493 -0.04684986 -0.056772064
아이 -0.053766537 -0.06626115 -0.01553116 -0.08345482 0.04566922 -0.019810416 -0.07239466 -0.013990839 0.0005013043 -0.021220278 0.16931954 -0.008430552 -0.011134678 -0.0071334597 -0.041554365 -0.04928507
;; -0.009411225 -0.059199166 0.16685465 -0.09019659 -0.06683478 -0.06245948 -0.06675045 0.1975045 -0.08303208 0.08880053 -0.0814978 0.11820232 -0.057101384 -0.0754369 0.06007558 -0.07071256
오 -0.034872547 -0.048325915 -2.4253559e-05 -0.04854641 -0.0581249 0.0011011349 -0.05175993 -0.05753612 -0.047072724 -0.08055814 -0.03915872 0.015880592 0.0066615874 -0.083895005 -0.061294317 -0.056447595
반전 -0.07989465 -0.0646539 -0.03579565 -0.0151968775 -0.059557326 -0.048555244 -0.010192766 -0.06353905 -0.04846884 -0.06638171 -0.0145750195 0.010509952 -0.028445268 -0.06148413 -0.043298792 -0.088342145
수준 0.00039199338 0.19559766 -0.023956824 -0.07152026 -0.040273793 -0.04425204 -0.06256575 0.14819522 -0.0340479 -0.034406297 -0.06062343 -0.034297086 -0.055499114 -0.040023595 0.2860233 0.07033059
다니 -0.06473375 -0.036618646 -0.024227668 -0.07843998 -0.010656428 -0.07249602 -0.00054251717 -0.06912887 -0.06400456 -0.054686602 -0.020601572 -0.005778741 -0.054554213 -0.06412861 -0.019265749 -0.069035485
웃 -0.050645903 -0.08404155 0.020364119 -0.010106333 -0.06654013 -0.024697095 0.049304955 -0.054141957 -0.07718344 -0.048123974 0.07399317 -0.034304418 -0.0115226265 -0.04894294 -0.06380508 -0.06986602
매력 -0.041323226 0.004882935 0.019662408 0.1311392 -0.0154380435 0.0383508 -0.071016595 -0.058288157 0.079348415 -0.018284384 0.379211 -0.044142295 -0.047929935 -0.06492052 -0.0663604 -0.07935369
맞 -0.068120845 0.19448736 -0.029322851 -0.08639664 -0.05797517 -0.06528374 -0.03725265 -0.06044999 -0.081399485 -0.04916128 -0.057307772 0.045519117 -0.04483165 -0.046934724 -0.03375398 0.007196556
인지 -0.0400547 -0.03138868 -0.031541575 -0.092733055 -0.08365804 -0.0929936 -0.060929395 -0.06336827 -0.07622322 -0.024544796 -0.06329822 -0.03031981 -0.073194504 -0.08070191 -0.023354582 -0.041099284
가슴 -0.05474741 -0.05137616 -0.029074468 -0.032076757 -0.05597235 0.29131782 -0.052361555 -0.055509657 0.3003415 -0.0453778 -0.03843956 0.02334291 0.21768624 0.10378193 0.006874543 -0.054622594
없이 -0.0057483125 -0.0014393576 -0.044568658 -0.02851667 -0.03730355 -0.045112766 -0.068671554 -0.02566675 -0.06499965 -0.06430327 -0.055023074 -0.0121333 -0.009880719 -0.060390007 -0.06875099 -0.00064163667
원작 0.0427841 0.02432082 -0.021685565 -0.00058136345 -0.045755483 -0.039391994 -0.06530749 0.06750012 -0.07554494 -0.030086307 -0.06635159 0.060386553 -0.049453124 -0.040747993 -0.05906449 0.08993148
ㄷ -0.05955686 -0.03585194 0.015550451 -0.06266151 0.08736182 0.020284215 -0.06871693 -0.04283529 0.14821568 -0.034857687 -0.051472712 0.029299317 -0.076311946 0.056510553 -0.020033628 -0.024943331
인간 -0.049198996 -0.065537944 -0.021488931 -0.0357561 0.18566935 -0.031058721 -0.05496853 -0.059683338 0.09787139 -0.028388103 0.11552845 0.013698886 0.08705629 -0.030082414 -0.017852688 -0.06283863
데 -0.056335412 -0.061657142 0.02492456 -0.07381803 -0.07853223 -0.08393335 -0.053342696 -0.055887595 -0.07467481 -0.06902163 -0.057190716 0.013692711 -0.0437186 -0.03757382 -0.024518697 -0.060912684
굿 -0.08267956 -0.07462143 -0.005378467 0.1378625 0.31088737 0.29352117 0.040533513 -0.07707693 0.206547 -0.0749218 -0.033072203 0.009320818 0.047945056 0.31844196 -0.06593729 -0.089160256
ㅠ -0.064844064 -0.065412894 -0.0053418986 -0.013166999 -0.006539685 0.09428078 0.05861118 -0.058493473 0.013124521 -0.0767238 -0.011529212 -0.032950915 -0.012089841 -0.018079616 -0.049701806 -0.0839688
높 0.1649645 -0.007525632 -0.012204329 -0.097734034 -0.06561404 -0.096990705 -0.04332024 -0.04339236 -0.08215079 0.041250758 -0.06631963 0.0002095215 -0.025611358 -0.05422645 0.18404429 0.07973446
밋 -0.08926165 -0.07555002 0.008020729 0.14481345 0.26398286 0.057937544 0.10410597 -0.0715088 0.08589209 -0.08148213 0.26017094 -0.046402205 -0.026937908 0.15347567 -0.0575267 -0.06810552
( -0.0065586255 -0.046727456 0.0017615783 -0.05100741 -0.043142274 -0.049633034 -0.03449215 -0.020274768 -0.022887632 0.02786522 -0.038484912 0.00022644922 -0.04243688 0.005359931 -0.002573855 -0.039132465
만드 -0.008772497 -0.05468197 -0.03541795 -0.100113995 -0.07136312 -0.06882272 -0.055962376 -0.067141354 -0.0711131 -0.067669965 -0.07206339 -0.004920624 -0.062024783 -0.07389751 -0.019794473 0.038124993
급 0.036232784 0.11181767 -0.03374871 -0.046159595 -0.057170715 -0.037093893 -0.03058883 -0.057860795 -0.013185039 -0.022452876 -0.047022935 0.053099006 -0.05882724 -0.042429537 -0.036202494 -0.06187711
눈물 -0.05665571 -0.06406206 -0.005495814 -0.03927396 0.36258945 0.029451968 -0.052352592 -0.06736356 0.2393943 -0.06116079 0.15951473 -0.036741875 0.19150496 -0.0606674 -0.026892195 -0.06995137
보여 -0.056844167 -0.06499008 -0.010599174 0.007340887 -0.05451981 -0.0027291314 0.002520245 -0.056228425 -0.0215483 -0.045351487 -0.02305822 -0.042695522 -0.062653 -0.040974945 -0.026345342 -0.0528147
준 -0.05978668 -0.059228793 -0.009523895 -0.06980613 -0.015684985 -0.07757926 -0.048697423 -0.059390087 -0.083688684 -0.057131346 -0.05589687 0.008313227 0.09209135 0.15934727 -0.041586626 -0.048655048
찍 0.1552046 -0.037400838 -0.0405115 -0.02530596 -0.024983041 -0.022512212 -0.033804003 -0.059822638 -0.047023125 0.011896343 -0.06333296 0.2200032 0.015414528 -0.025186416 0.20890044 0.028082676
인가 -0.046654735 0.07607756 -0.0045888326 -0.082369484 -0.075606056 -0.07576188 -0.06923515 -0.007888238 -0.07844833 -0.057814837 -0.06873189 -0.027029837 -0.0659931 -0.07462388 0.009463877 -0.049708012
노 0.014185852 0.27050975 0.34317356 -0.07974531 -0.018484669 -0.058247257 -0.038213953 0.072710544 -0.0029939683 0.22387983 -0.069909655 -0.03959801 -0.053937536 -0.08329977 0.34267613 0.2760523
을까 -0.014538147 -0.06848589 0.035224523 -0.08803603 -0.08473788 -0.0561299 -0.059549835 -0.00332819 -0.06927954 -0.048374984 -0.022944186 -0.006108664 -0.06457237 -0.060300004 -0.0015073458 -0.06702524
용 -0.07552129 0.106561705 0.16478866 -0.08745345 -0.06978579 -0.041245233 -0.05935111 0.12156009 -0.0655995 -0.031561386 -0.060549583 0.02783437 -0.06998996 -0.07412967 -0.05359156 -0.050902978
코미디 0.04228876 -0.061096318 0.038338628 -0.08587627 -0.07850722 -0.086964965 -0.07417873 0.042747103 -0.08223411 -0.048069827 -0.06779123 0.018906776 -0.0696128 -0.07501205 -0.04792711 -0.07510553
마 -0.04995228 0.18529607 -0.003769205 -0.06178029 -0.073185645 -0.06055396 -0.068630196 -0.06448038 -0.05748529 -0.07163895 -0.049270757 0.028537145 -0.05772911 -0.063404135 0.08704424 0.07076131
화 0.15365139 -0.019423591 -0.040748455 -0.079638995 -0.07338152 -0.066408314 -0.04993997 -0.034075778 -0.07985507 -0.019912962 -0.06229452 0.016110608 -0.055585403 -0.06824601 -0.031872652 -0.034086846
신 -0.06521172 -0.0021566795 -0.0041241758 0.032425586 -0.065960646 0.027568057 -0.063187554 -0.06334382 -0.031998437 -0.06128697 -0.051531956 -0.0014923438 -0.061583657 -0.04468302 -0.031773716 -0.08185474
모든 -0.042003363 -0.065150745 -0.026320327 -0.029118825 -0.07761894 -0.05686538 0.058257792 -0.06069646 0.09161961 -0.06402206 -0.053753234 -0.037629426 -0.06588448 -0.06884993 -0.05828547 -0.06621947
쓰 -0.0062562698 -0.015338258 -0.030813266 -0.054861702 -0.08834198 -0.06694028 -0.04656835 0.034663998 -0.010170108 0.15539436 -0.06526538 -0.023288442 -0.039908342 -0.067031056 -0.0028602257 0.087229505
여 -0.06156831 -0.044978797 0.02511155 -0.08186522 -0.08484283 -0.0666045 -0.055247225 -0.04500647 -0.0700355 -0.040377095 -0.003876289 0.030377805 -0.067847565 -0.07192538 -0.05481357 -0.07813076
5 -0.047967415 -0.046274185 -0.04069512 -0.015791086 -0.027863901 0.007664579 -0.06920753 -0.07511859 -0.047458187 -0.057200857 0.06052367 -0.045705345 0.023850817 -0.0031939507 -0.026104448 -0.0617299
아직 -0.06646219 -0.0672167 0.01701399 -0.07666023 0.17806546 -0.06595922 0.012299164 -0.07758592 -0.06196734 -0.08495067 0.010819842 -0.0048861727 -0.030573454 0.04174419 -0.053372547 -0.062393367
추천 -0.073000394 -0.070112914 0.0100134555 -0.042893592 0.27901003 -0.026721967 -0.054775685 -0.075444356 0.2549043 -0.06879545 0.023164738 -0.015653491 -0.03710739 -0.042062704 -0.05309387 -0.085623495
처럼 -0.061032433 -0.069438115 0.046463303 -0.03618733 -0.0015149785 -0.054920837 -0.03708743 -0.04659742 -0.048536822 -0.047784176 -0.032163844 -0.0030880682 0.056368917 -0.0518519 -0.037384138 -0.061250404
눈 -0.04894603 0.004682255 -0.0010730866 -0.08910399 -0.0013814819 -0.039117664 -0.056243185 0.012641063 -0.06684064 0.024003971 -0.06202024 0.060393415 -0.061571047 -0.05748122 -0.059224553 -0.020411102
아닌 0.008807524 0.012399027 0.02037022 -0.0846758 -0.07519311 -0.08104547 -0.075666346 0.10000803 -0.07933446 0.018788869 -0.061164446 -0.045244027 -0.070902616 -0.09046026 0.097270295 0.0568926
자체 -0.06261696 -0.06607773 0.05140683 -0.06848748 -0.056596503 -0.05215161 -0.04966195 0.011913031 -0.057113793 -0.05696531 -0.06151575 0.0038890087 -0.050695725 -0.06600209 -0.04655054 -0.056358285
울 -0.07437712 -0.06678332 0.0047235438 0.0879596 0.2809222 0.24927667 -0.069441035 -0.060718793 -0.06326414 -0.062929384 -0.055722605 -0.025440002 0.27679545 -0.017894994 -0.0024591836 -0.06714145
몰입 -0.07409512 -0.069466084 0.007887892 -0.0036367464 -0.049888454 0.06263419 -0.06696692 -0.07254226 0.005185189 -0.06354604 0.06812873 -0.013073184 -0.02787344 0.06279151 -0.028118217 -0.079081185
4 -0.057919554 0.08203206 -0.034867037 -0.0901598 -0.06960617 -0.08927115 -0.072681755 -0.019304568 -0.06426672 0.06613175 -0.058116116 -0.011350691 -0.072573796 -0.08063998 -0.05087367 -0.038598914
대박 -0.07756906 -0.068522446 0.01603459 -0.08933023 0.15323095 0.24166675 0.27226487 -0.056592017 -0.011790421 -0.063252226 -0.005106626 0.014600856 0.24618502 -0.028795829 -0.054600365 -0.072840534
몇 -0.06809268 -0.056994047 -0.004548371 -0.033906553 -0.06998459 -0.009450191 -0.04621575 -0.06873221 -0.03481615 -0.0705809 -0.041998684 -0.033072926 -0.0018078764 -0.059083894 -0.03226 -0.080138445
스럽 -0.057683893 -0.05207415 -0.043129623 -0.09500232 -0.07438737 -0.07972646 -0.046244834 -0.026395468 -0.08028904 -0.009631852 -0.07080347 0.007478308 -0.07091743 -0.069755636 -0.06635224 -0.071051426
실망 0.29283005 0.18411675 0.23240483 -0.09167074 -0.082828134 -0.08028692 -0.064224355 -0.036159527 -0.082398035 0.06440012 -0.07019971 -0.0031428337 -0.07725428 -0.07753879 0.17445134 0.21695368
는다 -0.060009096 -0.023112573 -0.031086326 -0.047723107 -0.0507059 -0.055109426 -0.046935637 -0.063893504 -0.06350383 -0.061392155 -0.071529314 0.0009660013 -0.053364072 -0.052790415 -0.036829345 -0.080588564
대한 -0.06327774 -0.053543277 -0.04870496 -0.051278893 -0.03481512 0.07918329 0.094385855 -0.04549732 -0.053726844 -0.056161225 -0.060706247 0.0524125 0.1261175 0.040867247 -0.040185254 -0.058602724
죠 -0.08130981 -0.02604287 -0.018769527 0.06485015 0.09882922 0.11109014 0.02275312 -0.060371827 -0.0475679 -0.065362535 0.008859346 0.013976532 -0.046232376 -0.041407388 -0.055989463 -0.06553202
란 -0.03472251 -0.03401979 0.01854409 -0.07943759 -0.0173371 0.034467477 -0.059184454 -0.06305701 -0.020713244 -0.058141883 -0.03894184 0.014781188 -0.054054484 -0.03822372 -0.020610485 -0.056305163
그런 -0.040626932 0.041440174 -0.02043736 -0.102418624 -0.07835257 -0.09098001 -0.07220514 -0.024670832 -0.08001598 -0.025376342 -0.0687096 0.0291164 -0.07762032 -0.08048159 -0.03184393 -0.06510699
솔직히 -0.05715681 0.095011584 0.1305076 -0.089452565 -0.08125127 -0.08928369 -0.060309157 -0.004387598 -0.069296524 0.03235639 -0.06662339 -0.0075188763 -0.076656096 -0.08992298 -0.022359982 0.11243636
캐릭터 -0.05231342 -0.02073013 -0.02004938 -0.060733646 -0.07150101 -0.065566905 -0.05508906 -0.0674012 -0.073910914 -0.062852345 -0.061796844 0.10278502 -0.05980905 -0.058029085 -0.04645018 -0.07808685
ㅎ -0.035703644 -0.03342524 0.0143994475 0.20820005 -0.06402731 0.20210788 -0.05108828 -0.051240478 -0.06385131 -0.05112198 -0.06977366 0.037323065 0.16437052 -0.07942637 -0.03422204 -0.09506839
모두 -0.07582741 -0.056158744 -0.046219837 0.10297535 -0.028814144 0.04180099 0.0081625525 -0.059838083 -0.06525911 -0.054814577 -0.06500689 -0.032139994 0.058228288 0.040745784 -0.049547713 -0.07356694
아주 -0.081596814 -0.08169194 0.017644187 -0.04704759 -0.048633024 0.0033009625 0.002935947 -0.07483694 0.0060533583 -0.07572201 0.035901338 0.012442022 0.038540244 0.003685931 -0.033737503 -0.08140461
- -0.04408177 -0.015832553 -0.04712471 -0.054374468 -0.026123427 -0.06066963 -0.029155312 -0.07396483 -0.029776534 -0.0077305934 -0.050791647 -0.0046576485 -0.05784109 -0.064358234 -0.07347545 -0.047023736
가족 -0.07964265 -0.07291245 -0.03254451 -0.046405643 0.04378475 -0.064557455 -0.04409462 -0.029426454 0.15365838 -0.059746686 0.032400623 0.025104176 -0.030752629 -0.0651558 -0.033672716 -0.09421666
여운 -0.080500215 -0.07044053 -0.0012406553 0.23466037 0.0021866723 0.0057715815 0.23533835 -0.0735505 0.3467041 -0.081829 0.34270746 -0.008535303 -0.02442184 0.29399052 -0.06695071 -0.081356116
건지 -0.04258778 -0.048133906 -0.009891535 -0.07516451 -0.08403386 -0.07829338 -0.05734775 0.01003937 -0.07315379 0.048882503 -0.06624135 0.0015959963 -0.04447419 -0.06769681 0.3121289 0.11544031
전혀 0.048965156 -0.048011493 0.19706446 -0.0014003325 -0.007724902 -0.022091137 -0.059870377 0.029311543 -0.007447557 0.00096469186 0.0018474195 0.30878583 0.00012708307 -0.026004812 -0.04187752 0.079453796
연기력 -0.05789209 -0.050100658 -0.018658925 -0.067903705 -0.07432428 -0.05139902 -0.04782022 -0.061683178 -0.07008859 -0.049328145 -0.05816478 -0.008098386 -0.067552455 -0.077977575 -0.04924034 -0.038686883
나라 -0.08699179 -0.04629133 -0.031657837 -0.045561966 0.07412838 -0.0621768 -0.03135937 -0.015143344 -0.033123814 0.03457874 -0.0020724186 -0.046973955 -0.05620327 -0.058838427 -0.048872318 0.0040003425
후 -0.014722388 -0.06460107 -0.025557756 -0.05247832 -0.08129302 -0.060312513 -0.06278601 -0.070544906 -0.06953104 -0.010227347 -0.062471513 0.014888797 -0.069041885 -0.078515075 0.028908074 -0.034272697
될 -0.041642778 -0.025509262 -0.028637338 -0.050891683 -0.06580189 -0.06832659 -0.025005292 -0.048521858 -0.063317806 -0.029652078 -0.030521702 -0.031714298 -0.045025233 -0.055190045 -0.03139933 0.031609118
다면 -0.023007743 0.008518164 -0.02578578 -0.031646367 -0.067543484 -0.05567109 3.981605e-05 0.019435547 -0.065334655 -0.04823754 -0.05782503 0.023552248 -0.06841955 -0.029955506 -0.027707672 -0.0437839
뭔가 -0.060422122 -0.027358837 -0.0068007815 -0.0885389 -0.09342564 -0.032119416 -0.06611633 -0.0064730993 -0.042748097 -0.057082005 -0.0028568967 0.033178728 -0.070902824 -0.07994591 -0.026310334 -0.07503392
그래도 -0.023155063 -0.03017274 0.019118471 0.0035447779 0.0050333664 -0.062009465 0.15041251 -0.034506824 0.035977725 -0.021020949 0.043869756 -0.008481633 -0.057001363 -0.05867748 -0.014006541 -0.02525207
; -0.075718716 -0.05532238 -0.026339239 -0.038802058 -0.047584068 -0.04663086 -0.046179216 0.1582173 -0.046933375 -0.031163324 -0.05972138 0.015355218 -0.031637266 -0.040499855 0.119483545 0.042277243
시리즈 -0.03968366 -0.045375258 0.007054398 -0.07127067 0.033067457 -0.02075438 0.06081561 -0.063763686 -0.048191126 -0.05186245 -0.023922067 -0.00908003 -0.03389971 -0.012894317 -0.033144653 -0.059062347
근데 -0.047555856 -0.06607994 0.018870445 0.04046559 -0.021592733 -0.006597264 0.114783496 -0.019752964 0.018242389 -0.056744214 -0.061889425 -0.03663218 0.0104121575 -0.018262183 -0.043468826 -0.030486524
작 0.09679318 -0.07588388 -0.020966684 -0.082301654 -0.07663166 -0.075912334 0.0047923424 -0.04960546 -0.074541874 -0.04748675 -0.04302242 -0.024986481 -0.021447102 0.007138133 0.10395065 -0.07469307
표현 -0.03869319 -0.045318197 -0.0043998403 -0.07960026 0.047827914 -0.0720115 0.09378343 -0.04124886 0.2788895 -0.054659687 -0.057243537 -0.03815615 -0.019656627 -0.079492554 -0.03661747 -0.057167478
모습 -0.023143679 -0.0642665 0.01516243 0.097324796 -0.0633554 0.017012624 -0.027344013 -0.028047154 -0.0232222 -0.06404874 -0.060174443 0.011537625 -0.04969685 0.014055109 -0.0455655 -0.049082853
공감 -0.09402721 -0.07411449 0.02720687 -0.032301757 -0.020905236 -0.047391586 0.019880773 -0.07039014 0.011952423 -0.07377973 -0.010223495 0.0017913235 -0.027625931 -0.044320095 -0.057797614 -0.08191344
계속 -0.07961413 -0.06503312 -0.005669199 -0.07216916 -0.08222396 -0.055862635 -0.041087553 -0.08728184 0.11963749 -0.072296485 -0.051803052 -0.010820139 -0.055954162 -0.069142416 -0.057805948 -0.06551289
먹 -0.028514003 0.009687777 -0.03322481 -0.06181351 -0.06015367 -0.078366704 -0.05819103 -0.056033697 -0.052543387 -0.024007702 -0.061118387 -0.01009047 -0.06712585 -0.064484395 -0.038880263 -0.053476103
"" -0.03979353 -0.03179652 -0.020441843 -0.042300362 -0.020972544 -0.0471349 -0.04148104 -0.04849145 -0.0175064 0.008610244 -0.05526088 0.017186727 -0.036969658 -0.033631016 0.0683545 -0.024936974
제목 0.062271234 -0.059043787 0.091750726 -0.05026421 -0.028536975 -0.059226144 -0.0607513 0.012774936 -0.06462875 0.036049757 -0.05153381 -0.0132961385 -0.034263786 -0.0641011 0.053822584 -0.020182624
7 -0.044464193 -0.04179668 0.023923844 -0.057929 0.06536111 0.1358532 -0.0671339 -0.021758897 0.08004417 -0.028325103 0.070126764 -0.009165585 -0.04858393 -0.05259884 -0.05716653 -0.058059487
이랑 -0.07691842 -0.057989404 0.00874284 -0.070266046 -0.053276584 -0.03150555 -0.048997622 -0.060324878 -0.051894348 -0.015805578 -0.033599235 -0.011484075 -0.05676708 -0.04871564 0.0050330227 -0.06651199
극장 -0.014604366 -0.0103711095 -0.039416682 -0.04545725 -0.078858145 -0.05908379 -0.051115002 -0.036222313 -0.037719015 -0.018829182 -0.04296754 -0.042444993 -0.06518578 -0.06955183 -0.0016552876 -0.013534463
치 -0.020422628 0.019868392 -0.035977017 -0.075812854 -0.066222265 -0.0707384 -0.062278293 0.053367782 -0.073117286 0.057009377 -0.05186696 0.009305336 -0.06741864 -0.072535895 0.04033061 0.043407954
비 0.028128965 -0.0691846 0.05665833 -0.044262737 -0.051754132 -0.048576564 -0.02295714 0.06366435 -0.03922248 0.10881474 -0.032501917 -0.0022033453 -0.053490587 -0.047016583 0.066563755 -0.07233073
이걸 0.00031977645 0.20034952 -0.021931088 -0.08450236 -0.07598299 -0.07879935 -0.06477602 0.03463571 -0.08460798 0.093876265 -0.06946065 0.01655923 -0.06843981 -0.07329352 0.015552991 -0.060209025
진 -0.038687963 -0.05522783 -0.013585433 0.023273313 -0.047018856 -0.0074640694 0.032749362 -0.024924204 0.048214894 -0.045267362 -0.051589962 -0.005213119 -0.051904656 0.027144885 -0.040258683 0.040688176
바 0.20801173 -0.03149953 -0.047528148 -0.040465795 -0.07100281 -0.06984052 -0.041742105 0.21233371 -0.06785648 0.11498613 -0.039271135 -0.007708382 0.07481903 -0.07570738 -0.0041251406 0.036388822
대사 -0.062441073 -0.045845103 0.0017454091 -0.04448498 -0.06401655 -0.06838497 -0.055184055 -0.035157762 -0.043984078 -0.035447005 -0.057311837 0.05714468 -0.07803497 -0.050466288 -0.04587181 -0.05381035
부분 -0.009635608 0.009335103 0.022880591 -0.08451836 -0.056599706 -0.041032817 -0.042513877 -0.05611633 -0.066890195 -0.053392474 -0.054907035 -0.04111568 -0.043331627 -0.030504474 -0.011987564 -0.061691884
그렇 0.13065694 0.04765112 0.08077358 -0.07842617 -0.07393001 -0.08330628 -0.06514068 -0.006517431 -0.078585446 0.12580076 -0.05885809 -0.039701283 -0.06698787 -0.07632632 -0.023236966 0.036435243
개봉 0.054578763 -0.063031584 -0.03450204 -0.07599817 -0.04275265 -0.068647355 -0.05631164 -0.04299031 -0.073361 0.042234812 -0.059044328 0.0052251704 -0.056295652 -0.06857389 -0.004904971 0.003981253
0 0.1765771 0.09657196 0.18723084 -0.09356481 -0.0888134 -0.09753585 -0.07620708 0.03105725 -0.08396051 0.1841366 -0.064872794 -0.037515473 -0.06021921 -0.076013565 0.027454497 0.109803
OO -0.037775412 0.15985107 -0.023933481 -0.10458714 -0.08834669 -0.104090974 -0.07120433 0.1235274 -0.08089586 0.010694477 -0.06805129 0.095259115 -0.0800537 -0.087446705 -0.03896137 -0.06540581
대단 -0.034086253 -0.033615332 0.019686617 0.051932923 0.19455498 -0.027378747 0.1491065 -0.03535374 -0.0599867 -0.061806444 0.20135568 -0.036803044 -0.07685466 -0.08094719 -0.042155784 -0.043435436
어디 -0.024183858 -0.06528092 0.037327282 -0.07880787 -0.00312778 -0.08166669 -0.077534534 0.007753324 -0.06704562 0.09475832 -0.06887065 0.01184637 -0.049710527 -0.06345394 -0.038110778 -0.07405135
작가 0.019687742 -0.007708599 0.30412918 -0.07637666 -0.06893141 -0.057549056 -0.07704867 0.013514499 -0.057837237 -0.032844894 -0.05872774 -0.0442263 -0.068555914 -0.07316104 0.0014355499 -0.014550307
된다 -0.045490272 -0.030661255 -0.022703541 -0.06035779 -0.08482601 -0.062407427 -0.060994383 0.0044906377 -0.08306092 -0.054293524 -0.072439924 -0.015391838 -0.0065393155 -0.063160226 -0.012718544 -0.03924736
아쉽 -0.024245318 -0.0220671 -0.012047965 -0.093436785 0.11448163 0.064285316 -0.0040092235 -0.054563772 -0.08200879 -0.037516117 -0.062667295 -0.010464765 -0.07320164 0.07826252 0.011456758 -0.05347677
기분 0.015051619 -0.06574445 -0.005417742 -0.077834815 -0.06323187 -0.06061195 -0.061090134 -0.065277815 -0.058108736 -0.0630008 -0.061044347 0.028638378 -0.068426445 -0.0767543 -0.05936082 -0.009465994
제 -0.052873082 -0.026553586 0.006209414 -0.03452552 -0.05823068 -0.035198033 0.021936798 -0.03478813 -0.051085297 -0.022368299 -0.035329387 -0.044122398 -0.027665503 -0.041770816 -0.04005977 -0.055675413
진심 -0.044300195 -0.07649491 -0.017305542 -0.10019773 -0.08664516 -0.06784487 -0.030523404 0.0065399893 -0.08549407 -0.0398823 -0.07070592 0.018526759 -0.08073924 -0.07511391 -0.044035546 -0.04013822
타임 -0.04397441 -0.053882964 -0.018883515 -0.07808408 -0.066565804 -0.04616657 -0.04884244 -0.030594928 -0.05844794 -0.073950045 -0.07015672 0.013687875 -0.054542705 -0.07411209 -0.048920266 -0.048724066
/ -0.017123494 -0.0066799526 -0.019229008 -0.10751575 -0.08726399 -0.107996896 -0.08670619 -0.08188758 -0.09258937 0.028869087 -0.080469795 0.005039919 -0.07831685 -0.011809561 -0.035782233 0.0005170224
웃기 -0.06476752 -0.07975685 -0.022050142 -0.01707712 -0.013039397 0.036085073 0.0015025894 -0.07171991 -0.029824307 -0.07085697 0.0068795225 -0.043965768 0.019280242 -0.0068878024 -0.05943337 -0.090020984
보이 -0.07102842 0.0069472124 0.005628378 -0.046146393 -0.033084437 -0.075026274 -0.023051329 -0.042064015 -0.039516076 0.06959403 -0.06241974 -0.017066289 -0.052893274 -0.03607192 -0.051195886 -0.054262076
놓 0.05938905 -0.060080428 0.07533194 -0.055438872 0.0015985197 -0.05932551 -0.026970794 -0.06284339 -0.029507624 -0.048470482 -0.04733275 0.002831839 -0.036175627 -0.027691156 0.08264182 -0.030492872
해도 0.12389746 0.048195127 -0.00066751824 -0.079032 -0.05111702 -0.05117992 -0.032869115 -0.053847227 -0.053270508 -0.016920615 -0.05482296 0.032441176 -0.058419745 -0.03877063 0.011132704 -0.07967156
이제 -0.06409713 -0.053161796 0.04507264 -0.015833003 -0.07797911 -0.07529051 -0.07288905 0.07436135 -0.07293423 0.15066542 -0.06191637 0.0041315183 -0.06086066 -0.07439536 -0.04292655 -0.0707251
물 -0.02350942 -0.025721645 -0.013245832 -0.070646934 -0.081231184 -0.07619397 -0.070548326 -0.045536984 -0.05018809 0.06886812 -0.062373057 0.0071438444 -0.05438019 -0.062166594 -0.018561017 0.03176456
봐야 -0.037842337 -0.05872442 -0.03443669 -0.032812268 0.19754931 0.082874626 0.09126972 -0.06268716 0.14086437 -0.03778732 -0.044658683 0.010935543 -0.065011814 -0.061314728 -0.048542805 -0.06913966
막장 0.1850838 0.10990988 -0.022948783 -0.04364209 -0.03193248 -0.024583485 -0.023838937 0.10312033 -0.035869762 -0.07799379 -0.028507398 0.03235877 -0.027340481 -0.082656294 -0.046477925 0.12257899
삶 -0.062367946 -0.056009524 -0.017971402 0.18248044 0.25901106 0.27206832 -0.033821065 -0.040190384 0.13775672 -0.07386775 -0.04005564 0.0028572083 -0.041915044 -0.01663293 -0.047858648 -0.07140349
친구 -0.032524403 -0.04889421 0.01905156 -0.045958467 0.00070750376 0.0048155426 -0.017255142 -0.007651028 -0.025417835 -0.07589338 -0.023824707 0.010615446 -0.022652805 -0.02621444 -0.05671487 -0.045046136
잔잔 -0.083288416 -0.069888644 -0.019766724 -0.04060123 0.3167229 -0.06322282 -0.053456817 -0.040173683 0.037741676 -0.064287655 -0.04600542 0.0052881464 0.15504009 -0.08366536 -0.06479669 -0.076650284
조금 -0.016709398 -0.02544492 0.028620405 -0.07586053 -0.07736373 0.061208688 -0.051304527 -0.053885892 -0.027872154 -0.024934338 0.027013123 -0.042060234 0.0033472423 0.004828031 -0.035412308 -0.05350671
씬 -0.028427059 -0.05815021 -0.0399343 0.011631237 -0.06808843 -0.020405924 -0.00241618 -0.06928416 -0.044585217 -0.065879025 -0.033090983 0.003889978 -0.011541054 -0.022309436 -0.029048812 -0.06212838
딱 -0.0013570333 -0.0697208 -0.017607354 -0.042569526 -0.030787101 -0.013731519 -0.008420823 -0.0796604 -0.0262369 0.018549507 -0.052212685 -0.049547207 -0.029642083 -0.044503026 -0.021625675 -0.013481154
영상 -0.048690673 -0.06797418 0.006446711 -0.015812773 -0.051281337 -0.031808328 -0.0312865 -0.051778894 -0.039181408 -0.060695477 -0.063009284 -0.011259817 -0.051964007 -0.06947137 -0.057241347 -0.05282461
억지 0.015063909 0.30427083 -0.045128144 -0.08264465 -0.07394389 -0.074400954 -0.061168514 0.12536275 -0.07414552 0.089738406 -0.06809447 0.010158783 -0.073810674 -0.0704709 0.20312093 0.008105594
찾 -0.06238709 -0.06255308 0.018466217 -0.0020361028 -0.058548693 -0.070086494 -0.0013058371 -0.045169298 -0.06354306 -0.037178546 -0.046858795 -0.0035704486 -0.057259075 -0.06741431 -0.035498872 -0.03518962
요즘 -0.045498036 -0.064247504 -0.029615676 0.06716878 -0.08357853 0.24338524 -0.07180221 0.0010152593 0.10209761 -0.032155845 0.043128196 -0.029135872 0.003199054 0.15745932 -0.0212117 -0.030622775
같이 -0.044170108 -0.0135701 0.0007980354 -0.06906966 -0.060826495 -0.05977378 -0.03258259 -0.036764603 -0.057620343 -0.027627468 -0.014035329 -0.012296606 -0.060877934 -0.07323118 -0.044820275 -0.05662536
중간 0.07392666 -0.01666655 0.017789694 -0.07246938 -0.08230297 -0.067838944 -0.054428063 -0.026324304 -0.047075428 0.022070939 -0.053323407 0.007619094 -0.070876986 -0.07014381 -0.025596097 -0.04792269
" -0.034843642 -0.027870404 -0.03349173 -0.05864534 -0.018084262 -0.054395486 0.004504122 -0.0540277 -0.06349179 -0.010570238 -0.06022528 0.035387576 -0.04529003 -0.033536546 0.0042761085 -0.0069396542
구 -0.051404733 -0.064207695 0.02960459 -0.04249888 0.021463702 -0.04303288 -0.029162902 -0.060062643 -0.015022475 -0.03853602 -0.009156809 -0.03139124 -0.04193623 -0.048348248 -0.06399717 -0.06763153
라도 -0.039078288 0.13230531 0.0032756329 -0.055389054 -0.06594556 -0.053478155 -0.042538304 0.030378537 -0.042976465 0.0033902263 -0.05020548 0.000993155 -0.055532645 -0.03284006 -0.054947034 -0.07396618
스릴러 -0.042060398 -0.039080385 0.017245742 -0.0911453 -0.08058229 -0.0950694 -0.04722237 -0.032121282 -0.0686046 -0.05779026 -0.052996233 0.0026546493 -0.086949654 -0.077250615 -0.049289297 -0.07549808
가지 -0.061094582 -0.0694169 0.00531757 -0.033421207 -0.07563042 -0.036397777 -0.050456196 -0.06251302 -0.066749 -0.041841693 0.033572875 0.07996834 -0.062853225 -0.069806576 -0.023765657 -0.037733268
8 -0.055634264 -0.057438534 -0.03455193 0.060934953 0.088487126 0.0026067987 0.17636727 -0.056435123 -0.07483559 -0.056965627 0.010945866 -0.00091113895 0.1028424 0.039870426 -0.051427964 -0.060040012
믿 -0.051325902 -0.07721552 -0.047787737 -0.035949197 -0.06918647 0.0010244766 -0.03267087 -0.06281077 -0.033906393 -0.06494559 -0.049135316 0.019413717 -0.062235154 0.026257122 -0.03284087 -0.07328873
싫 0.009296674 0.18594325 -0.015587401 -0.067202814 -0.05992125 -0.051896524 -0.050226286 -0.059313335 -0.079948395 0.18637 -0.029239845 0.14595488 -0.011391826 -0.06123779 0.15217757 0.12130489
.... 0.06932111 -0.074499585 -0.0075178146 -0.09041729 -0.08975192 -0.09244213 -0.04510271 0.030293353 -0.07412695 0.062331457 -0.06470481 0.00012696907 -0.07646728 -0.077809274 -0.016617825 0.055770595
나왔 -0.011594233 -0.06561263 -0.032873094 -0.073091015 -0.08416324 -0.054549605 -0.051920444 -0.034312066 -0.06658266 -0.05962414 -0.034998965 0.005777277 -0.0636939 -0.052392423 -0.06125552 -0.054918874
아까운 0.14653422 0.29504594 0.29669484 -0.0855688 -0.07244129 -0.08638261 -0.05960701 -0.06319491 -0.07360022 0.29228202 -0.06755878 0.006919779 -0.06706086 -0.08260644 0.034690954 -0.032148533
긴장감 -0.028597035 -0.058254577 -0.045367815 -0.06638219 -0.08964715 -0.050830178 -0.046330124 -0.07683813 -0.06407313 -0.065904334 -0.07054634 -0.03598118 0.0071279053 -0.06807205 -0.048638098 -0.065196
점수 0.10346011 -0.041374486 -0.04256761 -0.04182148 -0.059731156 -0.087751366 -0.03534771 0.018062534 -0.061337624 0.031276647 -0.057946254 0.032550134 -0.045592185 -0.020438192 0.08976747 -0.025684929
개인 -0.061105683 -0.04891109 0.019197233 -0.07624273 -0.07206237 0.0770247 -0.04479897 -0.059329744 -0.034681894 -0.05167873 0.06983578 -0.041112624 -0.00450622 -0.06490608 -0.04452782 -0.07661773
제대로 -0.0437639 -0.045239437 0.014900839 -0.10053384 -0.03007313 -0.041937623 -0.014483285 -0.041264705 -0.015662953 -0.04609927 -0.009653393 0.015283317 -0.062453426 0.008436934 -0.029403966 -0.05148098
부족 0.07121078 -0.047573164 -0.0317099 -0.086720414 -0.082457215 -0.090858325 -0.07170109 -0.066949524 -0.076227605 0.0076545984 -0.065544374 -0.00066479295 -0.066182666 -0.075185455 0.21261255 0.13410163
이유 -0.014799724 0.04239291 0.051253024 -0.07844677 -0.069796324 -0.06817188 -0.06380502 -0.057293817 -0.06429641 0.0122880135 -0.070569314 -0.01877538 -0.05926194 -0.06047434 0.08614837 -0.012069627
노래 -0.048245482 -0.03750194 -0.0017995987 -0.037093468 0.00022335004 0.07569065 -0.031538855 -0.050870117 -0.06728671 -0.032886125 0.09995402 -0.003461253 -0.021615343 -0.05104821 -0.0389563 -0.05641601
만큼 -0.054087993 -0.047315415 -0.02349918 -0.016378323 0.02428897 -0.027148439 -0.06861333 -0.024693083 0.005596662 -0.056636486 -0.018708086 0.0036356673 -0.030013198 -0.066148154 -0.045376725 -0.07284213
라면 -0.06962583 -0.037227742 0.01719948 -0.042220753 -0.048735548 -0.01158696 -0.03828271 -0.05091647 -0.06436956 -0.058101278 -0.031692512 0.010931759 -0.05106961 -0.024729889 -0.059744205 -0.064378396
시작 -0.059623834 -0.067204565 -0.014971457 -0.038041912 -0.012992394 -0.018128505 -0.027630651 -0.08104784 -0.04208438 -0.061014272 -0.06313682 0.012514104 -0.00019536959 -0.018289357 -0.062222093 -0.09217678
구나 -0.070106365 0.054394666 0.032557372 -0.055127498 -0.050075892 -0.061222386 -0.029702075 0.023947049 -0.08105491 -0.012444199 -0.07670369 0.11485157 -0.02585369 -0.034697156 0.02303846 -0.030731268
잇 -0.061180342 -0.0751936 -0.024969015 0.08408113 -0.02206756 -0.06185263 0.0013782101 -0.06927645 0.10385906 -0.07229267 0.052291647 -0.028817225 0.015523383 0.18182562 -0.04991581 -0.08108875
특히 -0.051205166 -0.060672186 0.01908305 -0.062640175 -0.031284787 0.0074510192 -0.05248559 -0.047584254 0.020348046 -0.058299147 -0.051380757 0.010569671 0.024518048 -0.04447626 -0.033529446 -0.06363813
한테 0.067367055 -0.07454507 0.026315397 -0.066974714 -0.021878757 -0.06325392 -0.04295134 -0.052838076 -0.058098562 -0.024654686 -0.04753961 -0.009403862 -0.028629001 -0.061733186 -0.05599593 -0.046133384
날 -0.033377975 -0.0451014 -0.01775664 0.0044268807 -0.05877876 -0.061800223 -0.05952237 -0.031564936 0.01292978 -0.053872567 -0.072501756 0.009277396 0.023992963 -0.060210314 -0.021946425 -0.06468749
려고 -0.03183419 -0.002964378 0.10241641 -0.04585753 -0.055895302 -0.06564893 -0.04893949 0.08236477 -0.0647187 -0.056085933 -0.034373198 0.004362963 -0.049457826 -0.060729112 0.021692492 0.09429648
제일 -0.05602249 -0.061206616 -0.0066051283 -0.050794993 -0.050362058 -0.060890682 -0.0642833 -0.069111444 -0.014469719 -0.05930192 -0.03867636 -0.04922936 0.11627509 -0.04615851 -0.04290304 -0.07152456
아름다운 -0.07874033 -0.071824305 -0.011512838 -0.041135885 0.170756 0.19939315 0.09569782 -0.06818436 0.17575197 -0.071019545 0.23799671 -0.02025559 0.0057605235 0.15915883 -0.064287126 -0.07716258
시대 -0.052088495 -0.07838452 -0.028330779 -0.036452163 -0.007861126 -0.035455413 0.029403701 -0.07179026 0.042816885 -0.08310431 -0.034072977 -0.018854534 -0.005251206 -0.04316336 -0.0655185 -0.088337265
ㅜㅜ -0.073834606 -0.07568287 -0.022109129 -0.054681566 -0.040512823 -0.016675837 -0.025016986 -0.07177652 0.011360234 -0.07593227 -0.033659842 -0.028018726 0.053833354 -0.044582613 -0.04894339 -0.08614184
어떻게 0.0018238558 -0.016053747 -0.017244376 -0.08649824 -0.06473897 -0.0737648 -0.046432707 -0.05417645 -0.065939866 -0.049181513 -0.021134026 0.0051960465 -0.04382441 -0.0023712218 0.022967545 -0.050515052
엔딩 -0.059931874 -0.067421 -0.049536824 -0.06592402 -0.04059379 -0.06666496 0.094963156 -0.067726195 0.00051232416 -0.04963944 -0.0771226 -0.028421963 -0.049821418 -0.08204742 -0.047871865 -0.060805578
당시 -0.011743865 -0.049889278 0.014937533 -0.062092517 0.11521464 0.048427023 -0.05625405 0.0077038207 -0.05617711 -0.07748555 -0.03106542 -0.04751983 -0.05560862 0.17126912 -0.006399642 -0.077303044
하지만 -0.029135574 -0.056594145 0.02583149 0.06318801 -0.041653 -0.014985512 -0.060839128 -0.056503966 -0.017870707 -0.03621264 -0.036976658 0.011593422 0.0097249085 -0.06841275 -0.0374958 -0.0033864768
나름 -0.039929297 -0.05971304 0.009879012 -0.053618524 -0.021190964 0.038490932 -0.065494776 -0.07169206 0.015503245 -0.07932406 -0.07312679 0.052152075 0.042892933 0.12840709 -0.030438213 -0.040060963
봐 -0.037693545 -0.022256369 0.105299234 -0.08050152 -0.014452854 -0.042917717 -0.010861226 -0.060513847 -0.014260911 -0.045651246 -0.07271737 0.013842341 -0.016114706 -0.041075964 -0.00030831248 0.005161355
무섭 -0.07187577 -0.024356432 0.058433786 -0.07349659 -0.07110591 -0.077497326 -0.06396151 -0.05738049 -0.05123826 -0.0141052995 -0.063726 -0.0101133585 -0.0674751 -0.088793315 0.019009193 0.037488952
나온 -0.0456585 -0.042309966 -0.013217282 -0.06510449 -0.07136006 -0.06927761 -0.05369068 -0.063862495 -0.045431383 -0.027917387 -0.052879117 -0.010443486 -0.053922947 -0.075754516 0.0012911306 -0.066083044
명 -0.044686537 -0.058236953 0.012537814 -0.074220605 -0.059711494 -0.01251858 -0.050565492 -0.0475296 -0.049462315 -0.0053724875 -0.053369075 -0.032578126 -0.014233391 -0.066127494 0.01967854 -0.0067299865
사 -0.04612613 -0.034925584 0.023857392 -0.045282695 -0.035835426 0.057366323 0.020631086 -0.066304736 0.049584657 -0.07150248 0.083738804 0.04060771 -0.013327649 0.033782773 -0.040103488 -0.056601968
니까 -0.048098125 -0.06918221 -0.03264018 -0.040579196 -0.054211494 -0.06849298 -0.036670666 -0.033469655 -0.021047413 -0.041947536 -0.015145538 0.04158171 0.015568284 -0.005388695 -0.05553552 -0.07387113
오랜만 -0.07659528 -0.068830915 0.005721122 0.009983709 0.08905004 -0.062280018 0.13778609 -0.06746137 0.23774095 -0.068182535 0.051355097 0.019040119 -0.06714727 -0.05953052 -0.024309114 -0.07628412
이것 -0.070302814 -0.0079837935 -0.035037387 -0.09470517 -0.08362799 -0.094418846 -0.071092784 -0.018086042 -0.09035228 -0.0623098 -0.076942705 -0.028541207 -0.081519455 -0.08254409 -0.06935377 -0.07655491
해요 -0.06720074 -0.06722978 0.0026774907 -0.07622602 0.08299444 -0.076858416 0.015734414 -0.08277261 0.047323335 -0.064957686 -0.023521448 -0.043237735 0.025153656 0.047854956 -0.03728463 -0.055274405
9 -0.05779586 -0.07020862 0.0031860732 0.11876379 0.17405233 0.09658056 0.17470239 -0.061542105 -0.028335065 -0.08285774 0.042571764 -0.047701716 0.0660119 -0.054399397 -0.059688564 -0.06422744
팬 -0.068789944 -0.04882102 -0.046180677 -0.031580687 -0.010157841 -0.0060754307 0.009186216 -0.0789436 -0.004538319 -0.025967086 -0.022722922 -0.011733711 -0.03545601 -0.026974116 -0.064470984 -0.075258814
차라리 0.17763427 0.15259862 -0.030441655 -0.05108294 -0.05322758 -0.05390793 -0.06064841 0.3600348 -0.031493016 0.10949392 -0.04399393 0.35127696 -0.046823308 -0.060049742 0.32406113 -0.012034846
절대 0.053316195 -0.07154195 0.018864779 -0.04980785 -0.04066737 -0.032360923 -0.037829157 -0.079724014 -0.033489265 -0.01789196 -0.031871416 -0.0060923323 -0.043505147 -0.038272325 -0.021711495 -0.06413663
세상 -0.052903548 -0.049840946 0.010654888 -0.0615783 -0.04597187 0.25698692 -0.0027777168 -0.025292875 -0.060995992 -0.022288345 -0.054713998 -0.049470246 -0.0148723265 0.00030033907 -0.026828442 -0.046020042
세 -0.04872177 -0.06902618 0.003603197 -0.04708662 -0.040991507 -0.0025933557 -0.011812369 -0.045822527 -0.010691894 -0.041148726 -0.054581694 -0.0056775697 -0.032577544 -0.04312914 -0.021167617 -0.032758042
못하 0.08861002 -0.014303601 0.11951987 -0.06851862 -0.01398528 -0.06345733 -0.04346502 0.15760225 -0.067629136 0.016494296 -0.05540115 0.091319725 -0.024583153 -0.040989492 -0.035140913 0.06921209
의미 -0.017616784 -0.011807013 -0.049468018 -0.038625848 -0.032377444 -0.06975434 -0.06083527 -0.060908508 -0.07672094 -0.06203675 -0.027209679 -0.03328409 -0.08028937 -0.07489434 -0.05253375 -0.066122994
던데 -0.07509356 -0.06266275 -0.0498207 -0.09637448 -0.016968792 -0.07379057 -0.041566998 -0.08020275 -0.024790028 -0.07594644 -0.00649251 -0.031123066 -0.073039085 -0.08850024 -0.06219953 -0.07695925
봄 -0.06717052 -0.04872202 0.06505315 -0.06335196 -0.039109364 -0.0473397 -0.058563776 -0.053865567 -0.048791245 -0.051821504 -0.04601166 0.04906644 -0.013821428 -0.030224964 -0.025435584 -0.056485213
욕 0.15881015 0.0816461 0.24238491 -0.05411836 -0.075573176 -0.042096592 -0.06904846 0.21882102 -0.081720755 0.009551853 -0.039100632 0.007727824 -0.07830037 -0.06587626 0.00087101944 0.055752534
훌륭 -0.0669312 -0.06711737 0.002488458 0.29365745 0.21757504 0.28549808 -0.048689228 -0.06815154 0.0010492005 -0.062232003 0.009749116 0.009492744 -0.016071096 -0.0104131 -0.049824603 -0.071210496
너무나 -0.052057866 -0.07794572 -0.020768607 -0.07732187 -0.07471435 -0.083278075 0.059575 -0.07104381 -0.06737244 -0.02020808 -0.06189974 -0.013809837 0.10007041 -0.07622407 -0.024109393 -0.056220442
강추 -0.036423642 -0.050191406 0.061218046 0.30458233 0.03525015 -0.06461624 0.019746846 -0.053352248 -0.027490309 -0.03139592 -0.040703136 -0.00882424 0.33360142 0.18159355 -0.030169958 -0.041435648
감 -0.045471705 -0.021748196 0.027058994 -0.054487836 -0.06710963 -0.011556669 -0.037758116 -0.031992566 -0.0350021 -0.035922833 -0.06062296 -0.028935267 -0.030309578 -0.044023804 -0.048617058 -0.03384481
됨 -0.038064856 -0.055656537 -0.027130067 -0.028799608 0.0099244 -0.05098375 -0.016863186 -0.051367924 -0.070769414 -0.07625636 0.008791971 -0.010228526 -0.00018814 0.011507977 -0.03155928 -0.07017793
ㅡ 0.00016901063 -0.033671502 -0.009584617 -0.08478761 -0.08691695 -0.08250584 -0.059802603 0.069488004 -0.07775415 0.14428511 -0.058852423 -0.03099649 -0.07640226 -0.07672059 -0.023228327 -0.0092436755
따뜻 -0.07078623 -0.060553562 -0.026429713 0.26668632 -0.048539042 -0.07607311 -0.06347708 -0.06726372 0.31897467 -0.06180614 0.10876146 -0.013255488 -0.061836027 0.29057097 -0.049544584 -0.06775642
빼 -0.062147576 0.023970263 -0.036750723 -0.07701516 -0.06661209 -0.052909933 -0.057733543 0.08082959 -0.05153151 0.09313213 -0.06347387 0.1445719 -0.061964225 -0.057881314 0.10553971 0.12696238
느끼 -0.055961702 -0.058659256 0.032909155 -0.086095445 -0.076262124 -0.0823454 -0.02949738 -0.060108073 0.022265088 -0.0369945 0.23904645 0.03366943 -0.047953673 0.046774067 -0.039726123 -0.05270634
해야 -0.040842004 -0.011831279 0.0100800125 -0.05367659 -0.056256052 -0.05910487 -0.032433312 -0.01948651 -0.058137976 -0.00013630805 -0.04740531 -0.0036997572 -0.052241113 -0.058693204 0.014185543 -0.014454541
드 -0.02817753 -0.039759703 -0.045422852 -0.061497893 -0.06316081 -0.04539175 -0.020630611 -0.031638622 -0.0008180298 -0.032972634 -0.06238928 0.0005508773 -0.05424908 -0.06680849 -0.006323927 -0.041981265
도대체 -0.06576903 0.1814685 0.0700126 -0.0713673 -0.075889975 -0.068979844 -0.039447475 0.16058528 -0.07292064 -0.023092564 -0.05227306 0.007989593 -0.06416571 -0.0656086 0.24716987 0.1709906
어야 0.045221467 0.110971056 0.13841924 -0.05598818 -0.0764846 -0.05248332 -0.067523666 -0.022885002 -0.063517906 -0.049772546 -0.02285958 0.019569455 -0.05974179 -0.069529004 0.20084359 -0.046830803
답답 0.006265987 0.25262585 -0.009385742 -0.0784347 -0.07826427 -0.08028046 -0.058778983 0.17335948 -0.07071256 0.06378543 -0.033873934 0.007077493 -0.06572374 -0.07033981 0.08711708 0.0719336
마다 -0.03143151 -0.052923918 -0.019101476 -0.029259028 -0.023984859 -0.016962346 0.09222943 -0.045055784 -0.06514643 -0.05662483 -0.02095257 -0.03745749 0.021059386 0.01837925 -0.030200629 -0.06692436
준다 -0.056748755 0.028118327 -0.022327578 -0.06332788 -0.07951809 -0.060903434 -0.043960888 -0.034554314 -0.076068096 -0.07162013 -0.057749577 -0.013193715 -0.06386168 -0.049425215 -0.054285046 -0.0771648
글 -0.07187866 0.14008684 -0.031992733 -0.061051022 -0.06961534 -0.07286042 -0.0685952 -0.057191957 -0.056755386 0.008517393 -0.05027422 -0.022482086 -0.040126458 -0.066587515 -0.0063765654 -0.029067198
전쟁 -0.022046372 -0.03557249 -0.03547896 -0.041868955 0.10520418 0.009058042 -0.06969693 -0.028766694 -0.047880433 -0.017937573 0.06503757 0.02946974 -0.06912877 -0.044444006 -0.025613459 -0.033763323
놈 0.040498298 0.03335018 -0.044662345 0.04367896 0.04163047 0.060230732 -0.016209016 0.10352835 0.052756228 0.12896581 0.0779233 0.018215943 0.027334828 -0.005968127 0.11018057 -0.047829177
설정 0.24310026 -0.058755007 0.2628747 -0.07702608 -0.0626882 -0.07288535 -0.049008045 -0.0618896 -0.06677016 0.20718738 -0.07470657 0.036788482 -0.05109348 -0.0759751 0.021002775 -0.05430187
무엇 -0.046772767 -0.051241904 -0.04656693 -0.07538485 0.013350789 -0.07236862 -0.0351173 -0.070216395 -0.024967901 -0.060410175 -0.06698671 -0.040647876 -0.059056163 -0.022515092 -0.05432032 -0.050307706
수작 -0.06329232 -0.05759404 0.00010741501 0.3301741 -0.0016431708 0.1314913 0.036389954 -0.07464702 0.23801036 -0.031185532 0.3326118 0.01453476 0.2307208 0.3532039 -0.055795398 -0.03926383
만화 -0.069234006 -0.005317055 0.0049657505 -0.0831737 -0.07309659 -0.09747888 -0.045187294 -0.07188791 0.008498186 -0.05385226 -0.04834996 -0.049766876 -0.07668876 -0.06976713 0.00026836304 -0.033551406
흥미 -0.05719491 -0.06373863 -0.032166444 -0.060410038 -0.077749446 -0.09130129 -0.058135156 -0.07767991 0.00195869 -0.06339318 0.003876266 0.045759063 -0.056459025 -0.019738344 -0.049845062 -0.059333906
그저 0.14949685 -0.06752199 0.15094267 -0.09565104 -0.080054134 -0.087674625 -0.07231209 0.089001924 -0.08376897 -0.06785611 -0.061311442 -0.039462637 -0.08598966 -0.078103036 0.0054931017 0.0688306
감정 -0.04249108 -0.057442416 0.019661462 -0.0036195472 0.019564472 -0.05874399 0.06543471 -0.051395096 -0.060591847 -0.058217067 -0.017013881 0.0110657085 0.044351764 -0.06734431 -0.048151016 -0.053490125
미국 -0.038239706 -0.05856092 -0.013925464 -0.049717158 0.014536448 0.02066239 -0.074187614 0.018328475 -0.06769045 -0.043157596 -0.07956759 0.0261022 0.029815877 -0.0015863859 -0.0062335655 -0.015110024
신선 -0.05495736 -0.06326191 0.015332608 -0.03306611 -0.056702852 -0.019637085 0.11091592 -0.06868193 0.10088611 -0.042320374 0.012442292 0.00490997 0.08944056 0.002956724 -0.04839703 -0.06871734
행복 -0.06185977 -0.073001586 -0.00050632976 0.012235627 0.2630555 0.06591888 0.013881242 -0.07769805 -0.022527196 -0.057980828 -0.039359517 0.009803392 0.1585728 0.3262615 -0.05037112 -0.059427224
뻔 0.07839022 0.03638176 0.12022264 -0.07758854 -0.06957242 -0.07936515 -0.031873144 -0.03292569 -0.04617662 0.16502483 -0.020781342 0.025714982 -0.085879795 -0.07429569 -0.035676196 -0.059355583
형 -0.04465888 -0.07227834 0.009814168 -0.009617699 -0.06606378 -0.0060326 -0.05429621 -0.062001534 -0.070009656 -0.051216632 -0.00690188 0.004867389 0.059976712 -0.04612651 -0.06472964 -0.0760079
앞 -0.055889755 -0.06588565 -0.028068721 -0.013561675 0.034703 -0.025246214 -0.06041002 -0.060561866 0.08841873 -0.02010291 -0.06379932 0.004336236 -0.07064288 -0.0074158655 -0.047910403 -0.06615942
허접 0.2603693 0.08783138 -0.02905097 -0.08909815 -0.08102527 -0.07178587 -0.053424533 -0.00077479205 -0.0704294 0.21149941 -0.05097832 -0.028319573 -0.08078228 -0.07252897 0.1382643 0.27690884
어도 0.016761675 -0.05103341 0.0012149811 -0.069351114 -0.05883185 -0.05193308 -0.045353513 0.06753691 -0.056380425 -0.0235065 -0.05365048 -0.022591745 -0.056137383 -0.057054576 0.0214535 -0.02456425
군 0.04748718 -0.036841996 0.026510805 -0.040166836 -0.03710919 -0.04895261 -0.03489143 -0.03981472 -0.056278076 0.07092125 -0.0729639 0.018826272 -0.04441673 -0.045349754 0.015725775 0.038075812
시절 -0.0615311 -0.06386958 0.016296212 0.04520027 -0.065301605 0.01610791 -0.054868344 -0.067347236 -0.061502855 -0.062467985 0.19824718 0.010121416 0.05315729 0.14203422 -0.064855404 -0.059989143
관객 0.1751841 -0.055242058 0.09030758 -0.05217056 -0.06399508 -0.031728797 -0.06716995 0.19000447 -0.07007489 -0.015613853 -0.06401343 -0.043547478 -0.064995565 -0.055811584 -0.04089414 -0.012976189
배경 -0.07752089 -0.025235865 0.0139948875 0.03468527 -0.016533663 -0.022268098 0.0089785885 -0.05399844 -0.048567627 -0.058635365 -0.04806323 -0.04437965 -0.019327259 -0.044113975 -0.04915526 -0.06784142
6 -0.011700761 -0.005816298 0.014571432 -0.03938091 0.032331876 -0.014171504 0.035860855 -0.071043395 0.026781669 -0.05595788 -0.065069 -0.004903149 0.04020714 -0.025163177 -0.03975558 -0.05381231
초반 0.028785435 -0.0016667605 -0.04333482 -0.033665944 -0.06419801 -0.049581 -0.06318476 0.020713119 -0.048574176 0.13906658 -0.04305779 -0.0077076554 -0.022151437 -0.02383802 -0.028375486 -0.055688612
사실 -0.03142805 -0.024802515 -0.027907347 0.036496587 0.08267032 -0.06291659 -0.060551267 -0.042439852 0.1287994 -0.022127006 -0.055810306 -0.031373907 -0.058929093 -0.06668877 -0.031211236 -0.04944646
웃음 -0.062274314 0.048668925 -0.0041521126 -0.04928363 -0.024967209 -0.029131843 -0.043801006 -0.060381174 -0.07716834 -0.058567524 -0.030146893 0.026804535 -0.075083114 -0.04554581 -0.06489402 -0.07882491
답 -0.033272453 -0.026191682 -0.031819485 -0.088286124 -0.08191356 -0.09370869 -0.07032411 -0.070554376 -0.080143854 -0.08244184 -0.055338893 -0.0142505765 -0.077486336 -0.07832715 -0.020211533 0.095324785
엄청 -0.060148265 -0.06559886 -0.011632763 -0.016783942 -0.068315186 -0.08217572 0.005452078 -0.075777136 -0.079736285 -0.06024595 -0.05261215 -0.02189641 0.0020462477 -0.031349614 -0.059189696 -0.066404305
더라 -0.07640485 0.038389947 -0.002492605 -0.08073261 -0.055221856 -0.050650652 -0.05273357 0.00060541806 -0.032925017 -0.06880524 -0.049845994 -0.008753907 -0.04795398 -0.068036236 -0.063735336 -0.0081950035
라니 -0.045028526 -0.008060558 0.0041419175 -0.083982244 -0.05733528 -0.05656863 -0.033934344 0.016636975 -0.07415861 -0.014274992 -0.06809471 -0.011394154 0.030068683 0.016906505 -0.0065315375 -0.037958033
질 0.09319108 0.06137209 -0.03563156 -0.072766975 -0.07632239 -0.07048847 -0.07072163 -0.005702887 -0.06734387 0.17863867 -0.060924113 -0.039773665 0.0022354904 -0.054201286 -0.027455155 -0.049033154
자신 -0.040563885 -0.002510429 -0.0022087581 -0.064972885 -0.06543444 -0.03768048 -0.046138287 -0.002363793 -0.06510697 -0.03424315 -0.044930853 0.019848265 -0.04995723 -0.05932078 -0.032122843 -0.035781927
추억 -0.07224035 -0.07352985 0.019836336 0.15363042 0.123458885 0.14507991 -0.045547415 -0.08324562 0.08170383 -0.06349752 0.19136909 0.007932933 0.10355897 -0.05213669 -0.06745291 -0.07520867
캐스팅 -0.037950467 0.19873337 -0.025217688 -0.05371355 -0.06547045 -0.029607393 -0.058960315 0.10500292 -0.0514003 -0.052474964 -0.035167582 -0.022434056 -0.045126773 -0.07010887 -0.009324237 -0.0634082
첨 -0.052323375 0.00620964 0.039096564 -0.072167896 -0.072610475 -0.07550338 -0.061613213 0.0056238538 -0.072301395 -0.039268583 -0.044796273 0.018140975 -0.041771766 -0.079238504 -0.043572534 -0.04581261
멋있 -0.07247082 -0.041712645 -0.030837322 0.23421249 -0.03650203 -0.048754726 -0.06274865 -0.07521834 0.23086178 -0.06300947 -0.050414786 0.022530725 0.17789455 0.2848052 -0.005831835 -0.0562394
류 -0.065687716 0.099099465 -0.048714865 -0.096142806 -0.06668465 -0.0751973 -0.04863883 0.18374343 -0.07594139 0.01032572 0.0023348897 -0.014688183 -0.08561144 -0.065307856 0.13082404 -0.0014203667
어색 -0.039509706 0.269239 -0.004735929 -0.07389323 -0.066166736 -0.07463287 -0.058714584 0.21359241 -0.08310605 -0.007907505 -0.055032052 -0.027601708 -0.05612857 -0.06529201 -0.02752734 0.1296035
시나리오 0.21558656 -0.01722536 0.0031014793 -0.04189509 -0.06584858 -0.08320465 -0.061276674 -0.06599737 -0.048286933 0.044757698 -0.048575874 -0.009144258 -0.055413906 -0.052003503 -0.049593296 -0.041049346
머 0.12045286 -0.04609115 0.19254653 -0.07873216 -0.08409336 -0.06742627 -0.06993026 0.12673807 -0.07439616 0.055530116 -0.07884584 0.0002458319 -0.07985359 -0.08535089 -0.031771213 0.07478115
밖에 -0.025956899 -0.045677245 0.031932928 -0.011092264 -0.014588043 0.025343658 0.013023055 -0.00677211 0.038016096 0.013393088 -0.04131111 0.023922766 0.020999769 -0.023176016 -0.038748764 -0.008029117
OOO 0.23695211 0.02513217 -0.006484307 -0.09841177 -0.09773988 -0.09427518 -0.06633441 0.046446007 -0.08452077 0.04634032 -0.07686125 0.004811369 -0.07352882 -0.076640435 0.007367671 0.23323177
슬프 -0.027607923 -0.01593458 0.009078083 0.3060051 0.17565358 0.27286828 -0.07963822 -0.032187533 0.08646262 -0.018084532 -0.014039551 0.07196192 0.12984303 0.10680296 -0.069977485 -0.023226889
정신 0.123414166 0.055576574 -0.0017791905 -0.0736899 -0.08615023 -0.08629735 -0.053007822 -0.044773452 -0.07002839 0.025393689 -0.062152162 0.1296303 -0.04222595 -0.077065535 -0.07127112 -0.020721456
분위기 -0.08814391 -0.07105765 0.00016462014 0.02504497 -0.04065627 0.011124419 -0.01835338 -0.066766165 0.021940203 -0.06972958 0.092067696 0.10521001 0.014783064 0.021664456 -0.055173233 -0.076099284
소름 -0.074118964 -0.06232329 0.020614136 0.08300602 0.23991184 -0.029911261 -0.011757974 -0.0741327 -0.0045705796 -0.055495292 0.17054632 0.014786053 0.18760009 0.19047098 -0.0510251 -0.079211466
멋진 -0.0819263 -0.07340222 -0.034209847 -0.021811865 0.29477656 0.05404174 0.03922769 -0.06670759 0.3028022 -0.08348637 0.17517409 0.02109991 -0.034090295 -0.051150117 -0.06194891 -0.0841859
힘들 0.016390048 -0.008796395 -0.04454261 -0.08579729 -0.08149225 -0.07942246 -0.052046973 0.092069045 -0.08246308 0.05252503 -0.010274311 -0.00097522885 -0.068638004 -0.048189193 -0.0035000653 0.027830495
오늘 -0.047609087 -0.058606185 -0.006797146 -0.07810741 0.017744819 -0.0490779 -0.032422468 -0.06603454 0.06333076 -0.028356561 -0.045874692 -0.031080449 -0.039181817 0.010355325 -0.038754497 -0.040011987
어이없 -0.042367104 0.013597704 -0.031841625 -0.06985128 -0.08091451 -0.09225996 -0.06826544 0.29153514 -0.079458125 0.18841325 -0.06589568 -0.03701105 -0.078281805 -0.0742431 0.24914639 0.26228666
봐서 -0.0672131 -0.012028556 -0.002081357 -0.07016077 -0.053072482 -0.043311335 -0.06511672 -0.061747998 -0.031646606 -0.046523925 -0.017239656 0.023552148 -0.061289337 -0.048619885 -0.031667177 -0.06528185
잡 -0.0014895285 -0.01762267 0.02763988 -0.049135305 -0.046992127 -0.041732866 -0.04054406 -0.027558714 -0.07866852 -0.08142697 -0.03361095 0.12643948 -0.07252672 -0.031629268 -0.06246778 -0.039725926
구성 -0.06626458 -0.03646055 -0.048618674 -0.07037515 -0.06588178 -0.06321094 -0.04098193 -0.016884647 -0.06284736 -0.04788845 -0.05888299 -0.042473007 -0.031635795 -0.06817846 -0.04500605 -0.03040463
엄마 -0.054353703 -0.01885126 0.0128190275 0.012162583 -0.033067197 0.011584308 -0.02821642 -0.050601993 -0.068391904 -0.049665615 0.034268644 -0.022298133 -0.05654546 0.023434443 -0.06067644 -0.06515611
함께 -0.045956872 -0.0717898 -0.008098889 -0.04420336 0.09525858 0.14543316 0.06501087 -0.04293645 0.013149757 -0.05083788 0.073437855 0.016243627 0.09070583 0.10336208 -0.013288976 -0.07528761
문제 0.060300548 0.0073494497 0.06721015 -0.06413895 -0.061084222 -0.06570861 -0.02170841 0.021192435 -0.05447025 -0.01636464 -0.053508185 -0.027079595 -0.035726193 -0.037585996 0.020669296 0.07198019
위해 -0.06096551 -0.06099179 -0.0050408244 -0.047653012 -0.045518767 -0.043445352 -0.046331372 -0.05955553 -0.006832771 -0.020577399 -0.06345673 0.030553922 -0.04476634 -0.072559096 -0.0399799 -0.060886215
졸작 0.069839954 0.1444355 -0.022062043 -0.04442289 -0.05096708 -0.075134136 -0.049641997 0.18575329 -0.065558076 0.2743576 -0.04003632 0.007683195 -0.061758984 -0.07651658 0.30629075 0.3137475
잊 -0.06607019 -0.042313352 -0.018604338 0.30441034 -0.036076915 0.29754573 -0.048127785 -0.04457888 0.058308043 0.003082743 -0.0010710354 0.0125936605 0.09814339 0.16066049 -0.06454281 -0.017623415
이딴 0.09480639 0.30424616 -0.023455858 -0.071239084 -0.07870892 -0.062857635 -0.06858992 0.29222494 -0.0474992 0.24619934 -0.029870931 0.07816577 -0.055519383 -0.071867 0.13793516 0.112036854
등 -0.047507286 -0.055720083 -0.0035330653 -0.019020498 0.034145564 0.006548595 0.039365925 -0.006886298 0.01769331 -0.041643627 -0.03225889 0.012876097 0.009896595 -0.009637221 -0.022696754 -0.06877974
집 -0.023085736 0.0070080324 -0.021201646 -0.084213465 -0.07783868 -0.084209524 -0.0724809 -0.01571898 -0.06436217 -0.037360836 -0.07208554 0.027459798 -0.02972602 -0.078760184 -0.0024748328 -0.015486248
유쾌 -0.08352442 -0.06453701 -0.042213 0.19984277 0.10801898 0.19764435 0.21360695 -0.07016533 0.28846353 -0.0626422 0.2642316 0.027484667 -0.036840115 -0.047984358 -0.066734016 -0.0520768
