9996 16
the 0.0039553805 0.004406132 0.014049829 -0.024230538 -0.0512586 -0.0150237875 -0.0010499869 -0.06888189 -0.045850165 -0.02519044 0.0034975368 0.014519858 0.029816957 -0.06879367 -0.038904775 -0.009446044
and -0.001965187 -0.0003446344 -0.027454527 0.049075674 0.06560663 -0.047788262 0.0014085999 0.00029446505 0.020330587 0.03632502 -0.07258943 -0.055346463 -0.013597524 -0.060945638 -0.050480377 -0.06814941
a 0.012775648 -0.076204345 -0.017610652 0.05842219 0.043552365 0.038695715 -0.017765012 -0.00409857 -0.015920047 -0.0008940436 0.011217428 0.006477792 -0.04703824 0.0060915253 0.03548992 0.036471993
of -0.052698173 -0.037962787 0.06426091 -0.0072805625 0.011098592 -0.012759496 -0.015029327 -0.051055476 -0.004314655 0.04155428 -0.024014097 0.036181606 0.013314406 0.03925552 -0.06814744 -0.05632119
to 0.047869235 -0.040168263 0.00514035 0.022104673 -0.014497174 -0.00071687356 -0.020781329 -0.010662106 -0.029602736 -0.066758804 0.0290402 0.020267054 0.011728173 0.04488652 0.026233211 -0.018587159
is 0.03163114 0.022965487 0.023204453 -0.009519194 0.003221174 0.017113276 -0.005669336 -0.015073628 -0.021326985 0.017980594 -0.020903341 -0.03930376 -0.019413918 -0.017957974 -0.0022227906 -0.009523055
br 0.04390285 0.022516387 0.017626002 0.029148843 0.050436933 0.043699164 0.025967896 0.021469431 0.020525038 -0.021294171 -0.021201916 -0.021671701 -0.008711983 -0.038425542 -0.059736844 0.04009051
in 0.017458456 -0.007460017 -0.010821081 -0.036782537 -0.0075104013 -0.04405518 0.0029877594 -0.045208216 -0.034208436 -0.031152409 -0.01939291 -0.034437552 -0.029895725 -0.036768664 0.04035788 -0.018911704
it 0.017785205 -0.052892737 -0.016995156 0.013975538 -0.043879613 -0.03908247 0.029317133 0.002415105 0.018750476 0.054992992 0.018867107 -0.013717244 -0.022588508 0.018193942 0.010941142 -0.0373437
i 0.031001937 -0.023827443 0.042322043 0.073424384 0.103230245 0.014608322 -0.015424137 -0.01008008 -0.0425602 0.04311443 -0.045392122 -0.009176614 -0.036478993 0.040183574 0.051232923 -0.027485363
this -0.06029476 -0.017030945 0.06531514 -0.06872992 -0.037241433 0.07395488 0.014493725 0.018599533 -0.0429853 0.0011202517 0.0048052277 0.050626382 0.082758896 -0.031136978 0.02084473 -0.010931843
that 0.018731082 0.019637732 -0.037964243 0.039860606 0.03273042 -0.040895328 0.021759054 -0.04958973 0.047352593 0.024835628 -0.032178245 0.024642954 -0.05731364 -0.005024209 0.019998811 0.00849879
was -0.016060144 0.023668917 0.03312587 -0.05668543 5.0786315e-05 -0.0012519568 -0.030186454 0.009744808 0.08616437 -0.044613764 -0.027565993 -0.013193555 0.03533467 0.06562522 0.034602404 -0.026303332
as 0.006395647 -0.050412185 -0.052033886 0.005122272 0.021417467 0.0058545806 -0.022861198 0.009336743 0.053979862 0.0018340416 0.017263465 -0.055685923 -0.016840193 -0.06831673 0.0376783 -0.011907063
for 0.063059 -0.008223926 -0.01800241 -0.0043283724 0.032043744 0.016785366 0.035355665 -0.001524758 -0.008290546 0.004591733 -0.034658335 0.01042318 -0.0038797907 0.0026345705 -0.01971322 -0.037449002
with 0.020520203 0.017476555 -0.012692276 -0.01970243 -0.0043496788 0.010801967 0.0089231385 -0.033799253 0.037713934 -0.06700758 0.013014351 0.025007352 0.03713504 0.00049012166 0.046071738 -0.02799749
movie 0.06756453 0.008912497 -0.0061392966 -0.06381914 0.054406118 -0.021456562 0.0353209 0.052281287 -0.051196437 0.012617353 -0.019488651 -0.0037265257 0.047338624 0.055252027 0.047504447 -0.007688329
but -0.053454157 -0.008751173 -0.05517269 0.044513226 -0.06485832 -0.00060430844 0.056191407 0.006169234 -0.02828722 0.06530591 0.03282304 0.03680408 -0.07050154 -0.023229044 -0.05472795 -0.036338646
film 0.013637768 -0.031689 -0.032966197 -0.02488445 0.046068016 -0.024784056 0.025385145 0.009994468 0.034405876 0.0077574984 0.010610243 -0.03323721 -0.03826792 -0.013768626 -0.0013177505 0.01919308
on -0.044232406 0.0055787335 -0.045423977 0.013910321 0.02502122 0.012993492 0.05414574 -0.007742066 -0.024293015 0.027140439 0.018618437 0.0018208174 -0.020157471 -0.008768368 -0.028591625 0.05541041
not -0.023775376 -0.012210234 -0.036454357 -0.0003199371 0.029965846 0.0036268185 -0.015534724 0.02896566 0.0006409617 -0.01707239 0.056977943 0.023349818 -0.009390996 0.038403913 0.04782673 0.031801105
you 0.037188735 -0.054768458 -0.079109214 0.06135626 0.03034817 -0.020704322 0.021132724 -0.033187248 0.03658359 -0.011871941 -0.055291183 -0.00095060165 -0.034342945 0.0046851016 0.0005758979 0.015052168
are 0.030342411 -0.0040499317 0.038113065 0.025454272 0.02725199 0.018879341 -0.023416918 0.015976466 -0.0030772919 -0.04512344 0.0060039773 -0.035209373 -0.020371133 -0.03117021 -0.034626722 -0.016569074
his -0.026632346 -0.04038815 0.007907871 -0.020777091 -0.038589396 -0.08440565 0.0030634 -0.08471248 -0.03009302 0.0101699075 -0.04747934 0.06433964 0.002134954 -0.07983099 -0.034531534 -0.017753424
have -0.05428351 0.044855017 -0.019399468 0.00060958497 0.013086829 -0.0037568482 0.018994508 0.020152599 -0.013268845 0.024691835 0.055339076 -0.031923458 0.0041895453 0.041277852 0.058553766 -0.06453511
he 0.0320194 -0.026530823 -0.01618215 -0.009470772 -0.050457764 0.011666872 0.0843947 -0.006897991 -0.013310289 -0.015412918 -0.024898743 0.027544338 0.012178436 -0.06334986 0.07286081 -0.010583426
be -0.05968295 0.037190534 -0.03835053 0.051432006 -0.027883073 -0.029873196 -0.034135472 0.0037984205 0.05989161 -0.015940119 -0.015970226 -0.005992367 -0.03762273 0.029947659 0.076208204 -0.05314253
one 0.03052889 0.03282312 -0.01924147 -0.032669842 0.021142585 0.034657527 -0.0081242 -0.008904557 -0.024450887 0.04677242 -0.025080243 0.018525379 -0.02930983 -0.007448843 0.05259434 0.04223257
all 0.043366488 -0.028727941 -0.0015282747 -0.0656722 0.056103103 0.021576371 0.047243875 -0.007251829 -0.018727263 0.003244963 0.049623817 0.03647276 0.028663818 -0.050429646 0.05120845 -0.013457484
at 0.03588359 0.027239809 -0.029511036 0.056370243 0.03415244 0.032378677 -0.015339204 -0.03214622 -0.04067581 0.04151227 0.017208781 0.04590196 -0.00649436 -0.022607801 0.031084856 0.025089728
by -0.023241049 -0.010080195 0.045359 0.031356946 -0.007353508 0.026626995 0.01350362 -0.009871623 0.018479735 -0.0401388 -0.037693467 0.0250778 -0.0048993775 0.018328745 -0.037259266 -0.044221822
an -0.043928433 -0.0014964258 -0.015330566 0.03353333 -0.029721359 -0.0695118 -0.009297718 0.0011546868 0.0068555553 0.00041373656 0.03514253 0.004667361 0.009576709 -0.02809623 0.0068963408 -0.033520278
they 0.043374557 0.011835424 0.01730834 -0.01889264 -0.0071357014 0.058813192 0.05417678 0.04753237 0.015224134 -0.01231776 0.022907995 0.015990151 -0.0058325306 0.051405832 -0.010701148 -0.048690375
who 0.04868434 -0.03612995 0.014310641 -0.016167363 0.0073870304 -0.04162295 0.007781075 -0.035843953 0.023284117 0.0042510633 -0.054261375 0.0049153585 -0.059655454 -0.034377247 0.036239177 -0.025131552
so 0.01957488 -0.026273308 0.01778454 -0.031551532 0.041103493 0.046866667 0.0036994973 -0.016679032 0.07225456 0.001071037 -0.07313786 -0.046352606 0.048201688 -0.06597418 -0.05536205 0.02575412
from 0.03492301 -0.0342597 0.014186446 -0.012142442 -0.02133852 -0.014425112 0.018544093 0.0057402602 0.022247296 0.017605804 0.031269908 0.031345665 0.040291574 -0.018824 0.017424267 -0.00041936547
like 0.016261427 0.014911291 0.04370097 0.085883684 -0.03247422 -0.0601431 -0.030191435 0.013546353 -0.034752164 0.04495336 0.008031835 -0.037456587 -0.04666966 -0.054660805 -0.015635457 -0.021219026
her 0.061955154 -0.032904625 -0.061762277 0.029626066 0.014600883 0.008102926 0.041567054 -0.04561592 -0.0035076202 -0.035558134 -0.01168811 -0.030110607 0.026331771 -0.06466896 0.049335 -0.04183662
or -0.01825746 0.007500439 -0.04250203 -0.02503117 -0.054906994 0.029874092 0.029209873 -0.045326494 0.0146791125 0.08781199 0.034665454 -0.032092992 0.01031837 -0.026385669 -0.0025929906 -0.003909637
just -0.0025100133 -0.009732482 0.061103914 0.022572545 -0.034472443 0.06398632 -0.04964878 0.047892656 0.007137876 -0.029894749 0.06233317 -0.055226136 -0.021183817 0.05095278 -0.06748108 0.018570311
about -0.025951842 0.024176544 -0.033984374 0.016690088 -0.0031036271 -0.059557002 -0.031095922 -0.01462652 -0.019266944 0.074858874 0.053374182 -0.006493468 0.02796246 0.033202842 -0.020473031 -0.06614806
it's 0.027015148 0.022426443 -0.00954147 0.042677186 0.028816745 -0.01808886 -0.011422219 -0.040994395 0.042877194 0.023726355 -0.005093224 0.00028267782 0.010364511 -0.011952282 -0.013366801 -0.008200785
out -0.03653887 -0.004781157 0.021043876 -0.039438255 0.030597199 -0.015581503 0.011606318 -0.02782919 0.061934464 -0.03028422 -0.050703738 -0.039151356 -0.07002369 -0.04206896 0.027790925 -0.040535837
has -0.021214673 -0.032482244 -0.03366724 -0.016958317 -0.042309582 -0.09468872 0.050219912 -0.022683252 0.0143353995 0.021625346 -0.01748125 0.02234813 0.013579361 -0.0676285 -0.038193017 -0.07369368
if -0.022990357 0.009372623 -0.01797764 -0.023314873 0.0058519873 0.0016365525 -0.039098173 0.02075013 0.04479184 -0.04305968 -0.009889309 -0.024654789 -0.028085714 0.059446592 0.011086793 0.040706333
some 0.023055037 0.04259581 -0.04215027 -0.004556033 -0.0073883524 -0.019178044 -0.01662862 -0.024338499 -0.054988213 -0.0073603773 -0.03529425 0.06750661 -0.012691378 0.046950676 0.056119002 -0.012462713
there -0.0053700022 0.035519138 -0.00847076 -0.043255128 -0.020605236 -0.037960168 -0.0035472044 0.023252448 0.0289028 -0.029205034 0.031584688 0.03725665 -0.015664916 0.06247171 0.011553797 0.035594307
what 0.039771117 -0.016687637 -0.051445514 -0.031131499 -0.029349614 -0.05648739 0.021719275 -0.0059980405 -0.016774856 0.040660877 0.013253266 -0.008782066 0.005506377 0.041259106 0.06586459 -0.029623099
good 0.015596144 -0.020926414 -0.014285466 0.04116251 0.007125197 -0.044996493 0.02918796 -0.08813847 0.070056826 -0.0001567507 -0.018810555 -0.017931623 -0.09697632 -0.07985308 -0.005813248 -0.09356239
more 0.07074235 -0.0007676798 -0.046990164 0.011242282 -0.044268955 -0.008348114 0.062122546 0.015670743 -0.03869174 0.044861387 0.010367843 0.040613987 -0.055236008 -0.040894546 0.057710946 0.018793218
when 0.008199265 -0.046994332 -0.01155937 0.032714747 -0.017327566 -0.008348617 -0.0078279935 -0.0012457287 0.05138777 0.0023565595 -0.036124565 -0.013903818 -0.089947104 -0.038762394 0.005480599 -0.023727914
very 0.06796576 -0.08529414 0.009026176 -0.04557297 -0.001465498 -0.063734226 -0.00069196546 -0.099056005 0.059016995 0.035942644 -0.043290712 -0.0046386365 0.0006486749 -0.024125177 0.044280738 0.009086746
up 0.040015105 -0.037339207 0.017121011 0.03302402 -0.028976867 0.064050205 -0.06697036 0.05341488 0.016678857 -0.0054240883 0.015538512 -0.045028877 -0.028395591 -0.011417176 0.017165994 0.013915106
no 0.008671629 -0.035087403 0.027187556 -0.043994468 0.049418863 0.037955288 -0.09113528 -0.010205229 -0.092230536 -0.0988839 -0.016449431 0.017719842 -0.059975695 0.014802434 -0.038020726 0.06132212
time 0.027000928 -0.019271223 0.08662117 0.03090985 -0.001148604 -0.0033541694 0.043298576 -0.032347675 0.022237703 -0.04418723 -0.009335965 -0.097949676 0.012646743 0.03007069 0.07202355 -0.05336134
she 0.048290167 0.012918882 0.044315014 -0.022640923 -0.028662885 0.008976306 0.040375262 -0.0058442117 0.012871491 -0.017177055 -0.03423897 5.775277e-06 -0.032299306 0.015449869 0.025206825 0.031483173
even -0.08350762 0.08747809 0.08853391 -0.0569205 0.002256588 0.0055900225 -0.04776064 0.04987271 -0.0017429581 -0.041646488 -0.09772787 -0.012958281 0.060347706 -0.029131033 0.055089638 0.0430386
my -0.02447965 0.021568306 -0.025978977 0.021832038 0.04279103 0.025123436 0.037713107 -0.044746928 -0.007089863 0.02568227 -0.052377492 0.012404193 -0.038926803 0.02080878 -0.041612513 -0.016165836
would -0.021910211 0.037180208 -0.056790598 -0.05869323 -0.029336782 -0.0138731655 0.036797233 -0.042951927 -0.054356605 0.005323975 0.026247244 0.0039669843 0.011983698 0.041886866 -0.05357887 0.045881808
which 0.030401746 -0.04550603 -0.01530881 0.023515873 -0.024533056 0.016507106 0.057140864 0.0034493052 -0.01269532 0.056541726 -0.012468527 -0.029247949 0.011235476 0.00544486 0.03242363 -0.020024458
only -0.0854961 0.047388803 -0.011511188 0.07375689 -0.03539619 0.047505952 -0.043662645 -0.049582288 -0.031809185 0.06157785 -0.05329408 -0.05125648 0.053424153 0.055728212 -0.063921206 0.04344607
story -0.028803663 0.011007884 0.010654412 0.037586246 0.036562063 0.041938603 -0.0030489191 0.03269893 -0.028910441 0.030267056 -0.008449942 -0.02340957 -0.012265511 -0.0052172085 0.011611471 0.007083258
really -0.05561996 0.043109614 0.038657162 -0.019122256 0.05045778 0.009621815 0.067175575 -0.012487665 0.004046245 0.047534674 -0.068446875 0.048741315 -0.018346919 -0.012728616 0.036889058 0.025208378
see 0.06676394 -0.04566463 -0.055994023 0.029741347 -0.019641824 0.008996109 0.030645797 -0.029479697 0.04505437 0.060551934 -0.078173585 -0.035459407 -0.074068636 0.03239056 0.017227894 0.0065101185
their -0.024499973 -0.038084578 0.0037136849 0.012746425 -0.04664436 -0.05270492 0.055684708 0.012656748 0.00012819225 0.009394361 -0.016554331 0.037183344 0.006558733 -0.0633036 0.0727651 -0.009738573
had -0.035690915 0.015367528 0.0061604236 0.02621057 0.0010369229 -0.031991933 0.027786415 -0.0034720197 -0.038455572 -0.04606639 0.035917107 0.023044094 0.0021993741 -0.020298498 0.032131672 0.010883425
can 0.01419046 -0.034704987 -0.01570045 0.03221264 0.051059544 0.008945203 0.03675132 -0.029880475 0.05519747 0.050444074 -0.008968431 -0.03983048 -0.017267078 -0.006864392 0.023895822 -0.013308952
were 0.028012335 -0.0075031263 -0.011155619 -0.043227565 -0.024809591 0.044566464 0.029021313 0.072389744 0.0053298785 -0.027981512 0.07927917 -0.00046139126 -0.022401877 0.020649955 -0.01696838 -0.036887508
me -0.003378294 -0.012123776 0.03825526 -0.018281817 -0.037375126 -0.042353902 0.017430201 0.0072567007 0.0028777886 2.801622e-06 -0.046348233 0.05272921 -0.0053841956 -0.046158943 0.058134537 0.048334643
well 0.029743377 -0.06518081 -0.060055748 0.10034756 0.021776294 -0.067510486 0.09293029 -0.08623364 0.060259636 0.07400578 -0.076336935 0.0549323 -0.12378172 -0.10176941 0.04931459 -0.08974377
than 0.024962265 0.0133566875 -0.013414695 0.0024610544 0.03694047 -0.0030041793 -0.034408472 0.019821929 -0.010162175 -0.06590566 -0.015261625 0.013877798 0.009413256 -0.022018565 0.0095898975 0.07224205
we 0.011029131 0.027931467 -0.009626125 0.047250945 0.022092076 -0.018751642 0.0603724 -0.05009888 0.040312223 0.034298055 -0.02169821 0.039664697 -0.063050255 -0.049897905 -0.031572867 -0.035687298
much 0.030122798 -0.03336036 -0.0036830783 0.03417825 0.07239395 -0.010794641 0.036504675 -0.03229323 -0.0034872529 -0.059122987 0.05611941 -0.013931671 -0.004375691 -0.012697709 -0.0021967595 0.06183187
been 0.0102142105 0.071496524 0.056621656 -0.015089979 0.052163895 0.017220855 -0.04567339 0.0290958 -0.002675648 0.009827126 -0.061068654 0.048836444 0.00896154 -0.01022744 0.005941368 -0.036104064
bad 0.056789655 0.07319672 0.09842568 0.14374465 -0.06915268 0.07582649 -0.07341077 0.110107966 -0.1418477 -0.14127389 0.13582723 -0.0932529 0.05900058 0.083778925 -0.1130351 0.042641792
get 0.013363668 0.03499375 -0.054765306 0.021653228 0.015417291 0.024659289 0.0627994 -0.06197036 -0.020372907 0.04590217 0.04170564 -0.019461531 -0.006035103 0.057916123 0.025645915 0.047836803
will 0.05886355 -0.011949958 -0.058308497 0.0012421189 -0.03317918 -0.119043075 0.074859 -0.068942845 -0.009341989 0.042440932 -0.015111251 0.035228096 -0.08856479 -0.09972303 0.04166971 -0.02976334
do 0.0007512164 0.005300151 0.0326039 0.033642154 0.026632482 -0.037339173 -0.068249345 0.0049869902 -0.051113714 -0.03859748 -0.014189074 0.01695219 0.030714886 0.0014759698 0.047017276 0.03730209
also 0.048097506 -0.10781078 -0.11423435 0.08800886 0.058025826 -0.026297221 0.08814698 -0.029103402 0.084227264 0.07683323 -0.060405225 0.007376182 -0.10933279 -0.046120994 0.056337003 -0.03627648
into 0.006626814 0.022289956 -0.02894439 -0.01981909 0.010917627 -0.034684703 0.019438738 -0.044330686 0.027598115 -0.056344874 -0.010616819 -0.0426848 0.02831788 -0.017221676 -0.027205575 -0.030945085
people 0.023802148 -0.018390972 0.0007019191 0.0616199 -0.085969806 -0.039876983 0.03918214 -0.06094049 0.039865244 -0.0043505593 0.021706378 0.035944443 -0.030317668 -0.020172663 0.047878347 0.006502263
other -0.014847682 0.0070747677 -0.07056546 0.03990775 0.017058026 -0.020371484 -0.0075041796 -0.00094917463 -0.010605744 0.04604133 -0.013768968 0.023789471 -0.022934359 -0.058145702 0.009558181 0.041136812
first -0.002107043 0.02715934 -0.043616723 -0.0151958065 -0.010966394 0.008355775 -0.038270835 -0.0016389766 -0.022507155 -0.02487906 -0.07224927 0.032589927 -0.067740954 -0.039732482 -0.049229544 -0.04090746
great 0.12884793 -0.092492945 -0.10906251 0.09172688 -0.04433706 -0.105364256 0.12240449 -0.15311162 0.048504725 0.07596427 -0.09504695 0.086817324 -0.10950672 -0.15291469 0.099314295 -0.10058981
because 0.038192913 -0.046962097 -0.007266226 -0.02323964 -0.005689564 0.009960518 -0.022245258 -0.011731485 0.01791634 0.0071960487 0.0056754444 -0.0010662845 0.026462248 -0.05622854 -0.0020183425 -0.023974791
how 0.030339338 -0.011271776 0.06614449 -0.06475618 -0.057762396 0.03765527 -0.0031251346 0.05636912 0.035054322 0.03792017 -0.02999133 0.012586999 0.023039026 0.009528926 0.04453651 0.046158936
him 0.074947394 0.0029704457 -0.0646096 -0.020213703 0.0014790881 -0.00056608976 0.056735743 -0.05831474 0.0105070565 -0.022906492 -0.051903732 -0.041243874 -0.0673128 0.026845563 -0.018140705 -0.02856522
most 0.08430991 -0.060613602 -0.06068867 0.045470867 0.01806271 -0.025891693 0.059604403 0.020402614 0.050785527 0.0027520023 -0.009183154 -0.03623083 -0.03393408 0.0073503815 0.027393807 0.035155777
don't 0.007738887 0.0079442635 0.05663086 0.068828665 0.047601845 0.049549222 -0.07140017 -0.053335026 0.05618535 0.011481382 0.046220735 -0.068652995 0.09566925 0.035081618 -0.017882982 0.10457105
made 0.011328061 -0.018385919 -0.06928591 -0.052620694 0.04492353 0.055719487 -0.039202016 0.0027626075 -0.009185728 -0.01657756 -0.04809868 -0.03532683 0.031069016 0.021354476 0.046443973 0.041467108
its 0.050038878 -0.058915704 0.0025910651 0.0673143 0.022210464 -0.020297522 0.018210106 -0.03249011 -0.03508805 0.038811248 -0.05144851 0.041548654 0.0063717975 -0.02819996 -0.0054458287 0.0109679885
then 0.0153301135 0.061544113 -0.022686139 -0.015833054 0.023820587 0.03450967 -0.0015525962 0.038865183 0.018149529 -0.0022397065 -0.02878352 0.043803178 0.0023523706 -0.020708587 -0.024401695 0.0597788
way -0.011726653 -0.042696528 0.03193852 -0.03640981 -0.026091894 -0.04966253 0.023765536 0.018456297 0.01938761 0.055426154 -0.026077582 -0.008662567 0.011223873 0.031756178 -0.040551797 0.026787566
make -0.047858525 -0.014436008 -0.018417241 -0.054991618 0.055784248 0.1007179 -0.05795256 -0.0017779614 0.004061901 0.017200518 0.07313597 0.0103893 0.013317453 0.09757071 0.059135336 -0.04105903
them -0.0058410955 0.00536358 -0.050531223 -0.009913412 -0.041028783 -0.006002682 -0.0031059068 -0.07281531 0.03256082 0.059191495 -0.07275611 0.00043825258 -0.08306497 -0.03933335 0.00019549535 0.0075161564
too 0.022832742 0.0145521145 -0.017984686 0.05488004 0.010215925 -0.02794152 -0.035058513 -0.010681969 0.025615294 -0.044096828 -0.01755531 0.0031682216 -0.027367814 0.019717285 0.048094448 0.04607113
could 0.017372536 -0.01609176 0.035230774 -0.05666747 0.021532118 0.017731639 -0.02489303 0.054059677 -0.009882026 -0.0692261 0.018470982 -0.025095718 -0.06448669 -0.0317074 0.042651523 0.060658988
any -0.07044776 -0.044848748 -0.03361036 -0.041223634 0.020004375 0.06812623 -0.063545585 0.07609779 0.0062169135 -0.024903314 0.06899035 0.037112277 -0.012925221 0.065783 -0.06452191 0.011685633
movies 0.022749202 0.014589765 0.015701283 0.023158105 0.019233208 -0.03755231 0.004783528 -0.05318295 -0.016859038 0.037743498 -0.022858156 -0.045189578 -0.004938044 -0.002930285 -0.013207872 -0.029152453
after 0.06743727 0.018963695 0.061138563 0.020745529 -0.02219135 -0.04218394 -0.0372604 0.021469133 0.011817849 0.03628454 -0.026585558 -0.013876516 -0.059553247 -0.03480918 0.029371304 -0.025519889
think 0.038700942 -0.04887026 -0.03450036 0.063870005 0.022661265 0.014898023 0.02637233 -0.031195357 0.037695896 0.014801286 0.0049778554 0.021664958 -0.026412494 -0.044073794 0.06452538 -0.030945195
characters -0.07540268 -0.0032339762 -0.00848557 -0.034629587 -0.011197199 0.067172416 -0.0023119885 0.06008807 -0.025238236 0.03325472 0.06646788 0.021413911 0.0030855522 -0.016558735 -0.043839168 0.0043388857
watch 0.010842154 -0.010525774 -0.053076867 -0.0031270857 -0.01079263 0.037686985 0.027654387 -0.0013208424 -0.0070809266 0.051222984 -0.04384098 -0.058338743 0.008865076 -0.029803412 0.015106651 0.012816988
two -0.030101497 -0.014702729 -0.0389397 -0.013153492 0.0031232578 -0.021672105 -0.012648499 0.041605074 0.012442478 0.01948774 0.030877896 0.032113742 -1.0641001e-05 -0.02735594 0.06959349 0.012698444
films 0.023977239 -0.041036014 -0.006764351 0.008160972 -0.02180744 0.012014999 -0.026326656 -0.057099033 0.029738855 0.021796336 -0.040352307 -0.005694982 -0.073723316 0.040218476 -0.002318213 -0.03152663
character 0.06545156 -0.022573823 -0.014366139 -0.04499811 0.045648534 0.02105873 -0.016053328 -0.0311543 0.041746967 -0.005531138 0.004840615 0.0036341178 -0.0353362 0.079245105 0.040059537 0.04905296
seen -0.008790033 -0.03862312 -0.040368587 0.038042188 0.020240441 0.02125757 0.03740216 0.042542256 -0.03149041 0.06719684 -0.029999845 0.06377616 0.0011566186 0.000693245 -0.018345043 -0.014874383
many 0.015720021 -0.002122279 -0.079482 0.0013056354 -0.035905533 -0.028724886 0.047304 0.011168072 -0.019680247 -0.012366093 0.010950897 0.035763774 0.010805356 -0.06705501 0.030582275 -0.00807853
being 0.042386826 -0.0070213666 -0.0041680196 -0.032194465 0.012597401 -0.0052709505 -0.0014375574 -0.012806511 -0.0068318103 -0.01370114 -0.02909853 0.057138078 0.029175019 0.04396429 0.021512374 0.007469924
life 0.08135035 -0.0348031 -0.06717478 0.053208373 0.03227403 -0.021694435 0.017766029 -0.06827479 0.042667236 -0.022707717 -0.04660996 -0.020050462 -0.011970494 -0.04589725 0.014208753 -0.080953784
plot -0.087522626 0.022243278 -0.022167025 -0.093103275 0.013159887 0.099948704 -0.090354905 0.05340455 -0.06966788 0.04489964 0.00354698 0.012334479 0.039574984 0.11948187 -0.045120027 0.03430923
never 0.062392488 -0.06390541 -0.014011025 0.07238526 -0.035625264 -0.00990348 0.016117282 -0.056014206 0.031618048 0.018971225 0.0045167455 -0.0016952695 -0.028854681 -0.0004315795 0.06395938 -0.05608265
acting -0.095894516 0.097217046 0.018241262 -0.06338452 0.08988829 0.08410169 -0.03389476 0.012401633 0.09163806 -0.030964227 -0.015536685 0.019129876 0.04060711 -0.0092500225 -0.06958932 0.064791486
little 0.06660342 -0.036696363 -0.039602686 0.034876447 -0.027354037 0.026105735 0.027178288 -0.049979016 0.010369093 -0.021741314 0.0022425486 -0.0020979422 -0.03553384 0.002533427 0.0055713323 0.031208856
best 0.041455682 -0.07712942 -0.081615366 0.074945204 0.006526795 -0.14376691 0.05453618 -0.1291082 0.13460262 0.036053337 -0.07371498 -0.018911052 -0.12445263 -0.13975284 0.0015778433 -0.110821374
love 0.07109657 -0.06004868 -0.06600433 0.066641085 -0.075142995 -0.14263655 0.10141723 -0.05581589 0.040264398 0.06016698 -0.05679627 0.039783496 -0.08388543 -0.107613586 0.009431153 -0.06359021
over -0.030979546 0.0020482503 -0.0062834336 -0.029674288 0.017860191 -0.0641593 0.017993007 -0.026615698 -0.012417122 0.050400708 -0.00946775 0.009102003 -0.0048053125 0.05676739 -0.047355227 0.059700277
where 0.009078051 0.03420529 -0.035317477 0.043359645 -0.034731656 -0.017294059 -0.035134602 -0.004402915 0.009076376 -0.000936528 -0.04746232 0.0010956489 0.027575808 0.02171448 -0.010980804 0.009928955
did 0.062373254 0.06789946 -0.03277008 -0.07436674 0.0668388 -0.0080822 -0.06443126 0.07638119 -0.031131249 -0.035886098 0.003353476 -0.05656771 -0.029852625 0.06440757 0.007624161 -0.034757722
show 0.03243287 0.0018337242 0.027696835 -0.02354715 -0.020753192 -0.02426558 0.008739223 0.011366901 -0.032561477 -0.014386981 -0.04853092 0.0030397014 -0.04616876 -0.053450316 0.04462928 0.0036780771
know 0.008849023 -0.029957393 -0.047595076 0.065632604 0.0036500338 -0.051867463 -0.017818835 -0.041998465 0.022111896 0.024111984 -0.06329814 0.05431515 0.0076518194 -0.009621515 -0.00037926153 0.005611292
off -0.02423055 -0.019529762 0.021421136 -0.046759468 -0.043558076 0.03484717 -0.06156364 0.088296644 -0.065455005 0.040973708 0.1045085 0.035298556 0.050473373 -0.017208833 -0.004086303 0.014194938
ever 0.00022814286 0.02746257 0.023452315 -0.03476674 0.04288046 0.053867497 -0.03692624 0.043647196 0.06476712 -0.071530595 0.033028964 -0.057459548 -0.011173638 -0.048988 -0.021099437 -0.0037800327
does -0.040842928 0.004758654 -0.010478786 -0.019522479 0.009695213 -0.020463297 -0.036785323 -0.02422422 0.028026817 -0.04681396 -0.011102829 -0.009357032 0.01300803 -0.018703194 0.0044021164 0.0024710493
better -0.0074671777 -0.012784734 -0.02162595 -0.08114339 0.059761222 0.048130516 -0.0470732 -0.011525212 0.037656985 -0.030860104 -0.062973 0.049138788 -0.08846973 0.07991068 -0.058699045 -0.013962424
your 0.059004527 0.07631884 -0.052665908 0.006741898 0.03503422 0.034972247 -0.012687343 0.0771197 -0.01615577 -0.038524188 -0.0017330474 -0.0010441486 0.056106485 -0.04742255 -0.031455398 0.06650755
end 0.0023608843 -0.022266993 0.034819234 -0.013111079 0.06817839 0.033914056 -0.0475421 -0.022160944 0.010877069 -0.06265066 -0.0002063992 -0.0044010426 -0.020041881 -0.0028343925 0.03263564 0.06540352
still 0.05557034 -0.018498944 -0.0091461 0.0004069175 -0.04513841 -0.01997542 0.028200652 -0.04634138 0.001832239 -0.0040560775 -0.045498893 -0.02481854 -0.058796316 -0.07624247 0.0035176221 -0.053751707
man -0.042671386 -0.0067961356 -0.05253271 0.072632805 0.0204476 -0.046849456 0.047280777 -0.06320873 -0.02058531 0.037249003 -0.04585692 0.04737576 -0.012829716 -0.004650199 -0.03131826 -0.00081715465
here 0.01055438 0.024163002 -0.026163138 0.030440832 0.006911222 0.046634894 0.008972576 0.064427964 -0.035091773 -0.028369011 -0.01411527 0.0014531143 0.025342442 0.018207844 0.00876415 -0.0021001818
these 0.016110856 -0.03712396 -0.020905614 0.018944686 0.007703443 -0.05348625 0.045557886 -0.030353574 0.04439035 0.050562676 -0.06978388 -0.023064265 0.027676873 -0.013431011 0.008105688 -0.023764009
say 0.020206373 0.016307937 0.0065410216 0.016266266 -0.037694782 -0.007980431 -0.0044808784 -0.0036818865 0.025655184 0.06507631 -0.056447066 -0.017005578 -0.034317397 -0.016144179 -0.016191987 -0.0031855132
scene -0.014023815 0.009969542 -0.0063592424 0.027335685 0.0026533175 -0.015896192 -0.00384792 0.027739892 0.0033706736 -0.005774425 0.008214234 0.0500993 -0.07859963 -0.08021784 0.025451224 -0.0029865252
while 0.029454844 -0.06920034 -0.031829637 0.011051036 -0.05151341 -0.10505619 0.038906354 -0.014803022 0.0068631344 0.045561075 -0.082478106 0.04180079 -0.025196271 -0.026632022 0.024019562 -0.01783409
why -0.046466377 0.035224065 0.079958595 -0.047276333 0.041937277 0.058556255 0.0100936815 0.0109601 0.08757979 0.027797958 -0.022867067 -0.060030386 0.08650636 0.050249085 0.047210187 0.032029036
scenes 0.025764246 0.032743856 0.02807036 -0.011835493 0.046185702 -0.0067830523 -0.045377057 0.014453855 0.028998062 -0.019761773 0.010359646 0.018417658 0.04119586 0.018222498 -0.03981674 0.008980098
go 0.027364783 -0.039024428 0.030467054 -0.009459413 -0.03987354 0.016719973 0.026785553 0.03858356 0.01014625 -0.012082109 -0.004472552 0.027901873 0.0017400996 0.0076523433 0.021237873 -0.06302821
such -0.01903878 0.07612954 0.008777853 -0.061495475 -0.05087232 0.05586008 -0.0554122 -0.028077887 0.043926347 -0.06553098 0.020092884 -0.0026865038 0.04195256 -0.0038076153 -0.05492771 -0.028301923
something -0.02918784 -0.003799925 -0.011764302 0.046221964 0.07462593 -0.00029023344 -0.08166129 0.01795838 -0.027955132 -0.05739022 0.051587872 -0.024096409 0.06929663 0.013895 0.064298056 0.06613334
through -0.060200155 0.032029107 0.008785333 -0.049321834 0.015891898 0.017113186 0.004083664 -0.024860121 -0.029794272 0.027989034 0.015177304 -0.024912255 0.042092722 0.012667857 -0.04786215 0.042159054
should -0.02084265 0.0044305786 0.022367284 -0.07508792 -0.036144517 0.08245306 -0.06904336 0.07784362 0.035002746 0.05422591 0.058070682 0.07004282 0.0033365884 0.07180958 -0.057653226 -0.02884911
back 0.040798254 -0.03212871 -0.0059263366 0.008000312 0.01233476 0.009568152 0.014581526 -0.009278657 0.007480054 0.018034102 0.00420651 -0.008656592 -0.0619684 -0.011517825 0.00312587 -0.06063094
i'm 0.037190568 0.004181919 0.06291494 -0.052409887 0.002761469 -0.056403402 -0.037949782 0.040103715 0.022743601 0.012927799 0.05758259 0.0025729595 0.07342819 0.06702003 0.038571563 0.0019114155
real -0.05334724 0.034259964 0.038860716 0.0031861921 -0.010301307 0.018899132 0.026784936 -0.0200649 0.035429012 0.039932452 0.029628977 -0.020724727 -0.061951485 0.021861017 -0.038212206 -0.031957034
those 0.039823823 -0.05402325 -0.0032163446 0.052525815 0.002744339 -0.0040983926 0.055905137 -0.020006226 0.047437035 -0.00560068 -0.06821272 0.043340623 -0.063681714 -0.021311872 -0.030072898 -0.068193376
watching -0.014157132 0.048860695 0.06941918 -0.0010265333 0.08351565 -0.001375221 0.00021159789 0.018700227 0.0005542232 0.03583874 0.081596054 0.03138038 -0.016246349 -0.02250425 -0.068679415 0.07245242
now 0.00016551933 -0.029089082 -0.0014090503 0.016284915 -0.043292638 -0.06690556 0.042072125 -0.01703725 -0.024770256 0.0004639831 -0.043945894 0.051975217 0.022049535 -0.071540385 0.00093002367 0.008988377
though 0.06928926 -0.05328139 -0.046872836 0.06907299 -0.027783101 -0.10214898 0.062976986 -0.11634369 0.038467772 0.08954952 -0.088768005 0.014703074 -0.010611288 -0.084946245 0.07612498 -0.023166949
doesn't -0.038733784 -0.0046779704 -0.032848302 0.0010621125 -0.039893087 0.038379222 -0.010273501 0.06356033 -0.025270369 0.0009351707 0.07300209 -0.030363943 -0.02394324 -0.00919366 -0.02551489 -0.0035008548
years 0.023095213 -0.045952864 -0.06230937 0.030121215 -0.038872365 0.007061431 -0.016283333 -0.060297493 -0.02553607 -0.022522718 -0.0391423 0.0149023775 -0.022493694 0.0031297812 -0.014644879 0.00196801
old -0.01738002 -0.0013209322 0.009322358 -0.033237413 0.006436995 -0.08419039 -0.022865444 -0.031972006 0.044406813 -0.02709525 -0.04629846 -0.024253225 -0.051897977 0.042958938 -0.02196881 -0.08266931
thing 0.039244596 0.09554045 0.08582 0.018930387 0.07053844 -0.040870026 -0.09999846 0.05806546 -0.0778455 -0.0035689615 -0.0024719175 -0.001871002 0.036460403 0.009563703 0.0195919 -0.047096636
actors -0.050491467 0.08583998 0.011638879 0.011307102 0.008995393 0.033130825 0.0031921093 -0.0035146205 0.01514404 -0.044795487 0.019836161 -0.04478016 -0.034821328 0.05317221 -0.031199599 0.02369463
work 0.019851863 -0.020862244 0.029867314 -0.04839384 0.027009675 0.03989717 -0.03498515 -0.020023191 -0.046771366 -0.034456376 0.064805046 -0.032139905 0.020053806 0.009975532 -0.069169894 0.06182146
10 -0.028612338 -0.065853916 -0.016724344 -0.070420004 0.0019554168 0.0016523163 -0.023134924 0.013390678 0.018368969 0.0052377055 0.013499619 -0.046403423 0.018080171 -0.022214763 -0.022517316 -0.00846736
before -0.0032166468 0.00114692 0.00011065858 -0.014202222 0.04269629 0.0009227628 -0.015279662 0.035915904 -0.035079658 0.038212843 0.028403351 -0.031468686 0.031149887 -0.02597979 0.05184801 -0.0008814862
another 0.03513237 -0.06013367 -0.009868581 -0.010509521 -0.0018348737 -0.056493513 -0.040514033 0.033480622 0.027706394 -0.07172987 0.04693344 0.011140294 0.023354623 -0.047455408 0.037179656 0.031867836
didn't -0.016627828 0.052492227 -0.012760113 0.02210938 0.05602223 0.046348453 -0.053847652 0.03550428 -0.056644168 0.014357659 0.011132108 0.000759336 0.023006774 0.04848943 0.09266485 0.019112384
new 0.050469954 -0.036765393 0.004183627 0.03367194 0.0120745525 -0.01278177 -0.008466591 -0.06344908 0.0039407234 0.0380562 -0.002541924 0.0240422 -0.0051909657 -0.017604722 -0.026632389 0.013674639
funny 0.03869493 -0.013295049 0.025499167 0.024698384 0.019065557 0.023330495 -0.036624987 -0.03403331 -0.017936932 0.002781522 0.027415637 -0.04287034 -0.0065443614 -0.03463324 -0.026306994 0.018568479
nothing -0.15263183 0.086930625 0.058585618 -0.073756605 -0.056489 0.14684148 -0.038898773 0.042173155 0.06002143 -0.050659727 0.036012184 0.061379854 0.043940917 0.044149946 -0.032655057 0.08571084
actually 0.042574316 -0.0062039746 0.017452486 0.048982475 0.04689643 -0.03641468 0.0014863603 -0.05776489 -0.05732304 -0.042319942 0.05310898 0.0125474185 -0.02369891 0.06113986 0.070958905 -0.052088693
makes 0.028744642 0.020324687 -0.046357684 -0.041798633 -0.008279828 -0.016969474 -0.017507873 0.0025812134 0.0017823665 -0.012744755 0.0141435675 -0.015277554 -0.01975633 -0.0290435 -0.00020944893 -0.028667614
director -0.029339906 -0.007666047 0.065792955 -0.019947346 -0.002052368 0.023317246 -0.0014262537 0.016781574 -0.023531023 0.0023774619 0.09266712 -0.0019281722 -0.013804804 -0.06114741 -0.025028136 0.11401488
look -0.009382718 0.022173548 -0.038499102 0.017058363 0.032523345 0.047085777 0.0172309 0.018810691 -0.0052058524 0.035837714 -0.008249382 0.024590943 0.051117573 0.04627842 -0.029508268 0.02935479
find 0.003136699 -0.07324257 -0.0006800538 0.074297726 0.014047411 -0.08198104 0.061971027 -0.013163512 0.02872907 0.054203257 -0.007904895 0.0052522 -0.008203771 0.005147158 -0.010148251 -0.061192818
going -0.04891199 -0.03935753 0.039578605 0.036717825 0.01377792 0.030338649 0.043308176 -0.024046017 -0.023408717 0.037822254 -0.05106677 -0.0048269685 -0.076004185 -0.040806703 0.011211595 -0.026619256
few 0.04736413 0.03071527 0.0014586361 -0.05088997 -0.04478036 0.03208156 -0.012264717 0.005477595 0.020500062 0.03283077 0.01002204 0.0310274 -0.020605965 0.043864675 -0.0175157 -0.027138209
same 0.047940034 0.010445823 -0.04009359 0.03745332 -0.03725431 0.018934488 -0.034698784 -0.012452516 0.057160933 -0.030863818 -0.020895073 0.023810387 -0.00809596 0.016568156 -0.0100459345 0.056224417
part -0.025653994 0.031477828 -0.0024391601 0.06749233 0.043025993 -0.006925339 -0.006200026 -0.007506478 0.027436972 0.0029344996 -0.03500435 0.003300418 -0.03765549 -0.044397548 -0.020921433 -0.015385704
again 0.08192223 0.0007715499 -0.042601947 0.049606785 -0.057689227 -0.029918252 -0.031531323 -0.004829625 0.038561918 0.038228694 -0.014813991 0.025312817 0.024926163 -0.009664338 0.053481784 0.011373741
every -0.0030908263 -0.014385899 -0.027403995 -0.012757694 0.01047707 -0.06847595 -0.020005682 -0.068006806 0.0052296645 0.008467071 0.008582958 0.04068059 -0.037282538 -0.022528598 -0.03151119 -0.071123905
lot 0.034937408 -0.005792065 -0.03871511 0.025750654 -0.050073087 -0.062202003 0.0737291 -0.0094156535 -0.028028086 -0.0034672334 -0.013781975 -0.010338674 0.024838995 -0.016008299 0.036386322 0.0086582815
cast -0.023087604 -0.0013252355 0.0070004873 0.0565338 -0.05323084 -0.016430486 -0.010139478 -0.032918416 -0.009986868 -0.002957873 -0.05575376 0.04569466 -0.059506726 -0.009704977 -0.010580839 0.0036260542
us -0.009629017 0.02562373 -0.04542732 -0.01376493 0.0034843425 -0.018344974 -0.03137372 -0.046458017 0.05816119 0.026260845 -0.03141714 -0.022119896 -0.051674847 -0.009288302 0.0035759322 -0.07330056
quite 0.025266746 -0.032000445 -0.1006523 0.06492529 -0.035841275 -0.04616908 0.07464813 -0.038261212 0.06984194 0.026272288 -0.050146848 0.057100065 -0.06971306 -0.06442765 -0.0032478112 -0.057646036
down 0.060108468 -0.006867271 0.027665688 0.006885949 -0.032155998 0.026189012 0.032697804 -0.030556329 0.05134243 -0.011467641 -0.04453275 -0.029829944 -0.038205728 -0.06003501 0.0037122555 0.03517777
want -0.0043777134 0.05992294 0.00994268 0.050103124 0.019727588 -0.010381545 0.029094603 0.07669817 -0.00909897 -0.017508993 -0.07948056 0.03364851 0.0749328 0.015622283 0.011025774 -0.0015253036
world 0.042585973 -0.06182328 -0.02029245 0.038506836 -0.038681697 -0.031410184 0.08244545 -0.04379351 0.0074107996 0.07470307 -0.07076823 0.054493655 -0.060248073 -0.035366047 0.022016253 -0.07515345
things 0.04912259 0.015200099 0.03854203 0.03820969 -0.017231977 0.000138484 0.054507755 0.0006422775 -0.0062657893 0.06922533 -0.0333249 -0.01316843 -0.010956646 0.016602995 0.030897973 -0.03596495
pretty -0.041066185 -0.024590325 -0.032152005 -0.015932245 -0.030946352 0.021364493 -0.070873 0.05169281 0.039612263 0.03798224 0.069989994 0.037939582 0.05307271 -0.0073779477 0.039086 -0.05284851
young 0.04881439 0.0032751192 0.0043881 0.017665748 -0.03982364 0.0019179154 0.060396925 -0.011796534 -0.044563293 -0.029261317 -0.007137984 0.012032803 0.025320277 -0.034669068 0.011198431 0.034922585
seems 0.0078606 0.08658524 -0.015993241 -0.038275786 0.018304072 0.04164744 -0.078048036 0.09682755 0.02978965 -0.031653658 0.023904245 0.06400078 -0.036023982 0.010228958 -0.012621257 -0.03642633
around 0.04532082 0.024746606 -0.053999566 -0.026037294 -0.014045917 0.010818236 0.00983626 -0.020896185 0.03846876 0.008877269 -0.038680546 0.052235465 -0.028420256 0.021544011 -0.032496113 -0.036451437
got 0.02502849 -0.031139368 -0.06583741 -0.024330646 -0.0029346477 0.062091954 0.03630908 -0.027810728 0.032857236 0.037503157 0.02914063 -0.04653525 -0.044157304 -0.047662407 0.059165392 -0.012220298
horror -0.036355857 0.004635304 0.016111359 -0.057718467 -0.00874235 0.07555314 -0.02969511 -0.036506817 0.042417463 0.016983168 0.008133594 -0.07762254 0.063029334 -0.019951062 0.043181963 0.014187698
however 0.02068167 -0.03997079 -0.039684396 -0.0038707512 -0.0046380465 0.0007840436 -0.01621161 -0.046173286 -0.021078574 -0.0014549424 -0.009144194 0.01143914 -0.036408897 -0.019543702 -0.04178997 0.0430389
can't -0.028317545 0.015370773 0.032698296 0.035041887 -0.06269142 -0.005360473 -0.048293397 0.027634881 0.004107741 0.008729924 0.0542704 0.029636284 0.010746628 0.004725896 0.0035601137 -0.054357983
fact 0.019964417 -0.012667144 0.043669995 -0.0143821 -0.024674635 -0.056625247 -0.015701978 0.028193139 -0.023728928 0.009032495 -0.062936366 -0.038803697 0.03955001 0.014079813 0.019549893 -0.063575126
take -0.008398324 -0.06395493 -0.022159448 0.035771634 0.06611172 -0.05448078 0.054175496 -0.007184146 0.0059379395 -0.021020763 -0.025241597 -0.03672906 -0.049614947 -0.0159705 -0.06303778 -0.02552428
big 0.06540857 -0.052933555 0.004719725 -0.038885538 -0.02895751 -0.06669921 0.03080136 -0.037868556 0.059080515 0.023962779 0.01563231 -0.028510477 -0.030720163 -0.0065586497 0.008110492 -0.0077412617
enough 0.03401171 -0.039482266 -0.0055595674 -0.068919614 0.041486323 0.072642766 -0.078193545 0.029266464 0.019369772 -0.04621864 0.030368727 -0.054523364 0.025545495 -0.021780359 0.019589655 0.006720625
long -0.02763166 -0.021974705 0.044833805 0.05813917 0.015937055 0.015601573 -0.017779311 0.07568965 -0.0028598367 0.028984996 0.011137936 -0.058053784 -0.002290916 0.024215108 -0.018491099 0.03258911
thought 0.0051996047 -0.027041532 -0.01611151 0.021558862 0.05780396 -0.012218367 0.016358828 -0.080064766 0.03312761 -0.03234428 -0.05943853 -0.022585312 -0.032416552 -0.0016015802 -0.003753627 0.0011433352
that's -0.028284924 0.0477933 -0.04178616 -0.026107984 -0.05301672 -0.023711322 -0.041915197 0.046994414 -0.0049680164 -0.03747205 0.032363024 0.021067785 0.00048971316 0.0018440897 0.040373545 -0.060379773
both -0.0019443434 -0.037287027 -0.04857929 0.037515573 -0.010277141 -0.059032336 0.051817816 -0.013359567 -0.009698978 0.036362074 -0.04245889 -0.028305758 -0.011537254 -0.011017096 -0.033441134 -0.063727215
between -0.04451764 -0.016832713 0.012758953 0.041751686 -0.021756047 -0.010117368 0.026283003 -0.020213746 -0.031428017 0.010401561 -0.013395952 0.010406067 0.029003631 -0.026084386 0.014262043 -0.01949837
series 0.058935937 -0.056642506 -0.07907844 0.011019154 -0.04664311 -0.040270604 0.019461012 -0.047526043 0.047562182 0.03660564 -0.07045521 0.04377097 -0.015037863 -0.08453264 0.06280678 -0.04256675
give 0.02133997 -0.03947395 0.0037815184 -0.036684457 0.026616275 -0.00086684554 0.032441217 0.0071110553 0.05410566 -0.007840515 0.028057683 -0.022053352 -0.03681905 0.007306189 0.055580344 -0.0515945
may 0.015978033 -0.07929558 -0.044422388 0.08881535 -0.014655742 -0.11532777 0.05164765 -0.088971145 0.05351729 0.017760351 -0.0792023 0.032007378 -0.033084407 -0.06051115 0.017060358 -0.073512815
original -0.09099683 0.080552734 0.044702433 0.05639347 0.058877476 -0.0075625214 -0.04726941 0.069955684 -0.04575705 -0.050945606 0.038538985 0.0026319742 0.02318438 0.010421153 0.039940458 0.052458737
own 0.0053503276 -0.061305035 0.016721675 0.050764844 0.039467923 -0.059208125 0.041494694 -0.064339496 0.01695385 -0.016625976 -0.011105079 0.029026153 -0.030545777 -0.031724516 -0.00015171099 -0.050339244
action 0.015589867 0.015494067 -0.03545999 0.051431913 -0.026493086 -0.0126517145 0.01704195 -0.004507882 0.01300682 -0.028098905 0.0051392876 0.046575528 0.015009753 -0.0059429007 0.016513065 -0.015086366
i've -0.02930729 0.031112637 0.038935043 -0.0069653895 0.034025237 -0.0003271508 -0.025252702 0.019946197 0.026789881 -0.021433806 -0.017449344 -0.022122389 0.05928398 0.01357682 0.047589675 0.0024593896
right 0.048554663 -0.0051436606 0.015757341 0.0054165684 -0.02458599 -0.0023424316 0.035560284 -0.023983078 -0.03860877 -0.013379561 -0.042485055 0.0011481068 -0.0016782542 -0.05476728 0.051499747 -0.0019064123
without -0.013031786 -0.028815964 -0.032821674 0.038115207 0.034181044 -0.012387584 -0.009861431 -0.09528578 0.05603958 -0.020104267 -0.07368172 0.009866274 -0.005055473 -0.035831712 0.044214085 -0.04922399
always 0.051131915 -0.07308562 -0.06546969 0.09587602 -0.007654077 -0.08043748 0.052140146 -0.0567761 0.104329124 0.029361604 -0.041001834 0.029537704 -0.069649115 -0.08370598 0.022208076 -0.083205804
times 0.010186531 0.017708402 0.0042369016 -0.004609973 0.039624143 -0.059461344 -0.006988826 -0.012295538 -0.02226011 0.045065194 0.043814894 0.03644319 0.0015773417 -0.05281694 0.041183244 0.003480645
comedy -0.00071327144 0.017473772 -0.044849258 -0.0019072464 0.002597272 -0.0014637801 0.039323006 0.00080346083 0.029406294 0.01963653 0.0073661967 0.0074348873 -0.019263541 -0.02153757 -0.026680829 0.0052800416
point -0.013370375 0.01511608 0.04609795 -0.07406902 0.05845298 0.016139472 -0.013882091 0.0075297663 -0.06640931 0.01788881 0.101472534 0.030648347 -0.005443161 -0.02842923 0.021993162 -0.01481885
gets -0.01814228 0.006206645 0.027270319 0.03548826 -0.028428856 -0.006013406 0.0022118348 0.008322894 -0.020730544 0.0008013153 0.01513224 0.003693335 0.03396175 0.020436749 0.019880882 -0.029308463
must 0.04152675 -0.00624691 -0.0023119852 0.068822056 0.014901036 -0.023704112 0.017898584 -0.019500962 0.04128851 -0.004088321 -0.035933595 -0.02710109 -0.02725349 0.0057894983 0.0033997651 -0.053443745
come 0.072407566 -0.046078548 -0.008246336 -0.048691902 -0.034196038 0.00031392608 0.04085678 -0.051435035 -0.036677625 -0.02067656 0.0022687423 -0.0016109734 0.031837914 0.0125159705 0.0015139222 0.041985963
role 0.035181418 -0.030706549 -0.018057836 0.053784177 0.057827212 -0.0013752006 0.024498915 -0.05159592 0.0010574722 0.06305258 -0.034612052 -0.01879954 -0.0626308 -0.0699727 0.04558574 -0.024840806
isn't -0.018144637 0.070422 -0.034840953 -0.01995414 0.026477989 -0.011789484 0.051321734 -0.012035611 -0.037204262 -0.018876258 0.026633617 -0.06718432 -0.02143343 0.04671408 0.063608155 0.046880823
saw 0.032284033 0.032336608 0.019300684 -0.001180558 -0.013661418 -0.031350575 -0.028081972 -0.024926394 0.01990117 0.04279439 -0.0065532033 0.033914205 -0.024379341 -0.028465888 -0.022901658 -0.049950507
almost 0.012599167 -0.013742646 0.019776722 0.0013281853 -0.050568532 -0.04161007 0.026250841 0.02389795 -0.055696283 -0.016121754 0.0074367533 0.051008422 0.04269504 0.05254661 0.021012194 -0.022112805
interesting -0.032792643 -0.038508665 0.027798982 0.008307691 0.037693292 -0.02557162 -0.027366959 0.040319894 0.0001627017 -0.12356236 -0.0016708174 -0.086387776 0.08644755 -0.022125017 -0.023217984 0.023515917
least 0.023009358 0.047176763 -0.0005364766 -0.0012705465 -0.01118576 -0.007927184 -0.056757055 0.088543124 -0.08622691 0.0023259502 0.08854038 -0.06544964 0.09609404 0.08421903 -0.023529546 0.084542915
family 0.051250223 -0.05556108 -0.03956473 0.08142374 -0.00961427 -0.023285022 0.03698865 -0.08609116 -0.000650506 0.065356985 -0.06687711 0.051825058 -0.040242746 -0.06344662 0.056698315 -0.050002996
done -0.06841138 -0.053565938 0.02860111 -0.03614939 0.0041354652 -0.036041472 0.001111529 -0.025621194 -0.022073727 0.031759784 -0.05144986 0.01928623 -0.054946706 0.052571904 0.013088251 -0.079726554
there's 0.060711842 0.03178388 0.054706607 0.025194975 0.0041556163 -0.016521305 0.073608644 0.016847122 0.079182394 -0.037781354 0.05575185 -0.039102886 0.012787269 0.0544292 0.050451837 0.024031611
whole 0.032148764 0.012284843 -0.08407264 -0.01590869 0.009718234 0.072187535 0.06013572 0.058874946 -0.019179717 -0.063701674 0.06547288 -0.030474618 0.044082984 0.011162073 -0.050027683 0.058101013
bit 0.005527665 -0.11217301 -0.037755992 0.038830552 0.010447511 -0.089587666 0.049693573 -0.006476595 0.017334681 0.08150714 -0.013844263 -0.040840287 -0.082071066 -0.012433509 -0.020311307 -0.0979856
music 0.01726005 -0.04569097 -0.06892374 -0.011519612 -0.042478826 -0.083052896 0.09819791 -0.025763238 -0.034981444 0.030000538 -0.05105495 0.03712543 -0.007456502 -0.09262331 -0.010237931 -0.058059976
script -0.08829597 0.031971265 0.13039126 -0.13664179 0.088930674 0.07594304 -0.0568339 0.025967378 0.11246606 -0.039479736 0.0017333628 0.036686458 0.05294126 0.006521545 -0.041236747 0.10179692
far 0.073819906 -0.008821091 0.020712143 -0.020554796 0.048102643 -0.034165464 0.035129547 0.050919257 0.0479578 -0.047766324 -0.06519918 0.016319456 -0.02034276 -0.04662266 -0.027523587 -0.0047582244
making -0.039465293 -0.025504092 -0.0066103763 -0.0025245969 0.031762507 -0.022887638 -0.018814804 0.075511806 -0.059241593 -0.0073379055 0.04838019 0.02451777 0.038445752 0.07253339 0.02048466 -0.03310729
guy 0.039224744 0.0086529665 -0.024835095 0.027523067 0.0072627426 -0.061701104 0.059154466 0.047910213 -0.04301633 -0.020788988 0.041235622 0.015278548 -0.027818562 0.05184718 0.03651118 -0.0637108
anything 0.019792588 0.09873575 0.021665575 0.0010283105 0.061050892 0.07394589 -0.04748779 -0.043553315 -0.05909561 -0.031950857 0.019457206 0.039109457 -0.0456767 0.07521711 0.07651073 0.01101246
minutes -0.101454794 -0.0060764104 -0.06650595 -0.073861726 0.026092134 0.107187636 -0.076584056 0.08636395 0.011678792 -0.008913217 -0.060850263 0.06631561 0.002424432 0.07650548 -0.086117186 -0.02370741
feel -0.018803105 -0.036256626 0.0106502315 0.049090046 0.020156179 0.026165215 0.013982821 0.010226109 0.024981547 -0.01915561 -0.005475435 -0.0009623575 -0.01899221 -0.02705481 -0.035270657 -0.04651307
last 0.0335077 -0.017332595 0.003958096 0.025738388 -0.01995647 -0.07872024 0.051377036 -0.07483949 0.04598451 0.03833897 -0.097128965 0.010624769 -0.02890367 0.019212881 -0.010646555 -0.08602244
since 0.031392436 0.004491304 -0.017372988 -0.027516514 -0.048690956 -0.034669057 -0.010480431 -0.031165786 0.014597108 0.06497487 -0.05001617 -0.022348307 -0.0604214 0.03733818 0.07554695 -0.015010919
might -0.04455184 0.012434514 -0.015414669 -0.0006934396 0.03417373 0.0119135715 -0.0516265 0.07135988 -0.0016865004 -0.008502023 0.03476349 -0.0031108535 0.004035709 0.07133361 0.003056613 0.054171506
performance -0.010401807 -0.040626504 0.0028093935 -0.024616295 0.015879497 -0.028662317 -0.0022463277 -0.04567397 0.029449599 0.017505882 0.04055777 0.012686283 -0.013938256 0.046022803 0.031779855 -0.021345833
he's -0.013921473 0.015433401 0.056090612 -0.020933831 0.01767655 0.0007605955 0.019466273 0.03809095 -0.05213411 -0.049563836 -0.0084308805 0.012833571 0.0002510163 -0.022946216 0.008624756 -0.0045881867
2 0.009084541 0.013341203 -0.04296191 -0.08545336 0.008229591 0.10136099 0.05726461 0.02156288 0.042630993 -0.045824163 0.05233908 0.017141216 -0.043050233 0.044454847 -0.013133279 -0.046201818
probably -0.038235005 -0.010959583 0.0062998617 0.0054109707 -0.045767084 -0.031015871 0.027026884 -0.07741771 -0.020951062 0.020651633 -0.041963633 0.032073054 0.030727435 -0.020870281 0.00036422253 0.008968663
kind 0.02135275 0.018713914 0.009081421 -0.068632394 -0.041483037 -0.0492209 -0.009926065 0.05351524 -0.04688657 0.046940453 -0.010986632 0.030524049 0.020656558 -0.0010744093 -0.03455851 -0.013551838
am 0.002815395 -0.030124554 -0.007978232 0.02416591 -0.03518355 0.019577093 -0.0038312234 0.0509175 0.0010984844 -0.023655009 -0.032424968 -0.0040358747 0.05707598 -0.0065930006 0.03074417 0.063297585
away 0.029952992 0.019454729 -0.07451463 0.049589843 -0.04035696 0.018496064 -0.047541134 0.0148450155 0.015261878 -0.018768145 0.03725256 0.03250493 -0.059220254 0.019386403 -0.028472997 -0.034365643
yet 0.0052961404 -0.04748275 -0.031919613 -0.0061890953 -0.03656684 -0.114206344 0.023468379 -0.103835955 0.03865102 0.016166719 -0.08180576 -0.014345864 -0.04890664 -0.037860654 -0.03770978 -0.065653466
rather -0.024261545 -0.009884059 0.003564346 0.04254159 -0.05056761 0.025892943 0.03432227 -0.038196504 -0.03742884 0.005080402 -0.047572 0.045124356 -0.024098841 -0.015450183 0.041788384 0.023906594
tv 0.036542676 0.005144534 0.018381508 0.0042100516 -0.009703449 -0.0388921 0.023426276 -0.020359991 -0.03936544 -0.021578496 -0.06119556 0.016349936 0.036431123 -0.013221587 0.034422733 -0.044809442
worst -0.1306984 0.08740041 0.15844318 -0.1579354 -0.11114261 0.15944448 -0.1850798 0.13527484 -0.16925654 -0.14429186 0.047391474 -0.105625965 0.064146206 0.17776686 -0.10496045 0.1290956
girl -0.013549936 -0.03363496 -0.0014253359 0.0073234728 -0.04018178 -0.018431528 0.0426769 0.039675318 0.034451038 -0.008411223 0.015499013 -0.036287338 0.02254827 0.022518238 0.01772731 -0.03393985
day 0.014592359 -0.041538157 -0.07038608 0.0016900215 0.024563026 -0.025998693 0.08633773 -0.0017467987 0.0054816445 0.045227498 -0.0052575297 -0.018690666 -0.037864383 -0.007729991 -0.027614899 -0.021471186
sure 0.034661997 0.018379621 -0.021305162 -0.068447374 -0.037245434 0.055816785 -0.05614565 0.02412784 0.07722153 -0.05596241 -0.007037357 -0.035302423 -0.01574103 -0.035723466 0.004351512 0.05773296
fun 0.07352537 -0.09734223 -0.06650664 0.025907075 -0.04104589 -0.12569377 0.09698516 -0.0508121 0.02630779 0.065032355 -0.12141542 0.04885601 -0.09696995 -0.039370928 0.002817008 -0.08081795
hard 0.023158815 -0.009254654 -0.03812404 -0.010963863 0.014814042 -0.03563664 -0.038056627 0.052636396 0.03012339 -0.027942082 0.028631315 0.02467289 0.034090318 0.063780785 -0.019772919 0.00073440745
woman -0.02427634 0.004007022 0.027151572 -0.04146557 8.012024e-05 -0.024041258 0.0122784795 -0.016157081 0.05541343 0.008738131 0.05147258 0.05357524 0.05130618 0.008734443 0.0084245335 0.025182853
played 0.03558167 -0.010641242 -0.04913748 -0.029445754 -0.02826024 -0.061549403 0.04300656 -0.022497386 -0.0124308895 0.010308344 -0.05861517 -0.011739424 -0.027158419 -0.030982783 0.0037073812 0.0052863057
each 0.00033732492 -0.027176397 -0.019222563 0.06922821 0.008578081 -0.079044014 0.05379362 -0.016957894 0.07474225 0.032202844 -0.0021723292 0.03959088 -0.08941173 -0.03960245 -0.004865206 -0.069138825
found -0.032550074 0.0088171465 0.033004653 -0.03130397 0.07419117 0.043117102 -0.023979522 -0.04373634 -0.0066372673 -0.006239546 -0.0015194098 8.8750385e-06 -0.0077469256 -0.0014422629 -0.044590864 -0.027702482
anyone -0.04404605 -0.037817672 0.029566422 -0.04049378 -0.018733744 -0.0013474153 -0.024808329 -0.015778104 0.017248645 -0.0077479384 -0.026647184 -0.0058826404 0.024035418 0.051903702 0.014911426 0.03892032
having 0.05423705 -0.04722718 -0.035678774 -0.0008729581 -0.022394052 -0.023768902 0.059704844 -0.06949821 0.07137848 -0.021452464 -0.03896503 -0.0642613 -0.07839712 0.014670746 0.019213216 0.042964462
although 0.020575004 -0.0762171 -0.012769708 0.026002109 0.017489742 -0.088067144 0.017689902 -0.03815999 0.012228478 0.0029657441 -0.014945306 0.0036735306 -0.003218702 -0.031040935 -0.018668935 -0.05706195
especially 0.09963294 -0.09970449 -0.07403461 0.0775776 -0.0018956785 -0.033164624 0.023331406 -0.014715399 0.09357546 0.09531061 -0.059182357 0.0009738201 -0.1120125 -0.07118957 0.077674344 -0.05227451
our 0.030423988 -0.09257175 0.032981098 -0.0031183315 0.010961594 -0.07784251 0.07276364 0.0058623045 -0.046139326 0.07206285 -0.06216319 0.04551181 -0.0343102 -0.06413651 0.06293889 0.042184178
believe -0.07027846 0.06518077 -0.00013276891 0.03074094 -0.0013103577 0.076899715 0.028722541 0.046045322 0.017220842 0.030959273 0.063078366 -0.023764389 0.008002592 0.027346177 0.005686524 0.0068951654
course 0.08715072 0.0061548976 -0.013132101 0.0062482054 -0.03646851 -0.0099566225 0.0662263 -0.024530008 -0.0027364707 -0.02844952 -0.04786109 0.049710434 -0.0464638 -0.014975858 0.030645113 0.014073517
comes 0.010556826 -0.059536137 0.020002725 0.038398795 0.006234798 -0.0568772 -0.010613133 -0.012552339 0.005853196 0.04167704 0.012901788 0.018739691 -0.00043237893 -0.0009380459 0.061600093 -0.046875704
looking 0.04081691 -0.03927685 -0.00809905 0.015064673 0.026928207 -0.0035980844 0.02696163 0.036943726 -0.043432992 -0.029686816 0.008175273 0.006251793 -0.04354605 0.022173066 0.0009911059 0.05306993
screen 0.023876164 -0.014261106 -0.057705436 0.012183599 -0.03172031 -0.079074405 0.021954697 -0.020789651 0.029993454 0.014867087 -0.047960177 -0.014550887 -0.05828126 -0.08766255 0.019158237 -0.063045725
trying -0.07648772 0.019857211 0.071038425 -0.07085893 -0.003920914 0.043935373 -0.013504269 -0.013974757 -0.069097616 -0.008923444 0.08253659 -0.037603393 -0.043324336 0.0104579395 0.02083945 0.043844648
set -0.024865907 -0.051488206 -0.05140148 0.026592804 0.05225504 -0.03226972 -0.0061690453 -0.040833883 -0.015936034 0.046359394 -0.061238267 0.021059155 0.020776903 -0.045335423 -0.01942143 0.01345607
goes -0.012896866 -0.000100206526 0.009376701 0.014463503 -0.054006554 0.02289309 0.021131657 0.06789776 0.0077909525 0.0073552397 0.0035344292 -0.0744905 -0.0031675207 -0.053263426 -0.049631745 -0.0063249273
looks -0.11984139 0.11416845 0.05267311 -0.021002924 -0.026911799 0.08211003 -0.04484017 0.011940983 0.022633487 0.04261731 0.11706678 -0.09983594 0.066688694 0.023594918 0.027363464 0.07035001
place 0.030792175 0.0040433817 -0.025653161 -0.017620962 -0.028645268 -0.020766282 0.0024507006 -0.025430495 -0.033408724 -0.00742021 0.010337602 0.020192029 0.010934406 -0.05086575 0.026553981 -0.024592595
book -0.025583617 0.07692989 0.031668257 -0.047462884 0.09091921 0.014220398 -0.007610491 0.008724045 -0.031983864 -0.045601793 -0.02805465 0.035657525 0.023225304 0.03314681 -0.009089068 0.03470888
different 0.087426454 -0.037625525 -0.014650842 0.006175425 -0.028003648 -0.088799074 0.014585832 -0.08245887 0.016291786 0.07352716 -0.037174392 0.003553552 -0.0012769807 -0.018948391 0.013580116 -0.060784534
put -0.014185339 0.0098594865 0.03326252 0.078537665 -0.04156971 -0.014263985 0.0077967653 0.018885456 0.03809415 0.035791263 0.023098333 -0.020122698 -0.04870224 -0.055822495 0.07310567 -0.037918836
ending -0.034971625 0.0303995 -0.009649422 -0.014413826 -0.026520625 0.006802006 -0.03374396 0.00821113 -0.0104650175 0.053666934 0.02206189 0.05152526 -0.018152377 -0.088763535 0.016012708 0.0062804413
money 0.06394449 0.08097219 0.08004336 0.01592989 0.03614919 0.09142697 -0.059305515 0.046033286 -0.10144268 -0.058718305 0.056950346 0.033053584 0.09836907 0.058220584 -0.112792954 0.06266559
maybe -0.039495803 0.07022164 0.026473943 0.009396122 0.014469926 0.03498455 -0.06232214 0.015338393 -0.05022578 0.04074421 0.010306973 0.028988088 -0.016038183 0.025943663 -0.054236025 -0.013980783
once 0.081848465 -0.005800196 0.012404782 -0.007379058 -0.02062024 -0.038423095 -0.008637702 -0.025454564 -0.013925672 0.028694903 -0.061232146 0.016909733 -0.045968458 -0.009828289 0.049089488 -0.07071269
sense -0.01805817 0.075505 0.018948784 -0.047557674 0.07048451 0.054762732 0.03038594 -0.02582532 0.04747419 -0.011196981 0.09027453 0.00046069975 0.021136798 0.04390612 0.06306212 -0.074662454
reason -0.040259767 0.032616664 -0.010808349 0.045589153 0.034201566 -0.0189413 0.006932746 0.0757536 -0.016335737 -0.021312617 -0.0786595 0.042270046 0.035702027 0.052965533 -0.031939354 0.06911845
true 0.019540785 -0.08258086 -0.0711741 -0.0027563623 0.040125564 -0.026598763 0.01012829 -0.08035293 -0.0050573978 0.042558134 -0.043603595 0.0012527473 -0.041790176 -0.023238976 0.007124899 -0.028120685
actor 0.01455476 -0.0077074086 0.036325626 -0.044956837 0.044749536 -0.006148833 -0.026818268 -0.03495782 0.0056601227 -0.051463548 0.057082247 0.019761581 0.053102776 0.054162502 0.0022292058 0.005610053
everything -0.0108319 0.016955068 -0.029456228 -0.027980303 -0.0011800601 0.026341233 0.0011288427 -0.008308083 -0.041032 0.037840784 0.04273669 -0.02666938 -0.006616491 -0.0055012684 -0.048226535 -0.017734962
wasn't -0.05441955 -0.019795395 -0.018528825 -0.0026041816 -0.06766585 0.07813085 0.03430235 -0.026063608 -0.012147643 0.092599474 0.06516139 -0.046798572 0.08548683 0.0067311204 -0.032039348 0.020715978
shows 0.08487607 -0.061534386 -0.008596754 0.03332225 -0.044651777 -0.047377646 0.07625506 -0.065869465 0.06143661 0.06056427 -0.08990077 0.04666969 -0.044704676 -0.07905813 0.008650664 -0.0952901
dvd 0.021651879 -0.064223625 -0.062246915 0.066034414 0.02437184 -0.003418774 -0.00512507 -0.07089813 0.029275471 0.049400855 -0.057942405 -0.00525165 -0.079099625 -0.0018585952 -0.027570978 -0.019285826
three 0.015991619 0.016267639 -0.014926003 -0.0034853949 0.06943942 0.07474803 -0.02318833 0.045179565 -0.072948374 -0.006999249 0.000398466 -0.036154952 0.033153832 0.026489433 -0.013508411 0.033845007
worth -0.028444488 -0.043763883 0.022457315 0.07174294 0.06827928 -0.038397886 0.046471767 -0.025355719 -0.024739554 0.07883402 -0.024417026 0.024218345 -0.049852196 0.0076168645 0.0018893443 -0.0012643608
year -0.019663852 0.008949882 0.009847312 0.0025710235 0.03276821 -0.014521827 0.030762197 0.005749624 -0.0033870372 0.04207708 -0.06702374 0.0039543915 0.003196986 -0.019612344 0.007398658 -0.016540634
job 0.00938089 -0.04589447 0.017545087 0.02448384 -0.011763815 -0.09479369 0.11305545 -0.079617664 0.009778122 0.036965586 -0.026135953 0.0751958 -0.009789206 -0.022902254 0.03247886 -0.03501042
main 0.016532114 0.008811718 -0.029232852 0.04957514 0.0053462116 0.04584669 -0.041693125 0.014432533 0.0047579766 0.07629727 0.0051007215 0.008592302 0.02258535 0.050295196 0.0021960991 -0.0060410425
someone 0.027290829 -0.027524002 0.051991407 0.002511544 -0.02398112 0.05260841 -0.047638446 0.10598747 -0.0368148 -0.110556595 0.014519807 0.06861327 0.0059789177 0.04073965 -0.110468805 0.118983716
together 0.017890813 -0.008065689 -0.041376755 0.054038633 0.0073653846 -0.038130593 0.022465268 -0.050485775 0.0026395554 -0.0063764565 -0.060849268 -0.00666901 0.016575456 -0.012711404 0.041476354 -0.037014958
watched 0.0053841155 0.000121289704 -0.044642184 0.01638847 0.055124804 0.021097688 0.015308883 0.013348341 -0.054503426 -0.040729087 0.021683441 0.025418418 0.016170764 0.0090092905 0.009087981 0.00051918166
play 0.027765047 0.00054187025 0.035335705 -0.030139653 -0.03811614 -0.04749279 0.0054713185 0.011578733 -0.019218272 -0.0196134 0.004737445 0.029419182 -0.06350829 -0.04885345 0.05810924 -0.030265303
american 0.092482954 -0.0748299 -0.06825825 -0.036349937 0.008307419 -0.039461922 0.0023675314 -0.07601328 0.022891909 0.050805755 -0.040416304 -0.004574635 -0.057148386 -0.072081625 0.019981828 -0.027874751
plays 0.046298202 0.028767606 -0.010769693 -0.046484947 -0.006008599 -0.045384727 0.016980585 -0.033059955 0.0038470041 -0.025357904 -0.0010995285 -0.014743875 0.030416569 -0.012621791 0.03270644 0.027856879
1 -0.04052713 0.10830851 0.06452236 -0.04342397 0.024351697 0.09201464 0.03323217 -0.01484852 0.00081605976 0.028156674 0.09600901 -0.018447489 0.124239966 0.06715551 -0.101742715 0.09979739
said -0.0117453085 0.029623788 0.04557979 -0.0047061024 0.041856676 -0.018390495 0.025211439 0.0002491433 0.0059377803 -0.01002522 -0.03481988 0.05981786 -0.04165039 -0.041506603 0.036585655 0.022161834
effects -0.04162891 0.08365022 -0.051559582 -0.05218192 -0.087244764 -0.006044983 0.013820484 0.04672027 0.041808683 0.0051455228 0.027300106 0.04500177 0.05882417 0.045120165 0.0151852695 0.07697881
later 0.010832747 -0.010486667 -0.03803548 0.031474974 -0.0263784 0.021947114 0.016999476 -0.0093822135 -0.018176101 0.039681084 0.04275527 0.005707302 0.013747455 0.01667914 -0.02240384 -0.052447174
takes -0.023536252 -0.0312672 -0.08669223 0.008642882 -0.042518303 -0.0073957997 0.059575114 -0.009458887 0.023232186 -0.028074784 -0.01711586 0.038851183 0.0041599697 0.017988158 0.03377336 -0.017403308
instead -0.05388281 0.036613192 0.04342206 -0.021983348 -0.0059216833 0.060209405 -0.03327861 0.004944394 -0.07660663 -0.05058203 -0.035284262 -0.007607832 0.044765558 0.0320181 -0.0605284 0.05828979
seem 0.011730422 0.04405836 -0.05264177 0.051227085 -0.04032282 -0.06322243 -0.007318648 -0.0054750233 -0.0005258969 -0.04633046 0.06694661 0.003345688 -0.00077866775 -0.03243294 0.0020839234 0.043229617
beautiful 0.054889563 -0.03351235 -0.0627254 0.02084756 -0.0048043076 -0.11259867 0.048745602 -0.099741705 0.07625477 0.04476444 -0.038716875 0.025354428 -0.051135197 -0.026231984 -0.034757715 -0.10529399
john 0.047120195 -0.020522814 0.0017494041 0.009889477 -0.04243456 -0.0037232512 0.020131696 -0.02300119 0.012220085 -0.02709139 -0.0036686487 -0.028630305 -0.016476916 -0.034528133 -0.00013541445 0.025675865
himself -0.008605228 -0.039075285 0.024043752 0.0165224 -0.031125799 0.005103826 -0.04097729 0.021211172 -0.0422347 -0.019041713 -0.0046644052 0.006635896 -0.037570223 -0.03999535 -0.027736316 0.04433015
version -0.023025345 0.027043287 -0.030469814 0.0006511177 0.021230597 -0.019923268 0.049392592 -0.08631432 0.07078996 0.004312901 -0.037257068 0.03854447 -0.02200776 -0.014068593 -0.0048554637 -0.03074359
audience -0.030877437 0.04467267 0.0007456767 -0.038373437 -0.062655695 0.04217786 -0.056370586 -0.034742855 -0.04227421 0.0020837209 0.036342416 -0.036430128 -0.035894487 -0.03393944 0.00032359528 -0.035556655
high 0.03669609 -0.012525037 0.03862302 -0.034755405 0.022167083 0.03788634 0.016995471 0.04039139 0.053205743 -0.06034348 0.016374107 -0.030197484 -0.06978592 0.001897592 -0.010614468 0.018216593
house -0.010962183 -0.058174532 -0.022537017 -0.037689254 0.038634054 -0.0048735635 -0.016262501 0.00362208 -0.022144344 -0.027235627 -0.035093445 0.03816741 -0.035972983 -0.00096939335 0.06166088 0.022944434
night 0.009929381 -0.07875211 -0.008601282 0.015460284 -0.0059962603 -0.061271913 0.04319668 -0.02310906 0.0147928465 0.032400023 -0.048031554 0.027966658 -0.067533545 -0.07193 0.015263297 0.0077606724
during 0.013142006 -0.033008344 -0.046100687 0.03350048 0.033349577 -0.017840235 0.00085742207 -0.042836126 0.017784575 0.018774375 -0.038396787 0.0003915318 -0.040381894 -0.07995625 0.02143926 -0.034584858
everyone 0.065794535 -0.023896387 -0.03260386 -0.00095136574 -0.031621654 -0.095453694 0.017091138 0.018705953 0.0078988075 0.07986009 -0.07014816 -0.025748976 -0.06434538 -0.069473475 -0.014718506 -0.06327391
left -0.027935293 0.04408517 0.021337958 -0.04260863 -0.04944273 0.026561802 -0.09463118 0.050031234 -0.07324428 0.022522852 0.04349534 0.0467453 0.003104129 0.007768636 0.00234681 0.018075824
special 0.027630165 -0.010485412 -0.055199977 0.0050912746 0.0030437494 -0.048885103 0.015228721 -0.054470535 -0.0015603456 0.018204613 0.008077423 0.04712666 -0.007853316 -0.0021397334 0.02508743 -0.026219662
seeing 0.014031139 -0.06131503 -0.007985652 0.018853566 0.019684274 -0.04403538 -0.030664671 0.023567643 -0.043605108 0.038606334 0.01896224 -0.009374434 -0.079851106 0.026419954 0.0062720496 0.021058464
half -0.039050534 0.012100583 0.018351605 0.06342506 -0.006792702 0.087112226 -0.01235363 -0.02966942 -0.032309026 -0.035320967 -0.0006027165 -0.04565168 0.03850173 0.09306384 0.0077062566 0.03780457
excellent 0.11481922 -0.12674835 -0.11579177 0.07300468 -0.013449372 -0.11289707 0.07445965 -0.16387293 0.11078445 0.09582823 -0.08792892 0.018233465 -0.14957055 -0.110482864 -0.0026543054 -0.12263583
wife -0.026242796 -0.0029823263 0.0072589596 0.01424282 0.013399324 0.0016753864 0.014576041 -0.01063844 0.014120133 -0.010978927 0.017651984 -0.047492445 0.0149855185 0.05356462 0.019861538 -0.0071370937
star -0.06191436 0.024293946 -0.015010269 -0.055172704 -0.056642488 -0.0041359365 -0.009201177 -0.0039098756 -0.0046898182 0.0049950564 0.011088353 0.018593954 -8.776202e-06 -0.024345467 0.0450732 -0.04507345
shot -0.02677924 0.059075315 -0.07393211 -0.030547755 -0.0066890996 -0.033691145 -0.066978216 0.025098182 -0.018328387 -0.021266308 -0.038164403 -0.04749021 -0.041700445 0.044161167 0.030483143 -0.031972766
war 0.0115683535 -0.057943784 -0.016267387 0.044908963 0.022065187 -0.03070455 0.07367348 -0.018307831 0.03909497 -0.0035845628 -0.021800872 0.027782816 -0.077465855 -0.015888238 0.009447435 -0.027766006
idea -0.051376227 0.009470165 0.017570915 -0.008931744 0.042792123 0.07696407 -0.06896809 0.03409671 -0.098752886 -0.0817357 0.09939164 -0.04126858 0.060205292 0.029203238 -0.026936365 0.036643755
nice 0.04780296 -0.071323164 -0.042976726 0.054142945 0.0154537745 0.0006882888 0.05537408 -0.012234274 0.04182339 -0.002272978 -0.073907964 -0.012571028 -0.053720046 -0.041807633 0.015221135 -0.05774103
black 0.017692158 0.03973474 -0.039131317 -0.033659473 0.008566802 0.0057549076 -0.02887442 0.044922285 0.03075284 0.003711829 0.015830165 -0.009852358 -0.015215657 0.026219057 -0.02113683 -0.010834582
less 0.017884545 -0.046061598 0.06338888 0.0046124095 0.028193949 0.018161548 -0.009746198 0.0067988224 -0.017591754 -0.053155493 -0.00304507 -0.009313853 -0.029528433 -0.03582338 -0.008986643 -0.008354267
mind -0.027543515 -0.062494256 0.033818096 0.052012242 0.036620848 -0.0059230775 0.04666964 0.055522844 0.008719771 -0.0031413974 0.016258873 0.013932434 -0.058437936 -0.07013274 -0.06258182 0.030353641
simply 0.015726669 0.09989553 0.017730491 0.052983142 0.04034682 0.08497931 -0.028920637 0.04075709 -0.02737703 -0.0060565607 0.09053762 -0.022630319 0.06998943 0.052467797 0.010852267 -0.040950544
read 0.008352169 0.046075124 -0.021133468 -0.033999264 0.013217233 -0.04615147 0.030074414 0.057540786 -0.03892 -0.046769854 -0.009869831 -0.05054125 -0.033763796 0.061765328 0.049504578 0.03488516
second 0.05290955 -0.0050417325 -0.0028274693 0.03193345 -0.03635418 0.019424066 -0.007763311 0.005708034 -0.008371477 -0.01822817 -0.021157855 -0.031592682 -0.07528452 0.0196545 0.056421027 0.015495835
else -0.017206457 -0.018317552 0.0504668 0.04060032 -0.024512274 0.04513686 -0.07337871 0.022025522 0.047976717 0.04732592 0.010502 -0.056430228 0.007033835 0.08077087 -0.10847803 -0.031503446
you're -0.037802614 0.013475975 -0.010796036 -0.015840234 0.048855238 -0.05854507 0.040324494 0.028691767 -0.0043462813 0.005954155 0.030755505 0.00030243088 0.017046819 0.020075684 -0.02778931 -0.00513319
father 0.02896697 -0.034533374 -0.05174064 0.004559148 -0.05099932 -0.040094394 0.045689408 -0.07668 0.00021334295 -0.015469584 -0.024050942 0.031292103 0.047117285 -0.054764908 -0.02512993 -0.08306065
fan 0.014229938 -0.022507634 -0.0012005786 -0.02523249 0.014607828 0.039436918 0.05685702 0.03353689 -0.008810035 0.05670078 0.011211461 0.06669604 -0.028197007 -0.0046119443 0.061452147 0.05475031
poor -0.123032905 0.13932997 0.014476325 -0.032781836 -0.008520862 0.15435186 -0.055639684 0.07104748 0.039548434 -0.06883212 0.12453096 -0.13002047 0.14696537 0.16281448 0.10132767 -0.0057623154
help 0.018381916 -0.005040179 -0.0014117162 0.023349227 -0.034993727 0.028349193 -0.06536876 0.07247941 0.024982926 -0.06999147 -0.027474696 0.00728824 0.054446317 0.056608327 -0.04225715 0.0155496625
completely 0.014030443 0.07189851 0.034641504 -0.029470889 -0.0879653 -0.0073647117 -0.0527087 0.028206538 -0.03523078 -0.029605642 0.03259452 -0.022285309 0.06315074 0.061141863 -0.034638334 0.0714496
death 0.027785154 4.1735067e-05 -0.019519405 0.06640555 -0.034585293 -0.05769571 -0.02056698 0.0026179957 0.03397677 0.048435226 0.008952345 0.011052367 -0.011145738 -0.05338828 -0.0041388157 -0.00045768492
3 -0.04326643 0.07541829 0.062577285 0.02177022 -0.018070579 0.05818104 -0.06329375 0.040638175 0.0440753 0.0136394845 0.016942333 -0.06470083 0.09957182 0.05945121 0.06595882 0.08669397
used 0.041288182 -0.033299528 9.399024e-05 -0.035242114 -0.0059178127 0.022911489 0.012088992 0.0036646752 -0.014128681 0.010615144 0.0062981527 -0.04107466 0.024629876 -0.03608541 -0.0077302344 -0.041600835
home 0.07873132 0.023284752 -0.041552175 -0.03313316 -0.02277063 0.033029925 -0.021486564 -0.021032618 -0.039529126 -0.05986281 -0.0025171817 -0.060254917 0.024251547 0.027247427 0.02768816 -0.043893088
either -0.029819807 0.09519671 0.019260138 0.004330702 0.072092 -0.0054838443 0.011829743 0.045853168 -0.027631363 0.0115076965 0.016065614 0.0036392177 0.032553226 0.05201021 -0.028399318 0.042541526
short 0.024568865 -0.08140191 -0.012792805 -0.016372083 0.003919463 -0.0068825227 -0.006498007 -0.05253995 0.05796347 0.028480612 0.0003702945 0.031342473 -0.0103193065 -0.07475686 -0.0063071884 -0.031941667
line -0.07745233 -0.025559269 0.014122506 0.0006865984 0.04828384 0.022319632 -0.02649035 0.0178482 0.010337769 -0.016874304 0.023012178 -0.06244808 0.04978166 -0.047327865 0.030286167 0.011835796
given 0.008249341 0.028255124 -0.048970636 -0.0041441885 0.04054895 -0.023528073 0.057168387 -0.006666432 0.0123944245 -0.03026656 0.05602508 -0.02234254 -0.03161359 -0.02646114 0.0052790185 0.059877113
men -0.0088299075 -0.019694503 0.032637797 0.0409219 0.05782116 -0.010890964 0.023462461 0.050049603 0.021361556 0.0389821 0.024818476 0.009584033 0.0024944097 -0.011678139 -0.033933964 -0.026494173
top 0.04612872 -0.054482292 -0.026142254 -0.02229637 0.015720809 -0.058112677 0.052760076 -0.020607062 0.080002464 0.060925152 -0.00048280618 0.010823817 -0.060122218 -0.0549214 0.03410332 -0.055261374
dead -0.0196267 0.0018587827 -0.026289783 0.05738979 -0.008704494 0.05425318 0.016401649 -0.014550197 -0.039680846 -0.013860939 -0.020522075 0.019571453 0.036742605 0.059042186 0.00068297837 0.053105958
budget -0.013655166 0.0016039789 -0.014259111 -0.022581862 -0.0034897095 0.07348687 -0.05613809 0.029667478 -0.014453815 -0.02133261 -0.060387462 0.039036095 -0.03838965 -0.007005152 -0.051726356 0.046117242
try -0.05842898 0.075810954 -0.031487986 0.0040449575 0.083643384 0.033327706 0.015604252 0.024116924 0.00604101 0.046961837 0.060591675 -0.0067731477 0.077579066 0.092038035 -0.017295726 0.0029982068
performances 0.05118057 0.011259124 -0.01047205 0.0061592795 0.00825302 -0.104036376 0.013426794 -0.031813297 0.081095494 -0.03378707 0.007239039 0.008764717 -0.047840126 -0.06297801 0.06637346 -0.06860776
wrong 0.02257763 0.062017504 0.050547075 0.044349067 -0.09306251 0.055536572 0.0055351118 -0.02917088 -0.03463336 0.0060256943 0.020391962 0.018191492 0.08970018 -0.019366411 -0.06140036 0.02719798
classic 0.013815425 -0.049969137 -0.004334193 0.015190426 -0.034053195 -0.067693084 0.042404827 -0.04092392 -0.022602785 0.05524008 -0.07569791 -0.0051421206 -0.057221204 -0.06884079 0.041243758 -0.035171196
boring -0.111681335 0.04121264 0.13587911 -0.049761567 0.007818328 0.17906132 -0.010179909 0.09480014 0.016621087 -0.09616628 0.110849746 -0.09861954 0.117320046 0.115953624 -0.07348458 0.15986276
enjoy 0.10452556 -0.08373269 -0.066755734 0.04689101 -0.0014117709 -0.058508098 0.09109367 -0.03282054 0.06675153 0.06991166 -0.04802244 0.06487307 -0.10706766 -0.027425684 0.053002886 -0.06191384
need -0.008904866 0.022432353 -0.018811006 -0.030020576 0.013927941 0.045748815 0.049240522 -0.0174689 -0.026667295 0.04349364 -0.028427804 -0.003997753 -0.031756155 -0.018487005 0.011988248 -0.06377733
rest 0.01986214 0.05464769 0.022932442 0.06652031 0.034077983 0.060864013 -0.050455518 0.043816112 0.005597294 0.0017670566 0.0007146158 -0.030756578 -0.04544856 -0.0070112706 0.013205398 -0.023546351
use -0.012926779 -0.046140432 -0.007545701 0.024358986 0.03331493 0.011662459 0.024766061 0.038106117 -0.02045153 -0.027719045 0.03929807 0.01988917 0.006948938 0.03131163 -0.021555144 0.011609162
kids 0.06548911 -0.02616849 0.02570822 0.04156271 0.0064465064 -0.07586618 0.048536543 -0.025931481 0.057554323 0.05766052 -0.045695294 0.012369806 -0.011078048 0.00564172 -0.009401004 -0.03839781
hollywood 0.063833386 -0.025839338 0.010944508 0.04686351 -0.030996136 -0.017786037 0.009947377 -0.026591321 0.03721409 0.021381289 -0.013681276 0.04005199 -0.029216569 -0.019845925 0.011996837 -0.08163442
low 0.059639774 0.06178064 -0.040381074 0.0610833 -0.0040883175 -0.015793206 -0.05689153 0.0634858 -0.079014964 -0.060186133 -0.020392241 0.07093019 0.0398343 0.0533209 0.006279569 0.07104945
production -0.005226279 0.03615827 -0.036361508 0.019163793 0.10094916 -0.01443306 0.038556024 -0.021339871 0.045134675 -0.034855597 -0.022426743 -0.05680993 0.056468517 -0.062658 -0.039098825 -0.0031456614
until 0.013205783 -0.08078411 -0.010661005 -0.014321127 -0.026428089 -0.08281859 0.0236071 -0.025429796 0.05735363 0.0209983 0.013680706 0.0032476704 -0.040912684 -0.110570595 0.047585268 -0.048465896
along 0.015505794 -0.012476802 -0.034905527 -0.041245945 0.030443024 -0.0112636555 0.044021744 0.046944596 -0.057095844 -0.06667205 -0.0013812884 -0.004175952 0.027678177 -0.011024019 0.010711855 0.009922493
full 0.017948376 -0.0431157 -0.010657814 0.044769064 -0.0045222435 -0.02722287 0.06280503 -0.040337414 0.056756206 -0.011806155 -0.061271604 -0.06373069 -0.06918155 -0.018331802 0.037397683 -0.021893302
friends 0.0024461867 -0.009506213 -0.07116412 -0.0032297105 -0.01106825 -0.0074804532 0.02091447 -0.059468456 -0.024869544 -0.014922308 -0.00962772 0.03144135 0.03527078 -0.0035774154 0.03033189 -0.012955793
camera 0.0076885973 0.056198873 0.026552286 0.004673625 -0.0037993782 0.014596791 0.003107952 0.08027659 0.01598844 -0.0057043605 -0.020537836 0.027490772 -0.0060768267 0.031305593 0.009815268 -0.0174181
truly 0.017365051 -0.026892819 0.0457015 -0.05091131 0.015044565 -0.027003974 -0.016255388 -0.015680566 0.055117432 -0.04805666 -0.01877382 -0.06557219 -0.0002576401 -0.04056793 0.0011809232 0.028528802
women 0.02344311 0.020873997 0.059378967 -0.01770678 0.06713052 0.00020432741 -0.07482859 -0.027505307 0.023402445 0.0058359276 0.019496107 0.012000613 0.019709177 0.054168575 -0.03523191 -0.011703898
awful -0.096459396 0.1308253 0.082046054 -0.15551752 0.08333558 0.08498498 -0.08858579 0.0025239033 -0.12302315 -0.0043847654 0.13343304 -0.063025355 0.17155571 0.17453362 0.024940992 0.1415791
video -0.024341663 0.0088962065 -0.015438764 -0.050752 -0.011443075 0.044392142 -0.007638205 -0.02188049 -0.01474687 0.047656216 0.006815535 -0.024589932 0.011426926 -0.04227257 -0.06819812 -0.05448342
next -0.009660083 -0.053268082 -0.08015984 -0.0036333792 0.0053771357 -0.041531157 0.011785027 -0.055449028 0.06214708 0.0039414377 -0.0035449849 -0.019199904 -0.06525112 0.0003779194 -0.022802455 -0.042910513
tell -0.028118027 -0.029620793 -0.04911691 -0.04566206 0.027838986 0.037163023 0.024722133 -0.020065745 -0.011255081 0.021138363 -0.025706047 -0.030502792 0.066745006 -0.021425594 0.0060069403 0.03888803
remember 0.038490087 -0.0086945575 -0.10333181 0.027035762 -0.0067705354 -0.057485756 0.019668058 -0.023215609 0.034135405 -0.0078542605 -0.05391034 0.02702413 -0.09612963 -0.085403346 0.011168558 -0.03860125
couple -0.05081411 0.007973675 -0.020780195 -0.0383353 -0.056448452 0.011941291 -0.024506941 -0.022703858 0.05969234 0.05628284 -0.04148823 0.0009818263 -0.005706377 -0.0016287081 0.04284214 0.008448052
stupid -0.0713093 -0.04283179 0.064094216 -0.10777083 -0.13195278 0.123954885 -0.03763948 0.07089127 0.07658293 -0.08626049 0.076814264 -0.010951577 0.07168631 0.11040307 -0.102136716 0.10348951
start -0.036857214 -0.0031400272 -0.019413084 -0.038493697 0.041732505 0.037067343 -0.026077807 -0.03005349 -0.002695844 0.027103921 0.055290923 -0.037968792 0.034798495 0.005193095 0.04131048 0.046687968
stars 0.001425551 0.037324775 -0.04141539 0.012837321 0.013261762 0.01160433 -0.034545425 -0.054452606 0.013209225 -0.03368482 0.044039316 0.025487255 -0.04414639 -0.055317268 0.05698331 0.031659566
perhaps -0.028137796 -0.0058642146 -0.026890205 -0.034104496 0.0013399925 -0.031031983 0.04130638 0.041197464 0.021711234 -0.013210138 -0.045886002 -0.025644092 -0.06778755 0.010540466 -0.018973928 -0.049817793
sex -0.04547342 0.031109488 -0.055310592 0.02437098 -0.057341717 -0.018036647 -0.07225204 0.07548176 -0.0635444 0.04555745 0.033343054 0.020738807 0.011971779 0.083738744 -0.00052657496 0.0090951305
mean 0.029095078 0.035438217 0.03921089 0.016066264 0.041269552 0.09966207 -0.07076411 0.03238514 0.004656233 -0.055124316 0.068010926 -0.0067531816 0.036188442 0.0938262 0.0213657 0.04537913
came -0.009297662 0.039501585 -0.007910184 -0.010222262 -0.048453264 -0.014950343 0.03608877 -0.04493534 -0.039161272 -0.017168308 -0.030241944 0.01029152 -0.0064576664 0.0068333815 -0.06105456 0.00083495013
recommend 0.027460922 -0.011125016 0.0442892 -0.029304892 0.015812546 -0.046477746 -0.0014491547 -0.043224216 -0.016263913 0.0069620116 -0.021684524 0.0042899344 -0.029409185 -0.03938652 0.014533762 -0.06147397
let -0.051771093 0.04062361 -0.031871688 0.037183143 -0.01680675 -0.010913776 -0.057482153 0.016357765 0.0025098892 -0.03982601 -0.04825889 -0.013583686 0.004790463 0.040137243 -0.011852849 -0.010272434
moments 0.030269405 -0.03508514 -0.015558485 -0.042915296 0.027513975 0.0064799455 0.028535474 -0.06270757 0.036041893 -0.03188053 -0.032735277 -0.08096121 -0.01111387 -0.032913595 -0.0235032 -0.0004118345
wonderful 0.109404996 -0.121074684 -0.05774572 0.10444816 -0.005433764 -0.13201149 0.05818525 -0.08780117 0.12231654 0.07266858 -0.07005012 0.0059748054 -0.09330711 -0.05991704 -0.0005739097 -0.11929459
episode -0.004510318 -0.06732232 -0.024892252 -0.035787616 -0.05914209 -0.059113756 0.03923215 0.031387944 -0.015220345 0.0075021493 -0.019853229 -0.015694687 -0.07456086 0.013218861 -0.038828965 -0.033678
understand -0.028564334 -0.07130614 -0.055590533 0.0010585375 0.005815739 -0.06478721 0.020086365 0.011628803 0.020227717 0.00084196054 -0.045771874 -0.014621088 0.0057637463 -0.0019425217 -0.01398654 -0.07218384
small -0.0007602875 -0.06712428 0.0068303403 0.07633703 0.042771336 -0.039725978 0.028010573 -0.0211545 0.046563517 0.055112854 -0.0050279694 -0.02026637 -0.06582396 -0.026568327 -0.012089132 -0.05189264
face 0.02395712 0.04221341 -0.014710422 0.013124396 -0.039852224 0.008989918 0.00027239503 0.025470769 0.033314794 0.00482848 0.027193146 0.0025670046 0.029054558 0.047117554 -0.04489477 0.019938078
terrible -0.17032316 0.15483098 0.03309679 -0.0074583646 0.052556124 0.100466 -0.15454753 0.11659137 0.1231237 0.025460826 -0.015462759 -0.12387099 0.13782366 0.1568517 0.13176627 0.01223712
playing 0.001046335 -0.010138346 0.021777458 0.033723895 -0.009673983 -0.03558805 0.020115009 -0.027070586 0.040625937 0.023879396 0.011133841 0.04258112 -0.008886834 -0.035562005 0.015816372 -0.02091742
school 0.027771728 0.08263569 0.0015990915 -0.070938535 -0.02391479 0.038667124 -0.058500685 0.019535763 -0.00503464 0.023881981 0.059939794 0.06203131 -0.004766755 0.033052254 -0.050594326 0.05300726
getting 0.01296991 -0.0130408695 0.010706795 0.032143213 -0.029986823 0.006719241 0.020040557 -0.033319317 0.017674591 -0.008239184 -0.071950406 -0.041528862 -0.0036319676 -0.054960635 -0.018017022 -0.040073417
written -0.059218276 -0.019291926 0.030821895 -0.08545612 0.04097269 -0.030590992 -0.005924676 0.010165101 -0.03674913 0.021499893 -0.0032586188 0.053815648 0.013602305 0.06673892 -0.048867863 -0.027755396
doing -0.06370622 -0.0013309572 0.029619416 0.023269316 -0.033542734 0.035921767 -0.051351 -0.042686943 0.027937403 0.02982922 0.0023569989 -0.053932294 -0.021361753 0.0628135 0.043835513 0.004039391
often 0.07109716 0.017766206 -0.056948796 -0.0035898318 -0.027982175 -0.031606153 -0.020883935 -0.049004417 0.051066156 0.009180072 -0.048816748 0.003492184 -0.022808561 -0.027610233 0.041646853 -0.065212905
keep -0.042145282 0.028086431 -0.015808363 -0.035027497 0.01635382 -0.021939214 -0.009285064 0.020518923 -0.035796124 -0.021959335 0.030322842 -0.017559202 0.00938909 -0.046853803 0.0035109774 -0.020717666
early 0.06565709 -0.04422448 -0.03733252 -0.025193721 0.0078677805 -0.034640305 0.0045444956 -0.05183669 0.020123482 0.03232456 -0.048328668 0.032696977 -0.06303851 -0.012202112 0.00050632627 -0.08588258
name -0.058681525 0.026133936 0.016259125 -0.07513082 -0.01776451 0.01671951 -0.014556284 0.028231671 -0.03418898 -0.00941092 0.048776314 -0.056428693 0.057589665 0.036438726 0.012491369 0.004405006
perfect 0.07981901 -0.11568735 -0.07485295 0.12899493 -0.027422367 -0.1443364 0.14171547 -0.10609207 0.0858777 0.09163194 -0.120020404 0.0343139 -0.11649467 -0.10874201 0.02389385 -0.079960644
style 0.010475308 -0.0587361 -0.021126214 -0.03947203 -0.012062691 0.022860479 -0.05218545 0.04057205 -0.0037503948 0.025325622 0.0089325225 0.03792066 -0.037446924 -0.08981568 0.080700286 0.014427134
human 0.010311014 -0.032730665 0.0034073652 -0.042486396 -0.05233717 -0.08782698 0.03444168 -0.045115374 0.030576747 -0.020506125 0.0036112424 0.022088101 0.0027384087 -0.0578347 0.03660817 0.030468138
definitely 0.052814305 -0.060909916 -0.04807478 0.07764963 -0.019710004 -0.09539128 0.059396114 -0.10664826 0.042279948 0.057942405 -0.05478353 0.09385979 -0.072809346 -0.051076032 0.04194669 -0.06198023
gives -0.011559045 0.01399605 -0.071410656 0.03084144 0.038980316 -0.0392873 0.097741775 0.0038978115 0.025159055 -0.011657225 -0.029436175 0.024057511 -0.010441483 0.003667199 0.003997782 -0.005726076
others 0.044859182 -0.046196297 -0.043313675 0.057936028 -0.036108427 -0.06207936 0.045500208 -0.0014578975 -0.014134439 -0.0049493816 0.0143184485 0.039204195 -0.0437378 -0.06046564 -0.0026714029 0.015226383
itself -0.009884592 0.073403895 -0.005138277 -0.06952245 0.029205741 0.09957326 0.047418308 0.05221112 0.0014749003 -0.01362316 0.04176397 0.023595763 0.023356315 -0.03677162 -0.03739497 0.032499913
lines -0.0490916 -0.042579237 0.054117102 0.019447306 -0.008437978 0.030229049 -0.01923846 -0.0010602693 -0.004739425 0.040233858 0.022135124 0.07005373 0.00941824 0.03621833 -0.03517045 -0.03681759
live 0.06155181 -0.0387946 -0.077613205 0.013499283 -0.005108528 -0.07076752 0.040507164 -0.035204276 0.022655303 0.05209193 -0.058508582 -0.000966482 -0.05497798 -0.022694465 -0.008861797 -0.09532374
become 0.060524896 -0.02823516 -0.07055863 0.058242064 0.0008336407 -0.047900114 0.042739104 -0.06999581 -0.0042308327 0.0058922926 -0.06531508 0.062106017 -0.042036436 -0.04780081 -0.01576694 -0.0061080283
dialogue -0.039922 0.019887248 0.075533755 -0.075600974 -0.04185944 0.07725796 -0.033553027 -0.025380027 0.020690804 -0.0081754215 0.053260557 0.018872743 0.067072 -0.011179253 -0.07547371 0.06419105
person 0.06554485 0.0031312453 0.00041112007 0.0076585445 -0.01479764 0.018549385 -0.0142064225 -0.0059525687 0.02752276 0.044104524 0.023294244 -0.02064639 0.005775152 0.044305433 -0.016886823 -0.008655755
lost 0.00771471 0.008369527 -0.060172513 0.012040432 -0.016090767 -0.053687498 -0.021543339 -0.010672861 -0.004177497 0.0012955612 -0.005937261 0.010428506 0.0034158141 -0.047826752 0.051567074 -0.015413989
finally -0.04968621 -0.05514796 -0.043245237 0.007134306 -0.060992036 -0.018411716 0.05596281 0.046328593 -0.009545818 -0.022653986 -0.0068650167 0.0293976 0.0332549 0.025396658 0.02197854 -0.0465529
piece 0.0055750245 0.0950987 0.092515 -0.00712236 0.04029139 0.08328308 0.026361603 0.036523513 -0.029084047 -0.059114687 -0.033574615 0.003999124 0.07931086 0.03251209 -0.024222014 0.007971531
head 0.018585546 0.05253961 0.060766373 -0.028273273 0.0393254 0.07747483 -0.12165247 0.08046499 0.004341906 0.0022981635 0.054894153 -0.051492494 0.026201883 0.0838007 -0.05541939 0.071696274
case 0.05841856 0.008670513 -0.0013192487 0.027244087 0.012914437 -0.008655798 0.0062485915 0.030126892 -0.01805756 -0.032369137 0.0036957175 0.018657565 -0.031069076 -0.017938739 0.033932142 -0.0044005667
felt 0.034942415 -0.015833264 -0.018365812 0.021940168 -0.030809883 -0.02762289 0.05052084 0.017340481 0.014627329 0.013363677 -0.006832414 -0.0064854817 0.007728153 -0.0379065 0.029661087 -0.04470039
yes 0.05911667 -0.0072272527 -0.07131978 -0.020868914 -0.0048457193 0.0068191313 0.04395519 -0.05897071 0.03106282 0.055255655 -0.0631208 0.03101878 -0.07794805 -0.060148902 -0.0064999945 -0.055092257
liked 0.016970314 -0.05280825 -0.033874508 0.04558018 0.022530675 -0.056396272 0.05895391 -0.094356805 0.03411988 0.054505162 -0.07822786 -0.027021589 -0.044773534 -0.017836532 -0.021511458 -0.1030199
supposed -0.09816045 0.08051813 0.046720576 -0.10002814 0.027608534 0.018757086 -0.05271787 0.048994787 0.06572001 -0.024326758 -0.03128546 0.07176484 -0.031411074 0.062491585 0.022089055 0.0794123
title -0.054187518 0.04795252 -0.00231017 0.018767118 -0.0010437801 0.011044167 -0.015401334 -0.027118096 0.028241832 0.027734993 0.038700767 -0.049978644 0.014728464 -0.053791307 0.020274594 -0.05384699
couldn't -0.07315496 0.050290868 0.128632 -0.09736932 0.10865196 0.07694262 -0.059287205 0.02553299 0.046205394 -0.058413256 0.03571816 -0.07162353 0.09927957 0.00013631601 0.0076469528 0.0264972
absolutely -0.000451345 0.06647981 0.06855709 0.0053599398 0.046184335 0.021300647 -0.011932221 0.07657794 0.056241777 -0.11344387 0.05466034 -0.030050408 0.00095302163 0.0075403526 0.06107462 0.009874874
white 0.05540954 -0.052361067 -0.038789593 0.015138449 0.0052621695 -0.005281435 0.03766428 -0.028078552 -0.020755006 0.033806223 -0.043468695 0.017797427 -0.058401763 0.018114015 -0.03967549 -0.06359079
against -0.042156324 -0.019112846 -0.07973546 0.06114564 -0.07261745 0.006269308 0.031941194 -0.02554825 -0.02316267 0.0015293199 -0.070340164 -0.046069685 -0.00065201137 -0.02817432 0.0021777954 0.024879528
boy 0.00933698 -0.02991693 0.016661305 0.025068134 -0.040325932 -0.057306334 0.026838893 0.0019459241 0.0062376005 -0.017955339 -0.051164016 0.04865334 -0.030391522 -0.036643207 0.030795157 -0.018443268
picture -0.030402176 -0.04344259 -0.047541372 -0.019552384 -0.043502357 0.015146473 -0.022038614 -0.021910692 -0.034361616 0.04984579 0.019448388 -0.019835645 -0.034630816 -0.024120307 -0.013827638 -0.001604577
sort -0.046081416 0.036182147 -0.052741997 -0.013345843 0.041307453 0.0054091215 -0.022346359 0.05229139 0.019974355 -0.05980583 0.023846947 -0.037403874 0.029842995 0.062264793 0.00051204377 -0.021626407
worse -0.10459359 0.1666076 0.08052351 0.011739293 0.07999462 0.11046743 0.004701284 0.033326562 0.11976292 -0.048308745 0.0044348175 -0.13098352 0.14985509 0.10834625 0.15106131 0.023846034
certainly 0.041909993 -0.028459257 -0.025262373 0.007090895 -0.07829933 -0.02571466 0.07558337 -0.02068845 0.024003303 0.018801013 -0.054947592 0.05766446 -0.050963838 -0.05395441 0.06639758 -0.013957182
went -0.06351542 0.052702636 0.033553205 -0.09406097 0.043279875 0.028577857 -0.024158338 0.05581849 -0.05928493 -0.050859414 -0.006991016 -0.07843909 0.023719234 0.029716166 -0.02721617 0.05086735
entire -0.052632928 0.0021680805 0.034602933 0.03238542 -0.026722634 0.0053410223 -0.050208338 -0.031667255 0.0081495475 -0.027505292 -0.010123859 -0.042591076 0.08048874 -0.011184312 -0.034147095 0.073800415
waste -0.20499307 0.12420714 0.10412099 -0.20700292 -0.04757772 0.16788019 -0.106695406 0.13754351 0.17436557 0.07104065 -0.12984662 0.16110131 0.17751148 -0.07250037 -0.14399342 0.20950073
cinema 0.09202039 0.006567551 -0.063623734 -0.02877366 0.012127483 -0.04043214 0.03190663 -0.047098305 0.068978 0.046729106 -0.0041530263 -0.005958597 0.015847549 -0.039168548 0.013049853 -0.04720332
problem -0.049298447 -0.015249941 0.04814336 0.008283811 0.047107164 -0.03508982 0.006575559 -0.036173366 -0.03472766 0.01663003 0.045670856 -0.06704133 0.03152223 -0.0037681905 0.074999854 0.06803185
hope -0.026463304 -0.02794862 0.04470355 -0.013772597 -0.027340095 0.019020244 -0.012986251 0.0117958635 0.031503133 -0.006439384 -0.01157876 0.017357424 0.031925134 -0.014241984 0.010647452 -0.027414894
entertaining 0.01968989 -0.04971757 -0.0019468052 -0.02782157 -0.058973253 -0.099051744 0.085165605 -0.030654779 0.0068221483 0.06839311 -0.0049863425 -0.03618675 -0.020953573 -0.03150408 -0.0023714877 -0.019669537
she's -0.018322984 0.037383642 -0.021051764 -0.04003563 0.015017145 -0.055528704 0.01976341 -0.008701962 0.032320242 -0.031970054 0.015646782 0.062123626 -0.008303213 -0.024300305 0.03061419 -0.012087085
mr 0.018752426 -0.04726843 -0.027654594 -0.0124293575 0.006222629 -0.016942123 0.020590914 -0.059264712 -0.016399097 0.025625803 0.026272425 -0.024577975 -0.013408249 0.011777172 -0.022273391 0.03169946
overall -0.031653304 0.031596795 -0.0090831965 -0.050067313 0.074606575 0.01973285 0.06736903 0.046810042 -0.055210195 0.028827606 0.037115734 -0.011806463 0.0072512487 -0.018922687 0.05339841 0.043071285
evil 0.0041743354 -0.0060742544 0.034518447 0.03832263 0.010160193 0.033023827 -0.0274248 -0.040841058 -0.016054567 -0.031134931 -0.05957679 -0.004640527 -0.012382442 -0.046300247 0.017599128 0.03216203
called -0.033761464 0.015615928 -0.007841956 -0.030865707 -0.054853167 -0.0069944384 -0.009822212 0.020020314 -0.0046827155 0.046645597 0.022085587 0.023467286 0.01407773 -0.010035451 -0.0018282176 -0.04465945
loved 0.1053957 -0.10121514 -0.13855039 0.035869822 -0.055138428 -0.13668843 0.12544118 -0.050435882 0.06323887 0.05151952 -0.11002797 0.00017430069 -0.042370487 -0.08303354 0.031224715 -0.08370457
based 0.01665985 -0.014439406 -0.017457277 0.029874057 -0.007689653 -0.010569757 0.102218956 0.023527205 0.01873991 0.055290584 -0.01990442 -0.015755912 -0.013128303 -0.00034476208 0.043698594 -0.059608765
oh -0.107387304 0.09557164 0.013338281 -0.02262058 -0.017982433 0.091034904 0.023043107 0.028565759 -0.0949702 0.0011195561 0.09703573 0.07753056 0.10846185 0.10796093 -0.022515986 0.060136225
several -0.003268097 0.0005110018 -0.027017305 0.019991513 -0.049760472 -0.0051574474 0.041770905 -0.05123296 -0.0325933 0.0011243781 -0.025614545 -0.017165149 -0.018960616 -0.058987267 0.05409 -0.08136314
fans 0.01729722 -0.052543446 -0.09816509 0.015434586 0.052719437 -0.027406646 0.0048173186 -0.035299852 -0.01894804 -0.005528313 -0.067032754 0.0020812056 -0.06709066 0.026733747 -0.0012483937 -0.010777716
mother -0.014381186 0.00032749661 -0.028937677 0.008166151 0.07057123 0.05666907 -0.035851147 0.01889418 -0.014269375 -0.05082954 -0.012209712 -0.035663944 0.026206579 0.025227899 -0.053754766 -0.015660064
drama -0.027078964 0.0075711254 0.009472637 -0.016179582 0.02179862 0.018157128 0.037418813 -0.030839615 -0.007174019 0.022468885 -0.0150193535 0.0122074075 0.027605725 0.024456836 -0.033844013 -0.059891243
beginning 0.033973094 -0.05444601 0.010200909 0.021379353 -0.0031553302 -0.058132183 -0.007116123 -0.046026945 -0.0011636317 0.038029294 -0.029775715 0.014048985 -0.0037505606 0.01058963 -0.052006178 -0.05246992
killer -0.019565027 0.01902371 0.026355913 -0.041402467 0.012823086 0.056182776 -0.05347201 0.055619784 0.007056955 -0.029167604 0.009243828 0.053773038 -0.0041827434 -0.06166524 -0.039361883 -0.0022063279
lives 0.039171528 -0.02220313 -0.037944883 0.050520957 -0.001983334 -0.013105085 0.029236864 -0.05733461 -0.011737344 0.055243094 -0.024371682 0.049862474 -0.022776144 0.025965309 -0.03232534 -0.044384874
5 0.05956682 0.0029115903 -0.080028564 0.060761727 0.029896505 -0.06855603 -0.023534764 -0.0042113033 -0.032034114 -0.012675354 0.030691173 -0.026178537 -0.039674636 -0.06405935 -0.0015146652 -0.0047615967
direction -0.07592645 -0.008992222 -0.0018289553 -0.059265435 0.03912185 0.049211454 -0.0004510103 0.05379527 -0.04158152 -0.0072125387 -0.0030257462 0.0032348454 0.0051740455 0.01585382 -0.077760234 0.027377293
care -0.040366467 0.019471837 0.04715866 -0.073127165 -0.014073277 0.021592788 -0.019241607 0.019193081 0.021325076 -0.07765709 -0.0058457786 0.009520436 0.049082775 0.08899525 -0.034899317 0.04029638
already 0.042266507 -0.007581577 0.064683564 -0.029182453 -0.03920604 -0.042794295 0.022374492 -0.02417695 -0.046838097 -0.034651227 0.047412317 -0.004776578 0.023207158 0.08319494 0.04392098 -0.03805301
becomes -0.027513463 0.032469228 0.07773648 0.0017489463 0.04088278 0.039641496 0.023690887 0.032428727 -0.0052645495 -0.012222324 0.013130145 -0.038047876 0.025739007 0.015804827 0.024851993 -0.012896391
laugh -0.037319083 -0.023034789 0.043297324 0.0060542086 -0.04618266 -0.05365444 -0.054666173 -0.047101744 0.017944489 0.04495848 0.022086335 -0.046071567 -0.037367716 -0.042049363 0.07710301 -0.03226822
example -0.0049049994 -0.026810084 0.0046905475 -0.062286958 0.0029768988 0.033332128 0.050580993 0.0151465405 -0.028445357 -0.04898147 0.030370994 -0.0350111 0.024329519 0.028337147 0.06516894 0.06432748
friend 0.016197225 -0.031214207 -0.04677747 -0.016876534 0.036275078 0.008336815 -0.044950683 -0.0024097976 0.0071270596 -0.05819859 0.024087744 -0.017146328 -0.06279198 0.02637077 0.027528543 -0.061123267
dark 0.022410754 -0.07905478 -0.052567568 0.014673978 -0.01714549 -0.044867072 0.06132421 -0.045929857 -0.02038694 0.061049722 -0.006529268 0.022945354 -0.017804598 -0.025401026 -0.045061633 -0.0061971755
despite 0.015625006 0.010820307 -0.02033862 -0.03869024 -0.0024888415 -0.0028546178 -0.0025799216 0.011400834 0.0035381084 -0.030239375 -0.04762907 0.0348401 -0.033280373 -0.0032904763 0.046637308 -0.04611557
under 0.039706312 -0.035048123 -0.01707643 -0.023729103 -0.021481916 -0.00489342 0.017625168 0.03903348 -0.0148475915 0.01708968 -0.014425656 -0.028582305 -0.036357142 0.015062987 0.07481392 -0.039591506
seemed -0.062303893 0.07524644 0.087092355 0.005233059 0.03722006 0.061427742 0.0389099 -0.024132127 -0.036056627 -0.0100331195 0.04998359 -0.035536505 0.042683396 0.03426545 0.05924201 -0.031945635
throughout -0.014550545 0.008759353 0.001366165 -0.024944331 -0.016619202 -0.0035376216 0.065312356 -0.011757283 -0.026088541 0.020122757 -0.013263833 -0.0023529106 -0.01133344 -0.032984495 0.05303893 -0.032514848
4 0.0057525663 0.024563484 0.015806777 -0.029380046 0.042312097 -0.0006157312 -0.08099066 0.054038092 0.0011070856 -0.07404846 -0.0016619179 0.09141589 0.04396474 0.057129875 -0.036279052 0.10057604
turn -0.008738074 -0.03812016 -0.058874995 0.029393382 -0.058854606 -0.019574894 0.051256582 0.026332678 0.036914147 -0.0190754 -0.022497917 0.006787871 0.020294417 0.009622182 0.030028624 -0.04165978
unfortunately -0.0486878 0.13738875 0.081919156 -0.104535356 -0.04715664 0.11464377 -0.003476834 0.09716545 0.087568976 -0.06792153 0.11534661 -0.08253155 0.074831486 0.118480705 0.011976304 0.016507069
wanted 0.0012470181 0.02045086 0.01773854 0.034270287 0.0037041672 0.013887356 0.026807256 -0.019819645 0.08084052 0.022074694 -0.04355011 0.020687405 -0.016119538 -0.015059322 0.030801238 0.024378857
i'd -0.027677946 0.028460076 -0.023048373 -0.013121018 -0.028164648 -0.02130565 -0.046276048 0.0010552501 -0.008157763 0.028738154 0.03957587 -0.020093873 -0.020700531 -0.025402194 -0.01740115 0.037938245
 0.0044259517 0.015481891 -0.012169368 -0.02426396 0.037672423 0.02974508 -0.020495012 -0.025009954 -0.03982052 0.0022697654 -0.0062952917 -0.029726872 -0.0067507634 -0.026706439 0.017587705 0.03484552
children -0.017734459 -0.057516195 -0.01691924 0.06385879 0.022031981 -0.044543166 0.0011029341 -0.04572471 0.01462644 0.0076655443 -0.039519835 -0.030261528 0.017047135 -0.018855397 0.008771443 -0.022183958
final 0.0982277 -0.0708376 -0.04563134 -0.015058576 -0.03761266 -0.011634468 0.012005891 -0.039470006 0.009030715 0.08614559 -0.015913382 0.052817564 -0.009780079 -0.0113182925 0.05618401 -0.031521287
fine 0.03512347 -0.076409884 0.00092491566 0.06696422 -0.0713743 -0.051979497 0.06587141 0.009439367 0.03164486 0.007874066 -0.013866681 0.039555132 -0.05759663 -0.08278723 -0.0053369417 -0.06064609
history -0.013766594 0.056295097 -0.038581133 -0.013759875 -0.024827603 -0.028436637 0.024245944 -0.057463117 -0.018125983 -0.037700087 0.014595588 -0.0066979686 0.0147929825 0.018624224 -0.00012704168 -0.00948769
amazing 0.0809752 -0.120770104 -0.10757319 0.068949476 -0.012926028 -0.13166916 0.053218216 -0.10776215 0.09472934 0.014937106 -0.06056437 0.034973823 -0.059765235 -0.115784705 0.037209287 -0.12329963
sound 0.069408804 -0.02305785 -0.014173717 -0.005616602 -0.034679826 -0.032408766 0.026147103 -0.03438739 0.015299027 0.047052555 0.0121925585 0.048996132 0.047060356 0.029066345 -0.019966014 0.00061585894
guess -0.03848258 -0.0065861046 0.08070652 -0.024033874 0.11660319 0.021472713 -0.023832528 0.060581386 -0.040008225 -0.092840925 0.028848918 -0.051962513 0.014472188 0.10572252 -0.013546322 0.07212971
heart 0.0813196 -0.054110423 -0.03793847 0.032728992 0.022647144 -0.08551328 0.041462664 -0.040092997 0.036337774 0.042268403 -0.0078803245 0.03391974 -0.031067487 -0.008795289 0.042975415 -0.007374197
totally 0.008951259 -0.0027164903 -0.009430702 0.0451545 0.0453843 0.039430868 -0.016530579 0.08807219 -0.051468037 -0.024393436 0.010136664 -0.060606502 0.03228025 0.028108742 -0.07334311 0.08772804
lead -0.061316423 0.023136193 0.050760407 -0.0016814345 -0.00928665 0.010402419 -0.031946406 0.097545214 -0.043174174 0.03256905 -0.016553843 0.0072200447 0.09212347 -0.013434017 0.009786292 0.027618553
humor 0.005131279 0.0023146907 0.029013036 0.06867177 -0.014839972 -0.013818073 0.010374732 -0.029543556 0.046739418 0.0030178812 -0.031714693 0.027169574 -0.016153257 -0.01487765 -0.004671477 0.026350439
writing -0.04451067 0.0005105816 0.07663203 -0.008207028 0.042558312 -0.006129412 0.0008152934 0.04778286 -0.019175403 -0.002956447 -0.06332987 0.094295695 0.086524054 0.06490393 -0.0945165 0.06913737
michael 0.016756356 -0.059694417 0.0030466896 0.040837254 0.03622255 0.005308687 0.020365402 -0.041258413 -0.04011656 0.04979322 0.0069885193 -0.013595451 -0.07227584 -0.024627358 0.044690713 -0.003345646
quality 0.016559385 0.029794417 -0.017506849 -0.06541695 -0.070295304 0.013068641 0.037755314 0.014829765 -0.01499944 0.054239072 -0.028325073 -0.035781424 0.003929082 -0.020107545 -0.06400461 0.040221743
you'll 0.05076681 0.0042435583 0.014222839 0.023601351 -0.037383664 -0.06572637 -0.010618372 -0.026340272 -0.007080997 -0.002745204 -0.03628598 0.028129064 -0.04669661 -0.03529343 0.07423488 -0.03792251
close -0.008130632 0.015508482 -0.0237177 -0.020536475 0.029736022 0.03497044 -0.0053303964 -0.004050829 -0.0015944333 -0.044240117 -0.039283976 -0.018878309 -0.011789712 -0.041583594 -0.021298077 0.051252343
son -0.0029213119 0.003259003 -0.03520645 0.018584184 0.053408314 0.040862378 0.03492802 0.044002518 0.024446374 0.0045669125 -0.039396476 -0.032412495 -0.013229508 0.0066973763 -0.034280825 -0.006576455
guys 0.0073663266 -0.012748092 -0.038637854 0.07369822 0.006946899 -0.07768697 0.0019483806 -0.040161032 0.027873041 0.042991173 -0.015365316 0.046010125 -0.012923674 -0.0031833646 0.025639957 -0.017959785
wants -0.0037200009 0.009561039 -0.035247058 -0.018575644 0.008825103 0.004544768 -0.043955408 -0.028958919 0.05076831 -0.001434633 -0.024362557 -0.0052900813 0.047303658 0.037207536 -0.016963055 0.05862798
works 0.047491312 -0.022626333 -0.08555758 0.0567214 -0.02247741 -0.04284149 0.102704816 -0.06388647 0.0067228647 0.041062646 -0.038959257 0.028681813 -0.0031421515 -0.018365538 0.059299696 -0.03349511
behind 0.034760557 -0.030226013 0.012889876 0.027168706 0.01893103 -0.007621197 0.023461968 -0.059914853 0.03968068 0.034682166 -0.023023771 -0.0290424 0.022693194 -0.055699114 0.057535354 -0.036534294
